time (03.06.2024);target (PCB) temperature (C);chiller setpoint (C);chiller temperature (internal) (C);housing temperature (C);sensor box temperature (C);PCB temperature (C);Pt1000 temperature (C);housing humidity (%);sensor box humidity (%)
15:07:43;-18.10;-30.00;-29.99;12.20;-19.10;-18.10;-19.04;21.30;7.50
15:07:45;-18.10;-30.00;-29.99;12.20;-19.10;-18.10;-19.04;21.40;7.50
15:07:47;-18.10;-30.00;-30.01;12.20;-19.10;-18.10;-19.04;21.50;7.40
15:07:49;-18.10;-30.00;-30.02;12.20;-19.10;-18.20;-19.05;21.50;7.40
15:07:51;-18.10;-30.00;-30.03;12.20;-19.10;-18.10;-19.04;21.50;7.50
15:07:53;-18.10;-30.00;-30.03;12.20;-19.10;-18.20;-19.04;21.50;7.50
15:07:55;-18.10;-30.00;-30.01;12.20;-19.10;-18.10;-19.05;21.50;7.50
15:07:57;-18.10;-30.00;-29.99;12.20;-19.10;-18.20;-19.06;21.50;7.50
15:07:59;-18.10;-30.00;-29.99;12.20;-19.10;-18.20;-19.07;21.60;7.50
15:08:01;-18.10;-30.00;-30.00;12.20;-19.10;-18.20;-19.05;21.60;7.50
15:08:03;-18.10;-30.00;-30.01;12.20;-19.10;-18.20;-19.04;21.60;7.50
15:08:05;-18.10;-30.00;-29.99;12.20;-19.10;-18.20;-19.04;21.60;7.50
15:08:07;-18.10;-30.00;-30.00;12.20;-19.10;-18.20;-19.04;21.60;7.50
15:08:09;-18.10;-30.00;-30.00;12.20;-19.10;-18.20;-19.03;21.60;7.40
15:08:11;-18.10;-30.00;-30.01;12.20;-19.10;-18.20;-19.03;21.70;7.50
15:08:13;-18.10;-30.00;-30.01;12.20;-19.10;-18.20;-19.02;21.70;7.40
15:08:15;-18.10;-30.00;-30.00;12.20;-19.10;-18.20;-19.01;21.60;7.50
15:08:20;-18.10;-30.00;-29.99;12.20;-19.10;-18.10;-19.00;21.50;7.40
15:08:23;-18.10;-30.00;-30.02;12.20;-19.10;-18.10;-18.99;21.50;7.50
15:08:25;-18.10;-30.00;-30.00;12.20;-19.10;-18.10;-18.98;21.50;7.50
15:08:27;-18.10;-30.00;-30.00;12.10;-19.10;-18.10;-18.98;21.40;7.40
15:08:29;-18.10;-30.00;-30.02;12.10;-19.10;-18.10;-18.98;21.40;7.50
15:08:31;-18.10;-30.00;-30.02;12.20;-19.10;-18.10;-18.98;21.40;7.40
15:08:33;-18.10;-30.00;-29.99;12.20;-19.10;-18.10;-18.98;21.40;7.50
15:08:35;-18.10;-30.00;-30.00;12.20;-19.10;-18.10;-18.98;21.40;7.50
15:08:37;-18.10;-30.00;-30.02;12.10;-19.10;-18.10;-18.98;21.40;7.40
15:08:39;-18.10;-30.00;-30.02;12.20;-19.10;-18.10;-18.99;21.40;7.40
15:08:42;-18.10;-30.00;-30.00;12.10;-19.10;-18.10;-18.99;21.40;7.50
15:08:43;-18.10;-30.00;-29.99;12.20;-19.10;-18.10;-18.99;21.40;7.50
15:08:46;-18.10;-30.00;-29.98;12.20;-19.10;-18.10;-18.99;21.40;7.40
15:08:47;-18.10;-30.00;-29.99;12.10;-19.10;-18.10;-18.98;21.40;7.50
15:08:49;-18.10;-30.00;-29.99;12.10;-19.10;-18.10;-18.99;21.40;7.50
15:08:52;-18.10;-30.00;-30.00;12.20;-19.10;-18.10;-18.99;21.30;7.50
15:08:53;-18.10;-30.00;-30.00;12.20;-19.10;-18.10;-18.99;21.20;7.50
15:08:56;-18.10;-30.00;-30.02;12.20;-19.10;-18.10;-18.98;21.20;7.50
15:08:58;-18.10;-30.00;-30.02;12.20;-19.10;-18.10;-18.98;21.20;7.40
15:08:59;-18.10;-30.00;-30.03;12.20;-19.10;-18.10;-18.98;21.20;7.40
15:09:02;-18.10;-30.00;-30.01;12.20;-19.10;-18.10;-18.98;21.20;7.50
15:09:04;-18.10;-30.00;-30.00;12.20;-19.10;-18.10;-18.98;21.20;7.40
15:09:07;-18.10;-30.00;-30.00;12.10;-19.10;-18.10;-18.96;21.10;7.40
15:09:10;-18.10;-30.00;-30.01;12.10;-19.10;-18.10;-18.96;21.10;7.50
15:09:11;-18.10;-30.00;-30.01;12.20;-19.10;-18.10;-18.97;21.20;7.50
15:09:14;-18.10;-30.00;-30.00;12.10;-19.10;-18.10;-18.97;21.30;7.50
15:09:16;-18.10;-30.00;-30.01;12.20;-19.10;-18.10;-18.96;21.30;7.40
15:09:17;-18.10;-30.00;-30.01;12.10;-19.10;-18.10;-18.96;21.20;7.50
15:09:20;-18.10;-30.00;-30.00;12.10;-19.10;-18.10;-18.96;21.20;7.50
15:09:22;-18.10;-30.00;-29.97;12.10;-19.10;-18.10;-18.97;21.20;7.40
15:09:24;-18.10;-30.00;-29.99;12.10;-19.10;-18.10;-18.97;21.20;7.40
15:09:26;-18.10;-30.00;-29.98;12.10;-19.10;-18.10;-18.97;21.20;7.50
15:09:28;-18.10;-30.00;-29.99;12.10;-19.10;-18.10;-18.95;21.20;7.40
15:09:30;-18.10;-30.00;-30.01;12.20;-19.10;-18.10;-18.96;21.10;7.40
15:09:32;-18.10;-30.00;-30.02;12.20;-19.10;-18.10;-18.96;21.10;7.40
15:09:34;-18.10;-30.00;-30.00;12.20;-19.10;-18.10;-18.95;21.00;7.50
15:09:36;-18.10;-30.00;-29.99;12.20;-19.10;-18.10;-18.96;21.00;7.40
15:09:38;-18.10;-30.00;-29.99;12.10;-19.10;-18.10;-18.96;21.00;7.40
15:09:40;-18.10;-30.00;-30.00;12.10;-19.10;-18.10;-18.95;21.10;7.40
15:09:42;-18.10;-30.00;-29.99;12.10;-19.10;-18.10;-18.96;21.10;7.40
15:09:44;-18.10;-30.00;-29.98;12.10;-19.10;-18.10;-18.95;21.00;7.40
15:09:46;-18.10;-30.00;-30.00;12.10;-19.10;-18.10;-18.96;20.90;7.40
15:09:48;-18.10;-30.00;-30.01;12.10;-19.10;-18.10;-18.96;20.90;7.40
15:09:50;-18.10;-30.00;-30.02;12.10;-19.10;-18.00;-18.95;20.90;7.40
15:09:52;-18.10;-30.00;-30.02;12.10;-19.10;-18.10;-18.94;21.00;7.40
15:09:54;-18.10;-30.00;-30.02;12.10;-19.10;-18.10;-18.95;21.00;7.40
15:09:56;-18.10;-30.00;-30.02;12.10;-19.10;-18.10;-18.95;21.00;7.40
15:09:58;-18.10;-30.00;-30.02;12.10;-19.10;-18.10;-18.94;21.00;7.40
15:10:00;-18.10;-30.00;-30.01;12.10;-19.10;-18.10;-18.94;21.10;7.40
15:10:02;-18.10;-30.00;-30.00;12.10;-19.10;-18.00;-18.95;21.10;7.40
15:10:04;-18.10;-30.00;-30.01;12.10;-19.10;-18.10;-18.96;21.10;7.40
15:10:06;-18.10;-30.00;-30.01;12.10;-19.10;-18.10;-18.95;21.20;7.40
15:10:08;-18.10;-30.00;-30.01;12.10;-19.10;-18.10;-18.95;21.20;7.40
15:10:10;-18.10;-30.00;-30.00;12.10;-19.10;-18.10;-18.95;21.20;7.40
15:10:12;-18.10;-30.00;-29.98;12.10;-19.10;-18.10;-18.95;21.20;7.40
15:10:14;-18.10;-30.00;-29.99;12.10;-19.10;-18.10;-18.95;21.20;7.40
15:10:16;-18.10;-30.00;-29.98;12.10;-19.10;-18.00;-18.95;21.20;7.40
15:10:18;-18.10;-30.00;-29.97;12.10;-19.10;-18.10;-18.94;21.20;7.40
15:10:20;-18.10;-30.00;-29.99;12.10;-19.10;-18.00;-18.93;21.10;7.40
15:10:22;-18.10;-30.00;-29.99;12.10;-19.10;-18.00;-18.94;21.00;7.40
15:10:24;-18.10;-30.00;-30.00;12.10;-19.10;-18.10;-18.94;21.00;7.40
15:10:26;-18.10;-30.00;-30.01;12.10;-19.10;-18.10;-18.95;21.00;7.30
15:10:28;-18.10;-30.00;-30.02;12.10;-19.10;-18.10;-18.94;21.00;7.40
15:10:30;-18.10;-30.00;-30.02;12.10;-19.10;-18.10;-18.95;21.10;7.40
15:10:32;-18.10;-30.00;-30.02;12.10;-19.10;-18.00;-18.96;21.10;7.40
15:10:34;-18.10;-30.00;-30.00;12.10;-19.10;-18.10;-18.96;21.10;7.40
15:10:36;-18.10;-30.00;-30.00;12.10;-19.10;-18.10;-18.96;21.10;7.40
15:10:38;-18.10;-30.00;-30.00;12.10;-19.10;-18.10;-18.96;21.20;7.40
15:10:40;-18.10;-30.00;-30.00;12.10;-19.10;-18.10;-18.96;21.10;7.40
15:10:42;-18.10;-30.00;-29.99;12.10;-19.10;-18.10;-18.96;21.10;7.40
15:10:44;-18.10;-30.00;-29.99;12.10;-19.10;-18.10;-18.95;21.10;7.40
15:10:46;-18.10;-30.00;-30.01;12.10;-19.10;-18.10;-18.95;21.10;7.40
15:10:48;-18.10;-30.00;-30.02;12.10;-19.10;-18.10;-18.95;21.20;7.40
15:10:50;-18.10;-30.00;-30.01;12.10;-19.10;-18.10;-18.95;21.20;7.40
15:10:52;-18.10;-30.00;-30.00;12.10;-19.10;-18.10;-18.94;21.20;7.40
15:10:54;-18.10;-30.00;-30.01;12.10;-19.10;-18.10;-18.92;21.20;7.40
15:10:56;-18.10;-30.00;-30.02;12.10;-19.10;-18.00;-18.93;21.20;7.30
15:10:58;-18.10;-30.00;-29.98;12.10;-19.10;-18.00;-18.94;21.10;7.30
15:11:00;-18.10;-30.00;-30.00;12.10;-19.10;-18.00;-18.94;21.20;7.40
15:11:02;-18.10;-30.00;-30.00;12.10;-19.10;-18.10;-18.93;21.10;7.40
15:11:04;-18.10;-30.00;-30.01;12.10;-19.10;-18.10;-18.94;21.10;7.40
15:11:06;-18.10;-30.00;-30.01;12.10;-19.10;-18.10;-18.95;21.00;7.40
15:11:08;-18.10;-30.00;-30.02;12.10;-19.10;-18.10;-18.95;21.00;7.40
15:11:10;-18.10;-30.00;-30.00;12.10;-19.10;-18.10;-18.95;21.00;7.40
15:11:12;-18.10;-30.00;-29.97;12.10;-19.10;-18.10;-18.95;21.10;7.30
15:11:14;-18.10;-30.00;-29.98;12.10;-19.10;-18.10;-18.95;21.10;7.30
15:11:16;-18.10;-30.00;-30.01;12.10;-19.10;-18.10;-18.95;21.00;7.40
15:11:18;-18.10;-30.00;-30.03;12.10;-19.10;-18.10;-18.96;21.00;7.30
15:11:20;-18.10;-30.00;-30.05;12.10;-19.10;-18.00;-18.95;21.00;7.40
15:11:22;-18.10;-30.00;-30.04;12.10;-19.10;-18.10;-18.94;21.00;7.40
15:11:24;-18.10;-30.00;-30.03;12.10;-19.10;-18.10;-18.94;21.00;7.30
15:11:26;-18.10;-30.00;-30.01;12.10;-19.10;-18.10;-18.95;20.90;7.30
15:11:28;-18.10;-30.00;-30.00;12.10;-19.10;-18.10;-18.96;20.90;7.30
15:11:30;-18.10;-30.00;-30.00;12.10;-19.10;-18.00;-18.94;20.90;7.30
15:11:34;-18.10;-30.00;-29.96;12.10;-19.10;-18.10;-18.96;21.00;7.40
15:11:36;-18.10;-30.00;-29.97;12.10;-19.10;-18.10;-18.96;20.90;7.30
15:11:38;-18.10;-30.00;-29.99;12.10;-19.10;-18.10;-18.96;20.90;7.40
15:11:40;-18.10;-30.00;-29.99;12.10;-19.10;-18.10;-18.95;20.90;7.30
15:11:42;-18.10;-30.00;-29.97;12.10;-19.10;-18.10;-18.95;20.90;7.40
15:11:44;-18.10;-30.00;-29.97;12.10;-19.10;-18.10;-18.95;20.80;7.30
15:11:46;-18.10;-30.00;-30.01;12.10;-19.10;-18.10;-18.96;20.80;7.40
15:11:48;-18.10;-30.00;-30.02;12.10;-19.10;-18.10;-18.96;20.80;7.40
15:11:50;-18.10;-30.00;-30.02;12.10;-19.10;-18.10;-18.95;20.80;7.30
15:11:52;-18.10;-30.00;-30.00;12.10;-19.10;-18.10;-18.96;20.80;7.30
15:11:54;-18.10;-30.00;-29.97;12.10;-19.10;-18.10;-18.95;20.90;7.30
15:11:56;-18.10;-30.00;-29.97;12.10;-19.10;-18.10;-18.95;20.90;7.30
15:11:58;-18.10;-30.00;-29.99;12.10;-19.10;-18.10;-18.95;20.90;7.30
15:12:00;-18.10;-30.00;-30.00;12.10;-19.10;-18.10;-18.93;20.90;7.30
15:12:02;-18.10;-30.00;-30.00;12.10;-19.10;-18.10;-18.94;20.90;7.30
15:12:04;-18.10;-30.00;-30.00;12.10;-19.10;-18.00;-18.94;21.00;7.40
15:12:06;-18.10;-30.00;-29.99;12.10;-19.10;-18.10;-18.93;21.00;7.30
15:12:08;-18.10;-30.00;-29.99;12.10;-19.10;-18.10;-18.94;21.00;7.40
15:12:10;-18.10;-30.00;-30.00;12.10;-19.10;-18.10;-18.94;20.90;7.30
15:12:12;-18.10;-30.00;-29.99;12.10;-19.10;-18.10;-18.95;20.90;7.30
15:12:14;-18.10;-30.00;-30.01;12.10;-19.10;-18.10;-18.95;20.90;7.30
15:12:16;-18.10;-30.00;-30.00;12.10;-19.10;-18.10;-18.94;20.90;7.30
15:12:18;-18.10;-30.00;-29.99;12.10;-19.10;-18.10;-18.94;20.80;7.30
15:12:20;-18.10;-30.00;-30.01;12.10;-19.10;-18.10;-18.94;20.80;7.30
15:12:22;-18.10;-30.00;-30.00;12.10;-19.10;-18.10;-18.94;20.80;7.30
15:12:24;-18.10;-30.00;-30.02;12.10;-19.10;-18.10;-18.94;20.80;7.30
15:12:26;-18.10;-30.00;-30.01;12.00;-19.10;-18.00;-18.95;20.80;7.30
15:12:28;-18.10;-30.00;-30.03;12.00;-19.10;-18.10;-18.95;20.80;7.30
15:12:30;-18.10;-30.00;-30.00;12.00;-19.10;-18.10;-18.95;20.80;7.30
15:12:32;-18.10;-30.00;-29.99;12.10;-19.10;-18.10;-18.94;20.80;7.30
15:12:34;-18.10;-30.00;-30.00;12.00;-19.10;-18.10;-18.94;20.80;7.30
15:12:36;-18.10;-30.00;-30.03;12.10;-19.10;-18.10;-18.95;20.70;7.30
15:12:38;-18.10;-30.00;-30.02;12.00;-19.10;-18.10;-18.94;20.70;7.30
15:12:40;-18.10;-30.00;-30.02;12.10;-19.10;-18.10;-18.96;20.80;7.30
15:12:42;-18.10;-30.00;-30.01;12.00;-19.10;-18.10;-18.96;20.70;7.30
15:12:44;-18.10;-30.00;-30.01;12.00;-19.10;-18.10;-18.94;20.70;7.40
15:12:46;-18.10;-30.00;-30.00;12.00;-19.10;-18.00;-18.94;20.70;7.30
15:12:48;-18.10;-30.00;-30.00;12.00;-19.10;-18.10;-18.94;20.70;7.30
15:12:50;-18.10;-30.00;-30.02;12.00;-19.10;-18.00;-18.94;20.80;7.30
15:12:52;-18.10;-30.00;-30.02;12.00;-19.10;-18.10;-18.93;20.80;7.30
15:12:54;-18.10;-30.00;-30.01;12.00;-19.10;-18.10;-18.94;20.80;7.30
15:12:56;-18.10;-30.00;-30.01;12.00;-19.10;-18.10;-18.94;20.80;7.30
15:12:58;-18.10;-30.00;-30.00;12.00;-19.10;-18.10;-18.95;20.80;7.20
15:13:00;-18.10;-30.00;-30.00;12.00;-19.10;-18.10;-18.96;20.70;7.30
15:13:02;-18.10;-30.00;-30.00;12.00;-19.10;-18.10;-18.97;20.80;7.30
15:13:04;-18.10;-30.00;-30.01;12.00;-19.10;-18.10;-18.97;20.80;7.30
15:13:06;-18.10;-30.00;-30.01;12.00;-19.10;-18.10;-18.96;20.80;7.30
15:13:08;-18.10;-30.00;-30.00;12.00;-19.10;-18.10;-18.96;20.90;7.30
15:13:10;-18.10;-30.00;-30.00;12.00;-19.10;-18.10;-18.96;20.90;7.40
15:13:12;-18.10;-30.00;-30.02;12.00;-19.10;-18.10;-18.97;20.90;7.30
15:13:14;-18.10;-30.00;-30.02;12.00;-19.10;-18.10;-18.96;20.90;7.30
15:13:16;-18.10;-30.00;-30.00;12.00;-19.10;-18.10;-18.95;20.90;7.30
15:13:18;-18.10;-30.00;-30.01;12.00;-19.10;-18.10;-18.95;20.90;7.30
15:13:22;-18.10;-30.00;-30.01;12.00;-19.10;-18.10;-18.95;20.90;7.30
15:13:24;-18.10;-30.00;-30.02;12.00;-19.10;-18.10;-18.94;20.80;7.30
15:13:26;-18.10;-30.00;-30.00;12.00;-19.10;-18.10;-18.94;20.80;7.30
15:13:28;-18.10;-30.00;-30.01;12.00;-19.10;-18.10;-18.94;20.80;7.30
15:13:30;-18.10;-30.00;-30.00;12.00;-19.10;-18.00;-18.94;20.70;7.30
15:13:32;-18.10;-30.00;-29.99;12.00;-19.10;-18.10;-18.95;20.70;7.30
15:13:34;-18.10;-30.00;-29.99;12.00;-19.10;-18.10;-18.95;20.70;7.30
15:13:36;-18.10;-30.00;-30.00;12.00;-19.10;-18.10;-18.96;20.70;7.30
15:13:38;-18.10;-30.00;-30.01;12.00;-19.10;-18.10;-18.96;20.70;7.30
15:13:40;-18.10;-30.00;-30.01;12.00;-19.10;-18.10;-18.96;20.70;7.30
15:13:42;-18.10;-30.00;-30.02;12.00;-19.10;-18.10;-18.97;20.70;7.30
15:13:44;-18.10;-30.00;-30.02;12.00;-19.10;-18.10;-18.97;20.80;7.30
15:13:46;-18.10;-30.00;-30.00;12.00;-19.10;-18.10;-18.97;20.80;7.30
15:13:48;-18.10;-30.00;-29.99;12.00;-19.10;-18.10;-18.96;20.80;7.30
15:13:50;-18.10;-30.00;-29.99;12.00;-19.10;-18.10;-18.96;20.90;7.30
15:13:52;-18.10;-30.00;-30.00;12.00;-19.10;-18.10;-18.95;20.90;7.30
15:13:54;-18.10;-30.00;-30.01;12.00;-19.10;-18.10;-18.96;21.00;7.30
15:13:56;-18.10;-30.00;-30.00;12.00;-19.10;-18.10;-18.96;20.90;7.30
15:13:58;-18.10;-30.00;-29.99;12.00;-19.10;-18.10;-18.96;20.90;7.30
15:14:00;-18.10;-30.00;-29.99;12.00;-19.10;-18.10;-18.96;20.80;7.30
15:14:02;-18.10;-30.00;-29.99;12.00;-19.10;-18.10;-18.95;20.80;7.30
15:14:04;-18.10;-30.00;-30.00;12.00;-19.10;-18.10;-18.95;20.80;7.20
15:14:06;-18.10;-30.00;-29.99;12.00;-19.10;-18.10;-18.95;20.80;7.30
15:14:08;-18.10;-30.00;-30.00;12.00;-19.10;-18.10;-18.95;20.80;7.30
15:14:10;-18.10;-30.00;-30.02;12.00;-19.10;-18.10;-18.95;20.80;7.30
15:14:12;-18.10;-30.00;-29.99;12.00;-19.10;-18.10;-18.95;20.90;7.20
15:14:14;-18.10;-30.00;-30.00;12.00;-19.10;-18.10;-18.95;20.80;7.30
15:14:16;-18.10;-30.00;-30.01;12.00;-19.10;-18.10;-18.96;20.80;7.30
15:14:18;-18.10;-30.00;-30.01;12.00;-19.10;-18.10;-18.96;20.80;7.30
15:14:20;-18.10;-30.00;-30.01;12.00;-19.10;-18.10;-18.96;20.70;7.30
15:14:22;-18.10;-30.00;-29.99;12.00;-19.10;-18.10;-18.96;20.70;7.30
15:14:24;-18.10;-30.00;-29.99;12.00;-19.10;-18.10;-18.95;20.70;7.20
15:14:26;-18.10;-30.00;-30.01;12.00;-19.10;-18.10;-18.94;20.70;7.30
15:14:28;-18.10;-30.00;-30.02;12.00;-19.10;-18.10;-18.96;20.60;7.30
15:14:30;-18.10;-30.00;-30.02;12.00;-19.10;-18.10;-18.97;20.60;7.30
15:14:32;-18.10;-30.00;-30.03;12.00;-19.10;-18.00;-18.96;20.60;7.20
15:14:34;-18.10;-30.00;-30.03;12.00;-19.10;-18.10;-18.97;20.60;7.30
15:14:36;-18.10;-30.00;-30.00;12.00;-19.10;-18.10;-18.97;20.70;7.30
15:14:38;-18.10;-30.00;-30.00;12.00;-19.10;-18.10;-18.96;20.70;7.30
15:14:40;-18.10;-30.00;-30.01;12.00;-19.10;-18.10;-18.97;20.70;7.30
15:14:42;-18.10;-30.00;-30.02;12.00;-19.10;-18.10;-18.97;20.70;7.20
15:14:44;-18.10;-30.00;-30.02;12.00;-19.10;-18.10;-18.97;20.70;7.30
15:14:46;-18.10;-30.00;-30.00;12.00;-19.10;-18.10;-18.98;20.70;7.20
15:14:48;-18.10;-30.00;-29.99;12.00;-19.10;-18.10;-18.99;20.70;7.20
15:14:50;-18.10;-30.00;-30.00;12.00;-19.10;-18.10;-18.99;20.70;7.30
15:14:52;-18.10;-30.00;-30.01;12.00;-19.10;-18.10;-18.98;20.70;7.30
15:14:54;-18.10;-30.00;-30.00;12.00;-19.10;-18.10;-18.98;20.80;7.30
15:14:56;-18.10;-30.00;-30.00;12.00;-19.10;-18.10;-18.98;20.80;7.30
15:14:58;-18.10;-30.00;-29.97;12.00;-19.10;-18.10;-18.98;20.70;7.30
15:15:00;-18.10;-30.00;-29.98;12.00;-19.10;-18.10;-18.98;20.70;7.30
15:15:02;-18.10;-30.00;-29.99;12.00;-19.10;-18.10;-18.97;20.70;7.30
15:15:04;-18.10;-30.00;-30.01;12.00;-19.10;-18.10;-18.97;20.70;7.30
15:15:06;-18.10;-30.00;-30.01;12.00;-19.10;-18.10;-18.98;20.70;7.20
15:15:10;-18.10;-30.00;-30.01;12.00;-19.10;-18.10;-18.96;20.70;7.30
15:15:12;-18.10;-30.00;-30.00;12.00;-19.10;-18.10;-18.98;20.60;7.20
15:15:14;-18.10;-30.00;-29.98;12.00;-19.10;-18.10;-18.99;20.60;7.30
15:15:16;-18.10;-30.00;-29.98;12.00;-19.10;-18.10;-18.99;20.50;7.20
15:15:18;-18.10;-30.00;-29.97;12.00;-19.10;-18.10;-19.00;20.50;7.30
15:15:20;-18.10;-30.00;-29.99;12.00;-19.10;-18.10;-18.98;20.40;7.30
15:15:22;-18.10;-30.00;-30.00;12.00;-19.10;-18.10;-18.98;20.40;7.30
15:15:24;-18.10;-30.00;-30.00;12.00;-19.10;-18.10;-18.98;20.40;7.30
15:15:26;-18.10;-30.00;-29.99;12.00;-19.10;-18.10;-18.98;20.40;7.30
15:15:28;-18.10;-30.00;-29.97;12.00;-19.10;-18.10;-18.98;20.40;7.20
15:15:30;-18.10;-30.00;-29.98;12.00;-19.10;-18.10;-18.97;20.40;7.20
15:15:32;-18.10;-30.00;-30.00;12.00;-19.10;-18.10;-18.97;20.40;7.20
15:15:35;-18.10;-30.00;-30.00;12.00;-19.10;-18.10;-18.97;20.40;7.20
15:15:37;-18.10;-30.00;-29.98;12.00;-19.10;-18.10;-18.97;20.30;7.20
15:15:38;-18.10;-30.00;-29.98;11.90;-19.10;-18.10;-18.97;20.30;7.20
15:15:40;-18.10;-30.00;-29.98;12.00;-19.10;-18.10;-18.98;20.20;7.20
15:15:42;-18.10;-30.00;-30.00;11.90;-19.10;-18.10;-18.98;20.30;7.30
15:15:45;-18.10;-30.00;-30.02;11.90;-19.10;-18.10;-18.98;20.30;7.20
15:15:47;-18.10;-30.00;-30.02;12.00;-19.10;-18.10;-18.99;20.30;7.20
15:15:49;-18.10;-30.00;-30.02;11.90;-19.10;-18.10;-18.98;20.20;7.20
15:15:50;-18.10;-30.00;-30.04;11.90;-19.10;-18.10;-18.98;20.20;7.20
15:15:53;-18.10;-30.00;-30.03;11.90;-19.10;-18.10;-18.99;20.20;7.20
15:15:55;-18.10;-30.00;-30.02;11.90;-19.10;-18.10;-18.98;20.20;7.20
15:15:56;-18.10;-30.00;-30.01;11.90;-19.10;-18.10;-18.98;20.30;7.30
15:15:59;-18.10;-30.00;-30.00;12.00;-19.10;-18.10;-18.99;20.30;7.30
15:16:01;-18.10;-30.00;-30.00;11.90;-19.10;-18.10;-18.99;20.30;7.20
15:16:02;-18.10;-30.00;-30.01;11.90;-19.10;-18.10;-18.98;20.30;7.20
15:16:05;-18.10;-30.00;-30.00;11.90;-19.10;-18.10;-18.98;20.30;7.20
15:16:06;-18.10;-30.00;-30.01;11.90;-19.10;-18.10;-18.98;20.20;7.30
15:16:09;-18.10;-30.00;-30.01;11.90;-19.10;-18.10;-18.98;20.20;7.20
15:16:11;-18.10;-30.00;-29.99;11.90;-19.10;-18.10;-18.99;20.20;7.20
15:16:12;-18.10;-30.00;-30.00;11.90;-19.10;-18.10;-18.99;20.20;7.20
15:16:15;-18.10;-30.00;-30.00;11.90;-19.10;-18.10;-19.00;20.20;7.20
15:16:17;-18.10;-30.00;-30.02;11.90;-19.10;-18.10;-19.00;20.20;7.20
15:16:19;-18.10;-30.00;-30.01;11.90;-19.10;-18.10;-19.00;20.20;7.20
15:16:21;-18.10;-30.00;-30.00;11.90;-19.10;-18.10;-19.00;20.20;7.20
15:16:23;-18.10;-30.00;-30.01;11.90;-19.10;-18.10;-19.00;20.10;7.30
15:16:25;-18.10;-30.00;-29.99;11.90;-19.10;-18.10;-19.00;20.00;7.20
15:16:27;-18.10;-30.00;-30.02;11.90;-19.10;-18.10;-18.99;20.00;7.20
15:16:29;-18.10;-30.00;-30.02;11.90;-19.10;-18.10;-18.99;20.00;7.30
15:16:31;-18.10;-30.00;-30.00;11.90;-19.10;-18.10;-18.99;20.00;7.20
15:16:33;-18.10;-30.00;-30.00;11.90;-19.10;-18.10;-18.99;19.90;7.30
15:16:35;-18.10;-30.00;-30.01;11.90;-19.10;-18.10;-18.99;20.00;7.10
15:16:37;-18.10;-30.00;-30.01;11.90;-19.10;-18.10;-19.00;20.00;7.20
15:16:39;-18.10;-30.00;-30.00;11.90;-19.10;-18.10;-19.01;20.00;7.20
15:16:41;-18.10;-30.00;-30.00;11.90;-19.10;-18.10;-19.00;20.00;7.20
15:16:43;-18.10;-30.00;-30.00;11.90;-19.10;-18.10;-18.99;20.00;7.20
15:16:45;-18.10;-30.00;-30.00;11.90;-19.10;-18.10;-18.99;20.00;7.20
15:16:47;-18.10;-30.00;-29.99;11.90;-19.10;-18.10;-18.99;20.00;7.30
15:16:49;-18.10;-30.00;-29.97;11.90;-19.10;-18.10;-18.98;20.00;7.20
15:16:51;-18.10;-30.00;-29.99;11.90;-19.10;-18.10;-19.00;20.00;7.20
15:16:53;-18.10;-30.00;-30.01;11.90;-19.10;-18.10;-18.99;20.00;7.10
15:16:55;-18.10;-30.00;-30.02;11.90;-19.10;-18.10;-18.99;20.10;7.20
15:16:59;-18.10;-30.00;-30.03;11.90;-19.10;-18.20;-18.99;20.00;7.20
15:17:01;-18.10;-30.00;-30.03;11.90;-19.10;-18.10;-18.99;19.90;7.20
15:17:03;-18.10;-30.00;-30.02;11.90;-19.10;-18.10;-19.00;19.90;7.20
15:17:05;-18.10;-30.00;-30.01;11.90;-19.10;-18.20;-18.99;19.90;7.20
15:17:07;-18.10;-30.00;-29.99;11.90;-19.10;-18.20;-18.98;19.90;7.20
15:17:09;-18.10;-30.00;-30.02;11.90;-19.10;-18.20;-18.99;20.00;7.20
15:17:11;-18.10;-30.00;-30.01;11.90;-19.10;-18.20;-18.99;19.90;7.20
15:17:13;-18.10;-30.00;-30.01;11.90;-19.10;-18.20;-18.99;20.00;7.20
15:17:15;-18.10;-30.00;-30.00;11.90;-19.10;-18.10;-18.98;19.90;7.20
15:17:17;-18.10;-30.00;-29.99;11.90;-19.10;-18.10;-18.97;20.00;7.20
15:17:19;-18.10;-30.00;-30.00;11.90;-19.10;-18.10;-18.96;20.00;7.20
15:17:21;-18.10;-30.00;-30.02;11.90;-19.10;-18.10;-18.95;20.00;7.20
15:17:23;-18.10;-30.00;-30.03;11.90;-19.10;-18.10;-18.97;20.00;7.20
15:17:25;-18.10;-30.00;-30.01;11.90;-19.10;-18.10;-18.97;20.00;7.20
15:17:27;-18.10;-30.00;-30.00;11.90;-19.10;-18.10;-18.97;20.00;7.20
15:17:29;-18.10;-30.00;-30.00;11.90;-19.10;-18.10;-18.98;19.90;7.20
15:17:31;-18.10;-30.00;-30.00;11.90;-19.10;-18.10;-18.97;19.90;7.20
15:17:33;-18.10;-30.00;-30.01;11.90;-19.10;-18.10;-18.98;20.00;7.20
15:17:35;-18.10;-30.00;-30.01;11.90;-19.10;-18.10;-18.97;20.00;7.20
15:17:37;-18.10;-30.00;-29.99;11.90;-19.10;-18.10;-18.97;20.00;7.20
15:17:39;-18.10;-30.00;-29.99;11.90;-19.10;-18.10;-18.98;20.00;7.20
15:17:41;-18.10;-30.00;-30.00;11.90;-19.10;-18.10;-18.98;20.00;7.20
15:17:43;-18.10;-30.00;-29.99;11.90;-19.10;-18.10;-18.98;20.00;7.20
15:17:45;-18.10;-30.00;-29.99;11.90;-19.10;-18.10;-18.98;20.00;7.10
15:17:47;-18.10;-30.00;-30.00;11.90;-19.10;-18.10;-18.98;20.00;7.20
15:17:49;-18.10;-30.00;-30.01;11.90;-19.10;-18.10;-18.98;20.10;7.30
15:17:51;-18.10;-30.00;-30.00;11.90;-19.10;-18.10;-18.99;20.10;7.20
15:17:53;-18.10;-30.00;-30.01;11.90;-19.10;-18.10;-19.00;20.10;7.20
15:17:55;-18.10;-30.00;-30.02;11.90;-19.10;-18.20;-19.00;20.10;7.20
15:17:57;-18.10;-30.00;-30.00;11.90;-19.10;-18.20;-18.99;20.20;7.30
15:17:59;-18.10;-30.00;-30.00;11.90;-19.10;-18.10;-18.99;20.20;7.20
15:18:01;-18.10;-30.00;-29.99;11.90;-19.10;-18.10;-18.98;20.10;7.20
15:18:03;-18.10;-30.00;-29.97;11.90;-19.10;-18.10;-18.98;20.00;7.20
15:18:05;-18.10;-30.00;-29.98;11.90;-19.10;-18.10;-18.99;20.00;7.20
15:18:07;-18.10;-30.00;-30.00;11.90;-19.10;-18.10;-18.99;19.90;7.20
15:18:09;-18.10;-30.00;-30.01;11.90;-19.10;-18.10;-18.99;20.00;7.20
15:18:11;-18.10;-30.00;-29.98;11.90;-19.10;-18.10;-18.98;19.90;7.20
15:18:13;-18.10;-30.00;-29.99;11.90;-19.10;-18.10;-18.98;19.90;7.20
15:18:15;-18.10;-30.00;-29.99;11.90;-19.10;-18.10;-18.98;19.80;7.20
15:18:17;-18.10;-30.00;-30.00;11.90;-19.10;-18.10;-18.98;19.80;7.20
15:18:19;-18.10;-30.00;-29.99;11.90;-19.10;-18.20;-19.00;19.80;7.20
15:18:21;-18.10;-30.00;-29.99;11.90;-19.10;-18.20;-19.00;19.80;7.20
15:18:23;-18.10;-30.00;-29.99;11.90;-19.10;-18.20;-19.00;19.70;7.20
15:18:25;-18.10;-30.00;-30.01;11.90;-19.10;-18.20;-19.00;19.70;7.10
15:18:27;-18.10;-30.00;-29.99;11.90;-19.10;-18.10;-18.99;19.70;7.20
15:18:29;-18.10;-30.00;-29.98;11.90;-19.10;-18.20;-18.99;19.70;7.20
15:18:31;-18.10;-30.00;-30.00;11.90;-19.10;-18.10;-18.97;19.70;7.20
15:18:33;-18.10;-30.00;-30.01;11.90;-19.10;-18.10;-18.96;19.70;7.20
15:18:35;-18.10;-30.00;-30.02;11.90;-19.10;-18.10;-18.97;19.70;7.20
15:18:37;-18.10;-30.00;-30.02;11.90;-19.10;-18.10;-18.97;19.70;7.20
15:18:39;-18.10;-30.00;-30.02;11.90;-19.10;-18.10;-18.97;19.70;7.20
15:18:41;-18.10;-30.00;-30.02;11.90;-19.10;-18.10;-18.97;19.70;7.20
15:18:43;-18.10;-30.00;-30.01;11.90;-19.10;-18.10;-18.97;19.80;7.20
15:18:48;-18.10;-30.00;-30.02;11.90;-19.10;-18.20;-18.97;19.80;7.10
15:18:49;-18.10;-30.00;-30.02;11.90;-19.10;-18.20;-18.98;19.70;7.20
15:18:51;-18.10;-30.00;-30.00;11.90;-19.10;-18.10;-18.98;19.70;7.20
15:18:53;-18.10;-30.00;-29.99;11.90;-19.10;-18.10;-18.98;19.80;7.20
15:18:55;-18.10;-30.00;-29.98;11.90;-19.10;-18.20;-18.98;19.70;7.20
15:18:57;-18.10;-30.00;-29.99;11.90;-19.10;-18.20;-18.98;19.70;7.20
15:18:59;-18.10;-30.00;-30.00;11.90;-19.20;-18.10;-18.98;19.70;7.20
15:19:01;-18.10;-30.00;-30.00;11.90;-19.10;-18.10;-18.98;19.70;7.20
15:19:03;-18.10;-30.00;-30.01;11.90;-19.10;-18.10;-18.98;19.70;7.20
15:19:05;-18.10;-30.00;-30.02;11.90;-19.20;-18.10;-18.98;19.70;7.10
15:19:07;-18.10;-30.00;-29.99;11.90;-19.10;-18.10;-18.98;19.70;7.10
15:19:09;-18.10;-30.00;-29.98;11.90;-19.20;-18.10;-18.99;19.70;7.20
15:19:11;-18.10;-30.00;-30.00;11.90;-19.10;-18.10;-18.98;19.70;7.20
15:19:13;-18.10;-30.00;-30.02;11.90;-19.10;-18.10;-18.99;19.60;7.20
15:19:15;-18.10;-30.00;-29.99;11.90;-19.10;-18.10;-18.99;19.60;7.20
15:19:17;-18.10;-30.00;-29.96;11.90;-19.10;-18.20;-18.99;19.70;7.20
15:19:19;-18.10;-30.00;-29.98;11.90;-19.10;-18.20;-19.00;19.70;7.10
15:19:21;-18.10;-30.00;-29.98;11.90;-19.10;-18.20;-19.01;19.70;7.10
15:19:23;-18.10;-30.00;-29.99;11.90;-19.20;-18.20;-19.01;19.80;7.10
15:19:25;-18.10;-30.00;-29.98;11.90;-19.10;-18.20;-19.01;19.80;7.20
15:19:27;-18.10;-30.00;-30.00;11.90;-19.20;-18.20;-19.00;19.80;7.10
15:19:29;-18.10;-30.00;-30.00;11.90;-19.10;-18.30;-19.00;19.80;7.20
15:19:31;-18.10;-30.00;-30.01;11.90;-19.10;-18.20;-18.98;19.80;7.20
15:19:33;-18.10;-30.00;-30.02;11.90;-19.10;-18.20;-18.97;19.80;7.20
15:19:35;-18.10;-30.00;-30.01;11.90;-19.10;-18.20;-18.96;19.80;7.20
15:19:37;-18.10;-30.00;-29.99;11.90;-19.10;-18.20;-18.96;19.80;7.20
15:19:39;-18.10;-30.00;-29.96;11.90;-19.10;-18.20;-18.95;19.90;7.20
15:19:41;-18.10;-30.00;-29.99;11.90;-19.10;-18.20;-18.95;19.90;7.20
15:19:43;-18.10;-30.00;-30.00;11.90;-19.10;-18.10;-18.95;19.90;7.10
15:19:45;-18.10;-30.00;-30.02;11.90;-19.10;-18.10;-18.94;19.90;7.20
15:19:47;-18.10;-30.00;-30.03;11.90;-19.10;-18.10;-18.94;19.80;7.20
15:19:49;-18.10;-30.00;-30.03;11.90;-19.10;-18.10;-18.94;19.80;7.20
15:19:51;-18.10;-30.00;-30.02;11.90;-19.10;-18.10;-18.93;19.80;7.20
15:19:53;-18.10;-30.00;-30.02;11.90;-19.10;-18.10;-18.93;19.80;7.20
15:19:55;-18.10;-30.00;-30.02;11.90;-19.10;-18.10;-18.94;19.80;7.20
15:19:57;-18.10;-30.00;-30.01;11.90;-19.10;-18.10;-18.95;19.80;7.20
15:19:59;-18.10;-30.00;-29.99;11.90;-19.10;-18.10;-18.94;19.80;7.20
15:20:01;-18.10;-30.00;-29.99;11.90;-19.20;-18.10;-18.94;19.80;7.20
15:20:03;-18.10;-30.00;-30.01;11.90;-19.20;-18.10;-18.95;19.80;7.20
15:20:05;-18.10;-30.00;-30.00;11.90;-19.20;-18.10;-18.95;19.90;7.20
15:20:07;-18.10;-30.00;-29.98;11.90;-19.10;-18.10;-18.95;19.90;7.10
15:20:09;-18.10;-30.00;-30.00;11.90;-19.20;-18.10;-18.94;19.90;7.20
15:20:11;-18.10;-30.00;-30.01;11.90;-19.20;-18.10;-18.95;19.90;7.20
15:20:13;-18.10;-30.00;-30.00;11.90;-19.10;-18.10;-18.96;19.90;7.10
15:20:15;-18.10;-30.00;-30.00;11.90;-19.10;-18.10;-18.96;19.80;7.20
15:20:17;-18.10;-30.00;-30.01;11.90;-19.20;-18.10;-18.96;19.80;7.20
15:20:19;-18.10;-30.00;-30.00;11.90;-19.10;-18.10;-18.96;19.80;7.20
15:20:21;-18.10;-30.00;-30.00;11.90;-19.10;-18.10;-18.97;19.80;7.20
15:20:23;-18.10;-30.00;-30.02;11.90;-19.20;-18.10;-18.96;19.80;7.20
15:20:25;-18.10;-30.00;-30.01;11.90;-19.10;-18.10;-18.95;19.80;7.10
15:20:27;-18.10;-30.00;-30.01;11.90;-19.20;-18.10;-18.96;19.80;7.20
15:20:29;-18.10;-30.00;-30.02;11.90;-19.10;-18.10;-18.97;19.80;7.20
15:20:31;-18.10;-30.00;-30.00;11.90;-19.20;-18.20;-18.96;19.80;7.20
15:20:33;-18.10;-30.00;-29.97;11.90;-19.10;-18.10;-18.96;19.80;7.20
15:20:37;-18.10;-30.00;-29.97;11.90;-19.10;-18.10;-18.95;19.70;7.20
15:20:39;-18.10;-30.00;-29.99;11.90;-19.20;-18.10;-18.94;19.80;7.10
15:20:41;-18.10;-30.00;-30.01;11.90;-19.10;-18.10;-18.95;19.80;7.20
15:20:43;-18.10;-30.00;-30.03;11.90;-19.10;-18.10;-18.95;19.80;7.20
15:20:45;-18.10;-30.00;-30.02;11.90;-19.10;-18.10;-18.94;19.80;7.20
15:20:47;-18.10;-30.00;-30.02;11.90;-19.20;-18.10;-18.95;19.70;7.20
15:20:49;-18.10;-30.00;-30.02;11.90;-19.20;-18.10;-18.93;19.70;7.20
15:20:51;-18.10;-30.00;-29.99;11.90;-19.20;-18.10;-18.92;19.70;7.20
15:20:53;-18.10;-30.00;-29.96;11.90;-19.10;-18.10;-18.93;19.80;7.10
15:20:55;-18.10;-30.00;-29.97;11.90;-19.10;-18.10;-18.92;19.70;7.10
15:20:57;-18.10;-30.00;-29.99;11.90;-19.20;-18.10;-18.93;19.80;7.20
15:20:59;-18.10;-30.00;-30.00;11.90;-19.10;-18.10;-18.93;19.80;7.20
15:21:01;-18.10;-30.00;-30.01;11.90;-19.10;-18.10;-18.91;19.80;7.20
15:21:03;-18.10;-30.00;-30.01;11.90;-19.10;-18.10;-18.91;19.80;7.10
15:21:05;-18.10;-30.00;-30.01;11.90;-19.10;-18.10;-18.91;19.70;7.20
15:21:07;-18.10;-30.00;-30.02;11.90;-19.10;-18.10;-18.91;19.70;7.10
15:21:09;-18.10;-30.00;-30.01;11.90;-19.10;-18.10;-18.90;19.80;7.10
15:21:11;-18.10;-30.00;-30.01;11.90;-19.20;-18.10;-18.88;19.80;7.10
15:21:13;-18.10;-30.00;-30.00;11.90;-19.10;-18.00;-18.89;19.80;7.10
15:21:15;-18.10;-30.00;-30.00;11.90;-19.10;-18.10;-18.90;19.80;7.10
15:21:17;-18.10;-30.00;-29.99;11.90;-19.10;-18.10;-18.89;19.80;7.10
15:21:19;-18.10;-30.00;-30.00;11.90;-19.10;-18.10;-18.89;19.80;7.10
15:21:21;-18.10;-30.00;-29.99;11.90;-19.10;-18.10;-18.89;19.70;7.10
15:21:23;-18.10;-30.00;-29.99;11.90;-19.10;-18.10;-18.90;19.70;7.10
15:21:25;-18.10;-30.00;-30.00;11.90;-19.10;-18.10;-18.90;19.70;7.10
15:21:27;-18.10;-30.00;-30.02;11.90;-19.10;-18.10;-18.90;19.60;7.10
15:21:29;-18.10;-30.00;-30.01;11.90;-19.10;-18.10;-18.90;19.60;7.10
15:21:31;-18.10;-30.00;-30.00;11.90;-19.10;-18.10;-18.90;19.60;7.10
15:21:33;-18.10;-30.00;-30.00;11.90;-19.10;-18.10;-18.91;19.70;7.10
15:21:35;-18.10;-30.00;-30.00;11.90;-19.10;-18.10;-18.89;19.70;7.10
15:21:37;-18.10;-30.00;-30.01;11.90;-19.10;-18.10;-18.88;19.70;7.10
15:21:39;-18.10;-30.00;-30.00;11.90;-19.10;-18.10;-18.88;19.70;7.10
15:21:41;-18.10;-30.00;-29.99;11.90;-19.10;-18.10;-18.88;19.70;7.20
15:21:43;-18.10;-30.00;-30.00;11.90;-19.10;-18.10;-18.89;19.60;7.20
15:21:45;-18.10;-30.00;-30.00;11.90;-19.10;-18.10;-18.89;19.60;7.10
15:21:47;-18.10;-30.00;-30.01;11.90;-19.10;-18.10;-18.88;19.60;7.10
15:21:49;-18.10;-30.00;-30.01;11.90;-19.10;-18.10;-18.88;19.70;7.20
15:21:51;-18.10;-30.00;-30.02;11.90;-19.10;-18.00;-18.88;19.70;7.20
15:21:53;-18.10;-30.00;-30.03;11.90;-19.10;-18.10;-18.88;19.80;7.10
15:21:55;-18.10;-30.00;-30.02;11.90;-19.10;-18.10;-18.88;19.80;7.10
15:21:57;-18.10;-30.00;-30.01;11.90;-19.10;-18.10;-18.86;19.90;7.10
15:21:59;-18.10;-30.00;-30.00;11.90;-19.10;-18.00;-18.88;19.80;7.10
15:22:01;-18.10;-30.00;-30.00;11.90;-19.10;-18.00;-18.88;19.80;7.10
15:22:03;-18.10;-30.00;-30.01;11.90;-19.10;-18.00;-18.87;19.80;7.10
15:22:05;-18.10;-30.00;-30.02;11.90;-19.10;-18.00;-18.86;19.70;7.10
15:22:07;-18.10;-30.00;-30.01;11.90;-19.10;-18.00;-18.87;19.70;7.10
15:22:09;-18.10;-30.00;-30.01;11.90;-19.10;-18.00;-18.88;19.70;7.10
15:22:11;-18.10;-30.00;-30.01;11.90;-19.10;-18.10;-18.88;19.70;7.10
15:22:13;-18.10;-30.00;-30.02;11.90;-19.10;-18.00;-18.89;19.70;7.10
15:22:15;-18.10;-30.00;-30.01;11.90;-19.10;-18.10;-18.90;19.60;7.10
15:22:17;-18.10;-30.00;-30.01;11.90;-19.10;-18.10;-18.90;19.60;7.10
15:22:19;-18.10;-30.00;-30.02;11.90;-19.10;-18.10;-18.90;19.60;7.10
15:22:21;-18.10;-30.00;-30.02;11.90;-19.10;-18.10;-18.91;19.70;7.10
15:22:25;-18.10;-30.00;-30.02;11.90;-19.10;-18.10;-18.91;19.70;7.10
15:22:27;-18.10;-30.00;-30.01;11.90;-19.10;-18.10;-18.91;19.80;7.10
15:22:29;-18.10;-30.00;-30.01;11.90;-19.10;-18.10;-18.91;19.70;7.10
15:22:31;-18.10;-30.00;-30.00;11.90;-19.10;-18.10;-18.91;19.80;7.10
15:22:33;-18.10;-30.00;-30.02;11.80;-19.10;-18.10;-18.90;19.80;7.10
15:22:35;-18.10;-30.00;-30.02;11.90;-19.10;-18.10;-18.90;19.80;7.10
15:22:37;-18.10;-30.00;-30.01;11.90;-19.10;-18.10;-18.89;19.90;7.10
15:22:39;-18.10;-30.00;-29.99;11.90;-19.10;-18.10;-18.89;19.90;7.10
15:22:41;-18.10;-30.00;-29.99;11.90;-19.10;-18.10;-18.89;19.90;7.10
15:22:43;-18.10;-30.00;-29.98;11.90;-19.10;-18.10;-18.88;19.90;7.10
15:22:45;-18.10;-30.00;-29.99;11.80;-19.10;-18.10;-18.88;19.90;7.10
15:22:47;-18.10;-30.00;-30.00;11.90;-19.10;-18.10;-18.87;19.90;7.10
15:22:49;-18.10;-30.00;-30.00;11.90;-19.10;-18.10;-18.87;19.90;7.10
15:22:51;-18.10;-30.00;-30.00;11.90;-19.10;-18.00;-18.87;19.90;7.10
15:22:53;-18.10;-30.00;-29.99;11.90;-19.10;-18.00;-18.86;19.90;7.10
15:22:55;-18.10;-30.00;-29.99;11.90;-19.10;-18.10;-18.86;19.80;7.10
15:22:57;-18.10;-30.00;-30.01;11.80;-19.10;-18.10;-18.87;19.80;7.10
15:22:59;-18.10;-30.00;-29.99;11.80;-19.10;-18.00;-18.87;19.70;7.10
15:23:01;-18.10;-30.00;-29.99;11.90;-19.10;-18.10;-18.89;19.70;7.10
15:23:03;-18.10;-30.00;-29.99;11.80;-19.10;-18.10;-18.89;19.70;7.10
15:23:05;-18.10;-30.00;-30.00;11.80;-19.10;-18.10;-18.88;19.70;7.10
15:23:07;-18.10;-30.00;-30.00;11.90;-19.10;-18.10;-18.88;19.80;7.10
15:23:09;-18.10;-30.00;-30.00;11.80;-19.10;-18.10;-18.88;19.80;7.10
15:23:11;-18.10;-30.00;-30.00;11.90;-19.10;-18.10;-18.88;19.70;7.10
15:23:13;-18.10;-30.00;-30.00;11.90;-19.10;-18.10;-18.88;19.70;7.10
15:23:15;-18.10;-30.00;-30.00;11.90;-19.10;-18.10;-18.86;19.70;7.10
15:23:18;-18.10;-30.00;-30.01;11.90;-19.10;-18.10;-18.86;19.70;7.10
15:23:20;-18.10;-30.00;-30.00;11.90;-19.10;-18.10;-18.86;19.70;7.10
15:23:22;-18.10;-30.00;-29.99;11.80;-19.10;-18.10;-18.86;19.80;7.10
15:23:24;-18.10;-30.00;-29.99;11.90;-19.10;-18.10;-18.86;19.80;7.10
15:23:26;-18.10;-30.00;-29.98;11.80;-19.10;-18.00;-18.85;19.80;7.10
15:23:28;-18.10;-30.00;-29.97;11.80;-19.10;-18.00;-18.85;19.90;7.10
15:23:30;-18.10;-30.00;-29.96;11.80;-19.10;-18.00;-18.86;19.90;7.10
15:23:32;-18.10;-30.00;-29.98;11.80;-19.10;-18.10;-18.87;19.80;7.10
15:23:34;-18.10;-30.00;-29.99;11.80;-19.10;-18.10;-18.88;19.90;7.10
15:23:36;-18.10;-30.00;-29.99;11.80;-19.10;-18.10;-18.88;19.90;7.10
15:23:38;-18.10;-30.00;-30.00;11.80;-19.10;-18.10;-18.87;19.90;7.10
15:23:40;-18.10;-30.00;-30.01;11.80;-19.10;-18.10;-18.88;19.90;7.10
15:23:42;-18.10;-30.00;-30.01;11.80;-19.10;-18.10;-18.88;19.90;7.10
15:23:44;-18.10;-30.00;-30.00;11.90;-19.10;-18.10;-18.88;19.90;7.10
15:23:46;-18.10;-30.00;-30.00;11.80;-19.10;-18.10;-18.88;19.90;7.10
15:23:48;-18.10;-30.00;-30.00;11.80;-19.10;-18.10;-18.89;19.90;7.10
15:23:50;-18.10;-30.00;-30.00;11.80;-19.10;-18.10;-18.89;19.90;7.10
15:23:52;-18.10;-30.00;-29.98;11.80;-19.10;-18.10;-18.88;19.90;7.10
15:23:54;-18.10;-30.00;-29.97;11.90;-19.10;-18.10;-18.86;19.80;7.10
15:23:56;-18.10;-30.00;-29.98;11.80;-19.10;-18.00;-18.87;19.80;7.10
15:23:58;-18.10;-30.00;-30.00;11.80;-19.10;-18.00;-18.88;19.80;7.10
15:24:00;-18.10;-30.00;-30.01;11.80;-19.10;-18.10;-18.87;19.80;7.00
15:24:02;-18.10;-30.00;-30.00;11.80;-19.10;-18.00;-18.88;19.80;7.10
15:24:04;-18.10;-30.00;-30.00;11.80;-19.10;-18.00;-18.88;19.80;7.10
15:24:06;-18.10;-30.00;-30.00;11.80;-19.10;-18.00;-18.88;19.70;7.10
15:24:08;-18.10;-30.00;-29.99;11.90;-19.10;-18.00;-18.88;19.70;7.10
15:24:10;-18.10;-30.00;-29.99;11.80;-19.10;-18.00;-18.89;19.60;7.00
15:24:15;-18.10;-30.00;-29.99;11.80;-19.10;-18.10;-18.90;19.60;7.10
15:24:16;-18.10;-30.00;-29.97;11.80;-19.10;-18.10;-18.92;19.60;7.10
15:24:18;-18.10;-30.00;-29.95;11.80;-19.10;-18.10;-18.91;19.60;7.10
15:24:20;-18.10;-30.00;-29.98;11.80;-19.10;-18.20;-18.92;19.60;7.10
15:24:22;-18.10;-30.00;-29.99;11.80;-19.10;-18.20;-18.92;19.60;7.10
15:24:24;-18.10;-30.00;-30.00;11.80;-19.10;-18.10;-18.92;19.60;7.00
15:24:26;-18.10;-30.00;-30.01;11.80;-19.10;-18.20;-18.93;19.60;7.10
15:24:28;-18.10;-30.00;-30.02;11.80;-19.10;-18.10;-18.92;19.60;7.00
15:24:30;-18.10;-30.00;-30.01;11.80;-19.10;-18.20;-18.91;19.60;7.10
15:24:32;-18.10;-30.00;-30.00;11.80;-19.10;-18.20;-18.91;19.70;7.10
15:24:34;-18.10;-30.00;-30.00;11.80;-19.10;-18.20;-18.91;19.70;7.10
15:24:36;-18.10;-30.00;-30.00;11.80;-19.10;-18.20;-18.92;19.80;7.10
15:24:38;-18.10;-30.00;-29.99;11.80;-19.10;-18.20;-18.92;19.80;7.10
15:24:40;-18.10;-30.00;-30.00;11.80;-19.10;-18.20;-18.90;19.90;7.10
15:24:42;-18.10;-30.00;-30.00;11.80;-19.10;-18.20;-18.89;19.90;7.10
15:24:44;-18.10;-30.00;-30.00;11.80;-19.10;-18.10;-18.88;20.00;7.10
15:24:46;-18.10;-30.00;-30.00;11.80;-19.10;-18.10;-18.88;20.00;7.00
15:24:48;-18.10;-30.00;-29.98;11.80;-19.10;-18.10;-18.87;20.00;7.00
15:24:50;-18.10;-30.00;-29.96;11.80;-19.10;-18.10;-18.86;20.00;7.10
15:24:52;-18.10;-30.00;-29.97;11.80;-19.10;-18.10;-18.86;20.10;7.10
15:24:54;-18.10;-30.00;-29.98;11.80;-19.10;-18.10;-18.87;20.10;7.10
15:24:56;-18.10;-30.00;-29.98;11.80;-19.10;-18.10;-18.87;20.10;7.00
15:24:58;-18.10;-30.00;-30.00;11.80;-19.10;-18.10;-18.86;20.10;7.00
15:25:00;-18.10;-30.00;-29.99;11.80;-19.10;-18.10;-18.86;20.10;7.10
15:25:02;-18.10;-30.00;-29.99;11.80;-19.10;-18.10;-18.87;20.00;7.10
15:25:04;-18.10;-30.00;-30.01;11.80;-19.10;-18.10;-18.88;20.00;7.10
15:25:06;-18.10;-30.00;-30.02;11.80;-19.10;-18.10;-18.87;20.00;7.10
15:25:08;-18.10;-30.00;-30.00;11.80;-19.10;-18.10;-18.88;20.00;7.10
15:25:10;-18.10;-30.00;-30.00;11.80;-19.10;-18.10;-18.89;20.00;7.10
15:25:12;-18.10;-30.00;-30.00;11.80;-19.10;-18.10;-18.89;20.00;7.10
15:25:14;-18.10;-30.00;-30.00;11.80;-19.10;-18.10;-18.89;20.00;7.10
15:25:16;-18.10;-30.00;-30.00;11.80;-19.10;-18.10;-18.89;20.00;7.10
15:25:18;-18.10;-30.00;-29.99;11.80;-19.10;-18.10;-18.88;20.00;7.10
15:25:20;-18.10;-30.00;-30.00;11.80;-19.10;-18.10;-18.88;20.00;7.10
15:25:22;-18.10;-30.00;-30.00;11.80;-19.10;-18.10;-18.89;20.00;7.10
15:25:24;-18.10;-30.00;-30.02;11.80;-19.10;-18.10;-18.89;20.00;7.10
15:25:26;-18.10;-30.00;-30.03;11.70;-19.10;-18.10;-18.88;20.10;7.10
15:25:28;-18.10;-30.00;-30.03;11.80;-19.10;-18.10;-18.88;20.10;7.10
15:25:30;-18.10;-30.00;-30.00;11.80;-19.10;-18.10;-18.88;20.20;7.10
15:25:32;-18.10;-30.00;-30.00;11.80;-19.10;-18.10;-18.88;20.20;7.10
15:25:34;-18.10;-30.00;-29.99;11.70;-19.10;-18.10;-18.88;20.20;7.10
15:25:36;-18.10;-30.00;-30.01;11.70;-19.10;-18.10;-18.88;20.30;7.00
15:25:38;-18.10;-30.00;-30.00;11.80;-19.10;-18.10;-18.88;20.30;7.10
15:25:40;-18.10;-30.00;-30.00;11.80;-19.10;-18.10;-18.89;20.30;7.10
15:25:42;-18.10;-30.00;-29.98;11.80;-19.10;-18.10;-18.88;20.40;7.10
15:25:44;-18.10;-30.00;-29.97;11.80;-19.10;-18.10;-18.89;20.40;7.10
15:25:46;-18.10;-30.00;-29.97;11.70;-19.10;-18.10;-18.89;20.40;7.00
15:25:48;-18.10;-30.00;-29.98;11.70;-19.10;-18.10;-18.89;20.40;7.00
15:25:50;-18.10;-30.00;-29.98;11.70;-19.10;-18.10;-18.89;20.40;7.10
15:25:52;-18.10;-30.00;-29.96;11.80;-19.10;-18.10;-18.90;20.40;7.10
15:25:54;-18.10;-30.00;-29.98;11.80;-19.10;-18.20;-18.89;20.40;7.10
15:25:56;-18.10;-30.00;-29.97;11.80;-19.10;-18.20;-18.89;20.30;7.10
15:25:58;-18.10;-30.00;-30.00;11.80;-19.10;-18.10;-18.90;20.30;7.10
15:26:00;-18.10;-30.00;-30.02;11.70;-19.10;-18.10;-18.89;20.30;7.10
15:26:04;-18.10;-30.00;-30.00;11.80;-19.10;-18.10;-18.87;20.30;7.10
15:26:06;-18.10;-30.00;-29.99;11.70;-19.10;-18.10;-18.87;20.30;7.10
15:26:08;-18.10;-30.00;-29.99;11.70;-19.10;-18.10;-18.87;20.40;7.10
15:26:10;-18.10;-30.00;-30.00;11.70;-19.10;-18.10;-18.87;20.40;7.10
15:26:12;-18.10;-30.00;-30.00;11.70;-19.10;-18.10;-18.87;20.40;7.10
15:26:14;-18.10;-30.00;-29.99;11.80;-19.10;-18.10;-18.88;20.40;7.10
15:26:16;-18.10;-30.00;-29.98;11.80;-19.10;-18.10;-18.89;20.40;7.10
15:26:18;-18.10;-30.00;-29.99;11.70;-19.10;-18.10;-18.89;20.40;7.00
15:26:20;-18.10;-30.00;-30.00;11.70;-19.10;-18.10;-18.89;20.40;7.10
15:26:22;-18.10;-30.00;-29.99;11.70;-19.10;-18.10;-18.89;20.40;7.10
15:26:24;-18.10;-30.00;-29.99;11.80;-19.10;-18.10;-18.89;20.50;7.10
15:26:26;-18.10;-30.00;-30.00;11.70;-19.10;-18.10;-18.89;20.40;7.10
15:26:28;-18.10;-30.00;-30.00;11.70;-19.10;-18.20;-18.90;20.40;7.10
15:26:30;-18.10;-30.00;-30.00;11.70;-19.10;-18.10;-18.89;20.40;7.10
15:26:32;-18.10;-30.00;-30.01;11.80;-19.10;-18.10;-18.88;20.30;7.10
15:26:34;-18.10;-30.00;-30.02;11.80;-19.10;-18.10;-18.89;20.40;7.10
15:26:36;-18.10;-30.00;-30.01;11.70;-19.10;-18.10;-18.89;20.40;7.00
15:26:38;-18.10;-30.00;-30.01;11.70;-19.10;-18.10;-18.90;20.40;7.00
15:26:40;-18.10;-30.00;-30.00;11.70;-19.10;-18.20;-18.89;20.50;7.10
15:26:42;-18.10;-30.00;-29.99;11.70;-19.10;-18.10;-18.90;20.50;7.10
15:26:44;-18.10;-30.00;-30.00;11.70;-19.10;-18.20;-18.90;20.50;7.10
15:26:46;-18.10;-30.00;-30.00;11.70;-19.10;-18.10;-18.89;20.50;7.10
15:26:48;-18.10;-30.00;-29.98;11.70;-19.10;-18.20;-18.89;20.50;7.10
15:26:50;-18.10;-30.00;-29.99;11.80;-19.10;-18.20;-18.88;20.50;7.10
15:26:52;-18.10;-30.00;-30.00;11.70;-19.10;-18.20;-18.89;20.50;7.10
15:26:54;-18.10;-30.00;-30.01;11.70;-19.10;-18.10;-18.89;20.50;7.10
15:26:56;-18.10;-30.00;-30.01;11.70;-19.10;-18.10;-18.89;20.50;7.10
15:26:58;-18.10;-30.00;-30.00;11.70;-19.10;-18.20;-18.88;20.40;7.10
15:27:00;-18.10;-30.00;-30.01;11.70;-19.10;-18.20;-18.87;20.30;7.10
15:27:02;-18.10;-30.00;-29.99;11.70;-19.10;-18.20;-18.88;20.30;7.10
15:27:04;-18.10;-30.00;-29.98;11.70;-19.10;-18.20;-18.88;20.30;7.10
15:27:06;-18.10;-30.00;-29.95;11.70;-19.10;-18.20;-18.88;20.30;7.10
15:27:08;-18.10;-30.00;-29.98;11.70;-19.10;-18.20;-18.85;20.40;7.10
15:27:10;-18.10;-30.00;-30.00;11.70;-19.10;-18.10;-18.85;20.40;7.10
15:27:12;-18.10;-30.00;-30.00;11.70;-19.10;-18.10;-18.84;20.50;7.00
15:27:14;-18.10;-30.00;-30.00;11.70;-19.10;-18.10;-18.84;20.50;7.10
15:27:16;-18.10;-30.00;-30.01;11.70;-19.10;-18.10;-18.83;20.50;7.10
15:27:18;-18.10;-30.00;-30.01;11.70;-19.10;-18.10;-18.83;20.50;7.00
15:27:20;-18.10;-30.00;-30.01;11.70;-19.10;-18.10;-18.83;20.50;7.00
15:27:22;-18.10;-30.00;-30.00;11.80;-19.10;-18.10;-18.83;20.50;7.00
15:27:24;-18.10;-30.00;-30.00;11.70;-19.10;-18.10;-18.84;20.50;7.10
15:27:26;-18.10;-30.00;-30.01;11.80;-19.10;-18.10;-18.83;20.50;7.00
15:27:28;-18.10;-30.00;-30.00;11.80;-19.10;-18.10;-18.83;20.50;7.00
15:27:30;-18.10;-30.00;-29.99;11.70;-19.10;-18.10;-18.83;20.50;7.10
15:27:32;-18.10;-30.00;-29.99;11.80;-19.10;-18.10;-18.83;20.60;7.10
15:27:34;-18.10;-30.00;-29.99;11.80;-19.10;-18.10;-18.83;20.60;7.00
15:27:36;-18.10;-30.00;-30.00;11.70;-19.10;-18.10;-18.83;20.60;7.00
15:27:38;-18.10;-30.00;-30.00;11.70;-19.10;-18.10;-18.84;20.70;7.00
15:27:40;-18.10;-30.00;-30.01;11.70;-19.10;-18.10;-18.84;20.60;7.00
15:27:42;-18.10;-30.00;-30.01;11.70;-19.10;-18.10;-18.84;20.70;7.00
15:27:44;-18.10;-30.00;-30.00;11.70;-19.10;-18.10;-18.83;20.70;7.00
15:27:46;-18.10;-30.00;-30.00;11.70;-19.10;-18.10;-18.83;20.70;7.00
15:27:48;-18.10;-30.00;-30.01;11.70;-19.10;-18.10;-18.83;20.70;7.00
15:27:53;-18.10;-30.00;-30.00;11.70;-19.10;-18.10;-18.84;20.70;7.00
15:27:54;-18.10;-30.00;-29.95;11.70;-19.10;-18.10;-18.84;20.60;7.00
15:27:56;-18.10;-30.00;-29.96;11.70;-19.10;-18.10;-18.83;20.60;7.00
15:27:58;-18.10;-30.00;-29.99;11.80;-19.10;-18.10;-18.82;20.50;7.00
15:28:00;-18.10;-30.00;-29.99;11.70;-19.10;-18.10;-18.82;20.50;7.10
15:28:02;-18.10;-30.00;-29.99;11.70;-19.10;-18.10;-18.82;20.60;7.10
15:28:04;-18.10;-30.00;-29.98;11.70;-19.10;-18.10;-18.82;20.60;7.10
15:28:06;-18.10;-30.00;-29.99;11.70;-19.10;-18.10;-18.82;20.60;7.00
15:28:08;-18.10;-30.00;-29.97;11.70;-19.10;-18.10;-18.82;20.60;7.00
15:28:10;-18.10;-30.00;-29.98;11.70;-19.10;-18.10;-18.82;20.60;7.00
15:28:12;-18.10;-30.00;-30.00;11.70;-19.10;-18.10;-18.82;20.60;7.10
15:28:14;-18.10;-30.00;-30.01;11.70;-19.10;-18.10;-18.80;20.70;7.10
15:28:16;-18.10;-30.00;-30.02;11.70;-19.10;-18.10;-18.80;20.70;7.10
15:28:18;-18.10;-30.00;-30.03;11.70;-19.10;-18.10;-18.81;20.70;7.00
15:28:20;-18.10;-30.00;-30.01;11.70;-19.10;-18.10;-18.79;20.50;7.10
15:28:22;-18.10;-30.00;-30.00;11.70;-19.10;-18.10;-18.80;20.50;7.00
15:28:24;-18.10;-30.00;-30.00;11.70;-19.10;-18.10;-18.79;20.50;7.00
15:28:26;-18.10;-30.00;-30.01;11.70;-19.10;-18.10;-18.80;20.50;7.00
15:28:28;-18.10;-30.00;-30.01;11.70;-19.10;-18.10;-18.80;20.50;7.00
15:28:30;-18.10;-30.00;-30.02;11.70;-19.10;-18.10;-18.81;20.50;7.10
15:28:32;-18.10;-30.00;-30.02;11.70;-19.10;-18.10;-18.81;20.40;7.00
15:28:34;-18.10;-30.00;-30.00;11.70;-19.10;-18.10;-18.81;20.50;7.00
15:28:36;-18.10;-30.00;-30.00;11.70;-19.10;-18.10;-18.79;20.60;7.00
15:28:38;-18.10;-30.00;-30.01;11.70;-19.10;-18.10;-18.79;20.60;7.00
15:28:40;-18.10;-30.00;-30.02;11.70;-19.10;-18.10;-18.79;20.60;7.00
15:28:42;-18.10;-30.00;-30.02;11.70;-19.10;-18.10;-18.80;20.60;7.00
15:28:44;-18.10;-30.00;-30.02;11.70;-19.10;-18.10;-18.79;20.60;7.00
15:28:46;-18.10;-30.00;-30.02;11.70;-19.10;-18.10;-18.78;20.70;7.00
15:28:48;-18.10;-30.00;-30.01;11.70;-19.10;-18.10;-18.78;20.70;7.00
15:28:50;-18.10;-30.00;-29.99;11.70;-19.10;-18.10;-18.77;20.70;7.00
15:28:52;-18.10;-30.00;-29.99;11.70;-19.10;-18.00;-18.77;20.60;7.00
15:28:54;-18.10;-30.00;-29.99;11.70;-19.10;-18.10;-18.77;20.60;7.00
15:28:56;-18.10;-30.00;-29.99;11.70;-19.10;-18.10;-18.77;20.70;7.00
15:28:58;-18.10;-30.00;-29.99;11.70;-19.10;-18.10;-18.76;20.60;7.10
15:29:00;-18.10;-30.00;-29.98;11.70;-19.10;-18.10;-18.76;20.60;7.00
15:29:02;-18.10;-30.00;-29.99;11.70;-19.10;-18.10;-18.76;20.50;7.00
15:29:04;-18.10;-30.00;-30.00;11.70;-19.10;-18.10;-18.76;20.60;7.00
15:29:06;-18.10;-30.00;-29.99;11.70;-19.10;-18.00;-18.75;20.70;7.00
15:29:08;-18.10;-30.00;-29.98;11.70;-19.10;-18.00;-18.76;20.70;6.90
15:29:10;-18.10;-30.00;-30.00;11.70;-19.10;-18.00;-18.75;20.60;7.00
15:29:12;-18.10;-30.00;-30.02;11.70;-19.10;-18.00;-18.75;20.60;7.00
15:29:14;-18.10;-30.00;-30.02;11.70;-19.10;-18.10;-18.76;20.60;7.00
15:29:16;-18.10;-30.00;-30.00;11.70;-19.10;-18.10;-18.77;20.60;7.00
15:29:18;-18.10;-30.00;-30.01;11.70;-19.10;-18.00;-18.77;20.60;7.00
15:29:20;-18.10;-30.00;-30.00;11.70;-19.10;-18.00;-18.78;20.70;7.00
15:29:22;-18.10;-30.00;-30.00;11.70;-19.10;-18.00;-18.78;20.70;7.00
15:29:24;-18.10;-30.00;-30.00;11.70;-19.10;-18.00;-18.79;20.70;7.00
15:29:26;-18.10;-30.00;-30.00;11.70;-19.10;-18.10;-18.79;20.80;7.00
15:29:28;-18.10;-30.00;-29.99;11.70;-19.10;-18.10;-18.79;20.80;7.00
15:29:30;-18.10;-30.00;-30.00;11.70;-19.10;-18.10;-18.80;20.70;7.00
15:29:32;-18.10;-30.00;-29.99;11.70;-19.10;-18.10;-18.80;20.70;7.00
15:29:34;-18.10;-30.00;-30.00;11.70;-19.10;-18.10;-18.81;20.60;7.00
15:29:36;-18.10;-30.00;-30.00;11.70;-19.10;-18.10;-18.81;20.70;7.10
15:29:38;-18.10;-30.00;-29.99;11.70;-19.10;-18.10;-18.81;20.70;7.00
15:29:43;-18.10;-30.00;-30.00;11.70;-19.10;-18.10;-18.80;20.70;7.10
15:29:44;-18.10;-30.00;-29.99;11.70;-19.10;-18.10;-18.80;20.70;7.00
15:29:46;-18.10;-30.00;-29.98;11.70;-19.10;-18.10;-18.80;20.70;7.00
15:29:48;-18.10;-30.00;-29.97;11.70;-19.10;-18.10;-18.80;20.60;7.00
15:29:50;-18.10;-30.00;-29.96;11.70;-19.10;-18.10;-18.79;20.60;7.00
15:29:52;-18.10;-30.00;-29.97;11.70;-19.10;-18.10;-18.78;20.60;7.00
15:29:54;-18.10;-30.00;-30.00;11.70;-19.10;-18.10;-18.78;20.60;7.00
15:29:56;-18.10;-30.00;-29.99;11.70;-19.10;-18.10;-18.79;20.60;7.00
15:29:58;-18.10;-30.00;-30.00;11.70;-19.10;-18.10;-18.78;20.70;7.00
15:30:00;-18.10;-30.00;-30.00;11.70;-19.10;-18.10;-18.77;20.70;7.00
15:30:02;-18.10;-30.00;-30.01;11.70;-19.10;-18.10;-18.76;20.70;6.90
15:30:04;-18.10;-30.00;-30.00;11.70;-19.10;-18.10;-18.77;20.70;7.00
15:30:06;-18.10;-30.00;-30.01;11.70;-19.10;-18.00;-18.77;20.60;7.00
15:30:08;-18.10;-30.00;-30.01;11.70;-19.10;-18.10;-18.77;20.60;7.00
15:30:10;-18.10;-30.00;-30.00;11.70;-19.10;-18.10;-18.77;20.60;7.00
15:30:12;-18.10;-30.00;-29.99;11.70;-19.10;-18.10;-18.77;20.60;7.00
15:30:14;-18.10;-30.00;-29.99;11.70;-19.10;-18.00;-18.78;20.60;7.00
15:30:16;-18.10;-30.00;-29.96;11.70;-19.10;-18.10;-18.78;20.70;7.00
15:30:18;-18.10;-30.00;-29.96;11.70;-19.10;-18.10;-18.77;20.60;7.00
15:30:20;-18.10;-30.00;-29.99;11.70;-19.10;-18.10;-18.76;20.60;7.00
15:30:22;-18.10;-30.00;-29.99;11.70;-19.10;-18.10;-18.76;20.60;7.00
15:30:24;-18.10;-30.00;-29.98;11.70;-19.10;-18.10;-18.77;20.60;7.00
15:30:26;-18.10;-30.00;-29.98;11.70;-19.10;-18.10;-18.77;20.60;7.00
15:30:29;-18.10;-30.00;-29.99;11.70;-19.10;-18.10;-18.77;20.70;6.90
15:30:30;-18.10;-30.00;-29.99;11.70;-19.10;-18.10;-18.77;20.70;7.00
15:30:32;-18.10;-30.00;-30.00;11.70;-19.10;-18.10;-18.76;20.70;7.00
15:30:34;-18.10;-30.00;-30.00;11.70;-19.10;-18.10;-18.76;20.70;7.00
15:30:36;-18.10;-30.00;-29.98;11.70;-19.10;-18.10;-18.75;20.80;7.00
15:30:38;-18.10;-30.00;-30.00;11.70;-19.10;-18.10;-18.75;20.80;7.00
15:30:40;-18.10;-30.00;-30.01;11.70;-19.10;-18.10;-18.74;20.80;6.90
15:30:42;-18.10;-30.00;-30.01;11.70;-19.10;-18.10;-18.75;20.80;7.00
15:30:44;-18.10;-30.00;-30.02;11.70;-19.10;-18.10;-18.75;20.80;7.00
15:30:46;-18.10;-30.00;-30.02;11.70;-19.10;-18.10;-18.75;20.80;7.00
15:30:48;-18.10;-30.00;-30.02;11.70;-19.10;-18.10;-18.75;20.90;7.00
15:30:50;-18.10;-30.00;-30.03;11.70;-19.10;-18.10;-18.75;20.90;7.00
15:30:52;-18.10;-30.00;-30.02;11.70;-19.10;-18.10;-18.74;20.90;7.00
15:30:54;-18.10;-30.00;-30.01;11.70;-19.10;-18.10;-18.74;20.90;6.90
15:30:56;-18.10;-30.00;-30.00;11.70;-19.10;-18.10;-18.75;21.00;6.90
15:30:58;-18.10;-30.00;-30.00;11.70;-19.10;-18.10;-18.74;20.90;7.00
15:31:00;-18.10;-30.00;-30.00;11.70;-19.10;-18.10;-18.74;20.90;7.00
15:31:02;-18.10;-30.00;-30.02;11.70;-19.10;-18.10;-18.72;21.00;7.00
15:31:04;-18.10;-30.00;-29.99;11.70;-19.10;-18.10;-18.72;21.00;7.00
15:31:06;-18.10;-30.00;-29.98;11.70;-19.10;-18.10;-18.73;21.00;7.00
15:31:08;-18.10;-30.00;-29.95;11.70;-19.10;-18.10;-18.74;20.90;7.00
15:31:11;-18.10;-30.00;-29.98;11.70;-19.10;-18.10;-18.74;20.90;7.00
15:31:13;-18.10;-30.00;-30.00;11.70;-19.10;-18.00;-18.74;20.90;7.00
15:31:15;-18.10;-30.00;-30.00;11.70;-19.10;-18.10;-18.73;20.90;7.00
15:31:17;-18.10;-30.00;-30.01;11.70;-19.10;-18.10;-18.74;20.80;7.00
15:31:19;-18.10;-30.00;-30.02;11.70;-19.10;-18.10;-18.73;20.80;7.00
15:31:21;-18.10;-30.00;-30.03;11.70;-19.10;-18.10;-18.74;20.80;6.90
15:31:23;-18.10;-30.00;-30.03;11.70;-19.10;-18.10;-18.74;20.80;6.90
15:31:25;-18.10;-30.00;-30.03;11.70;-19.10;-18.10;-18.74;20.80;7.00
15:31:27;-18.10;-30.00;-30.02;11.70;-19.10;-18.10;-18.74;20.80;7.00
15:31:29;-18.10;-30.00;-30.03;11.70;-19.10;-18.10;-18.74;20.80;7.00
15:31:33;-18.10;-30.00;-30.02;11.70;-19.10;-18.10;-18.73;20.80;6.90
15:31:35;-18.10;-30.00;-30.00;11.70;-19.10;-18.10;-18.72;20.70;7.00
15:31:37;-18.10;-30.00;-29.99;11.70;-19.10;-18.10;-18.72;20.70;7.00
15:31:39;-18.10;-30.00;-30.01;11.70;-19.10;-18.00;-18.73;20.70;7.00
15:31:41;-18.10;-30.00;-30.01;11.70;-19.10;-18.00;-18.72;20.70;7.00
15:31:43;-18.10;-30.00;-30.01;11.70;-19.10;-18.10;-18.72;20.70;7.00
15:31:44;-18.10;-30.00;-30.01;11.70;-19.10;-18.10;-18.73;20.80;7.00
15:31:47;-18.10;-30.00;-30.00;11.70;-19.10;-18.10;-18.73;20.80;6.90
15:31:49;-18.10;-30.00;-29.97;11.70;-19.10;-18.10;-18.74;20.90;6.90
15:31:51;-18.10;-30.00;-29.97;11.70;-19.10;-18.10;-18.73;20.90;7.00
15:31:53;-18.10;-30.00;-29.99;11.70;-19.10;-18.00;-18.72;20.90;7.00
15:31:55;-18.10;-30.00;-30.01;11.70;-19.10;-18.00;-18.72;20.90;7.00
15:31:57;-18.10;-30.00;-30.00;11.70;-19.10;-18.10;-18.72;20.90;7.00
15:31:59;-18.10;-30.00;-29.99;11.70;-19.10;-18.10;-18.72;20.90;6.90
15:32:01;-18.10;-30.00;-29.98;11.70;-19.10;-18.10;-18.73;20.90;6.90
15:32:03;-18.10;-30.00;-30.01;11.70;-19.10;-18.10;-18.74;20.80;7.00
15:32:05;-18.10;-30.00;-30.02;11.70;-19.10;-18.10;-18.75;20.90;7.00
15:32:07;-18.10;-30.00;-30.02;11.70;-19.10;-18.10;-18.74;20.90;6.90
15:32:09;-18.10;-30.00;-30.00;11.70;-19.10;-18.10;-18.73;20.90;7.00
15:32:11;-18.10;-30.00;-30.00;11.70;-19.10;-18.10;-18.73;20.90;7.00
15:32:13;-18.10;-30.00;-29.99;11.70;-19.10;-18.10;-18.72;20.90;7.00
15:32:15;-18.10;-30.00;-30.00;11.70;-19.10;-18.10;-18.71;20.80;6.90
15:32:17;-18.10;-30.00;-30.02;11.70;-19.10;-18.10;-18.70;20.80;7.00
15:32:19;-18.10;-30.00;-30.01;11.70;-19.10;-18.00;-18.70;20.70;6.90
15:32:21;-18.10;-30.00;-30.00;11.70;-19.10;-18.10;-18.71;20.70;6.90
15:32:23;-18.10;-30.00;-29.99;11.70;-19.10;-18.10;-18.71;20.70;6.90
15:32:25;-18.10;-30.00;-29.97;11.70;-19.10;-18.10;-18.70;20.70;6.90
15:32:27;-18.10;-30.00;-29.97;11.70;-19.10;-18.00;-18.71;20.70;6.90
15:32:29;-18.10;-30.00;-29.99;11.70;-19.10;-18.10;-18.71;20.70;6.90
15:32:31;-18.10;-30.00;-30.01;11.70;-19.10;-18.10;-18.70;20.70;7.00
15:32:33;-18.10;-30.00;-30.02;11.70;-19.10;-18.10;-18.70;20.70;7.00
15:32:35;-18.10;-30.00;-30.02;11.70;-19.10;-18.10;-18.70;20.60;7.00
15:32:37;-18.10;-30.00;-30.04;11.70;-19.10;-18.10;-18.71;20.50;6.90
15:32:39;-18.10;-30.00;-30.06;11.70;-19.10;-18.10;-18.71;20.60;6.90
15:32:41;-18.10;-30.00;-30.04;11.70;-19.10;-18.10;-18.72;20.60;7.00
15:32:43;-18.10;-30.00;-30.01;11.70;-19.10;-18.10;-18.72;20.60;7.00
15:32:45;-18.10;-30.00;-30.01;11.70;-19.10;-18.10;-18.72;20.70;6.90
15:32:47;-18.10;-30.00;-30.01;11.70;-19.10;-18.10;-18.72;20.70;6.90
15:32:49;-18.10;-30.00;-30.02;11.70;-19.10;-18.10;-18.70;20.70;6.90
15:32:51;-18.10;-30.00;-30.02;11.70;-19.10;-18.10;-18.70;20.70;7.00
15:32:53;-18.10;-30.00;-30.00;11.70;-19.10;-18.10;-18.70;20.70;6.90
15:32:55;-18.10;-30.00;-30.00;11.70;-19.10;-18.10;-18.70;20.70;6.90
15:32:57;-18.10;-30.00;-29.97;11.70;-19.10;-18.10;-18.69;20.80;6.90
15:32:59;-18.10;-30.00;-29.98;11.70;-19.10;-18.10;-18.69;20.80;6.90
15:33:01;-18.10;-30.00;-29.98;11.70;-19.10;-18.10;-18.69;20.80;7.00
15:33:03;-18.10;-30.00;-29.96;11.70;-19.10;-18.10;-18.70;20.80;7.00
15:33:05;-18.10;-30.00;-29.97;11.70;-19.10;-18.10;-18.70;20.80;6.90
15:33:07;-18.10;-30.00;-29.99;11.70;-19.10;-18.10;-18.69;20.80;7.00
15:33:09;-18.10;-30.00;-30.01;11.70;-19.10;-18.10;-18.69;20.80;6.90
15:33:11;-18.10;-30.00;-30.03;11.70;-19.10;-18.10;-18.69;20.70;6.90
15:33:13;-18.10;-30.00;-30.03;11.70;-19.10;-18.00;-18.69;20.70;6.90
15:33:15;-18.10;-30.00;-30.03;11.70;-19.10;-18.10;-18.70;20.80;6.90
15:33:17;-18.10;-30.00;-30.03;11.70;-19.10;-18.00;-18.69;20.80;6.90
15:33:19;-18.10;-30.00;-30.03;11.70;-19.10;-18.10;-18.69;20.70;6.90
15:33:23;-18.10;-30.00;-29.99;11.70;-19.10;-18.00;-18.68;20.70;6.90
15:33:25;-18.10;-30.00;-29.99;11.70;-19.10;-18.10;-18.69;20.60;6.90
15:33:27;-18.10;-30.00;-29.99;11.70;-19.10;-18.10;-18.71;20.50;6.90
15:33:29;-18.10;-30.00;-29.99;11.70;-19.10;-18.00;-18.71;20.50;7.00
15:33:31;-18.10;-30.00;-30.00;11.70;-19.10;-18.00;-18.70;20.50;6.90
15:33:33;-18.10;-30.00;-30.01;11.70;-19.10;-18.00;-18.70;20.50;6.90
15:33:35;-18.10;-30.00;-30.02;11.70;-19.10;-18.00;-18.69;20.60;6.90
15:33:37;-18.10;-30.00;-30.02;11.70;-19.10;-18.10;-18.69;20.60;6.90
15:33:39;-18.10;-30.00;-30.02;11.70;-19.10;-18.10;-18.70;20.60;6.90
15:33:41;-18.10;-30.00;-30.00;11.70;-19.10;-18.10;-18.70;20.70;6.90
15:33:43;-18.10;-30.00;-29.99;11.70;-19.10;-18.10;-18.71;20.60;6.90
15:33:45;-18.10;-30.00;-30.01;11.70;-19.10;-18.10;-18.71;20.60;6.90
15:33:47;-18.10;-30.00;-30.02;11.70;-19.10;-18.10;-18.72;20.60;6.90
15:33:49;-18.10;-30.00;-30.00;11.70;-19.10;-18.10;-18.72;20.50;6.90
15:33:51;-18.10;-30.00;-30.01;11.70;-19.10;-18.10;-18.71;20.50;6.90
15:33:53;-18.10;-30.00;-30.02;11.70;-19.10;-18.10;-18.71;20.50;6.90
15:33:55;-18.10;-30.00;-30.01;11.70;-19.10;-18.10;-18.70;20.50;6.90
15:33:57;-18.10;-30.00;-30.00;11.70;-19.10;-18.10;-18.70;20.50;6.90
15:33:59;-18.10;-30.00;-30.01;11.70;-19.10;-18.10;-18.70;20.50;6.90
15:34:01;-18.10;-30.00;-30.02;11.70;-19.10;-18.10;-18.68;20.50;6.90
15:34:03;-18.10;-30.00;-30.01;11.70;-19.10;-18.10;-18.69;20.50;6.90
15:34:05;-18.10;-30.00;-30.02;11.70;-19.10;-18.10;-18.68;20.50;6.90
15:34:07;-18.10;-30.00;-30.01;11.70;-19.10;-18.10;-18.68;20.50;6.90
15:34:09;-18.10;-30.00;-30.00;11.70;-19.10;-18.10;-18.68;20.50;6.90
15:34:11;-18.10;-30.00;-29.98;11.70;-19.10;-18.10;-18.68;20.50;6.80
15:34:13;-18.10;-30.00;-29.99;11.70;-19.10;-18.10;-18.68;20.50;6.90
15:34:15;-18.10;-30.00;-30.02;11.70;-19.10;-18.10;-18.68;20.50;6.90
15:34:17;-18.10;-30.00;-30.02;11.70;-19.10;-18.10;-18.67;20.50;6.90
15:34:19;-18.10;-30.00;-30.00;11.70;-19.10;-18.00;-18.68;20.50;6.90
15:34:21;-18.10;-30.00;-30.00;11.70;-19.10;-18.10;-18.67;20.50;6.90
15:34:23;-18.10;-30.00;-30.00;11.70;-19.10;-18.10;-18.68;20.60;6.90
15:34:25;-18.10;-30.00;-30.02;11.70;-19.10;-18.10;-18.68;20.60;6.90
15:34:27;-18.10;-30.00;-30.02;11.70;-19.10;-18.10;-18.67;20.60;6.90
15:34:29;-18.10;-30.00;-30.00;11.70;-19.10;-18.10;-18.68;20.50;6.90
15:34:31;-18.10;-30.00;-30.01;11.70;-19.10;-18.10;-18.68;20.50;6.90
15:34:33;-18.10;-30.00;-30.01;11.70;-19.10;-18.10;-18.70;20.50;6.90
15:34:35;-18.10;-30.00;-29.97;11.70;-19.10;-18.10;-18.70;20.50;6.90
15:34:37;-18.10;-30.00;-29.98;11.70;-19.10;-18.10;-18.70;20.50;6.90
15:34:39;-18.10;-30.00;-30.00;11.70;-19.10;-18.10;-18.70;20.50;6.90
15:34:41;-18.10;-30.00;-30.00;11.70;-19.10;-18.10;-18.70;20.50;6.90
15:34:43;-18.10;-30.00;-29.98;11.70;-19.10;-18.10;-18.69;20.40;6.90
15:34:45;-18.10;-30.00;-29.99;11.70;-19.10;-18.10;-18.69;20.40;6.90
15:34:47;-18.10;-30.00;-30.01;11.70;-19.10;-18.10;-18.69;20.30;6.90
15:34:49;-18.10;-30.00;-30.02;11.70;-19.10;-18.10;-18.70;20.30;6.90
15:34:51;-18.10;-30.00;-30.02;11.70;-19.10;-18.10;-18.70;20.30;6.90
15:34:53;-18.10;-30.00;-30.04;11.70;-19.00;-18.10;-18.69;20.20;6.90
15:34:55;-18.10;-30.00;-30.05;11.70;-19.10;-18.10;-18.68;20.20;6.90
15:34:57;-18.10;-30.00;-30.01;11.70;-19.10;-18.10;-18.68;20.30;6.90
15:34:59;-18.10;-30.00;-29.99;11.70;-19.10;-18.10;-18.68;20.30;6.90
15:35:01;-18.10;-30.00;-30.00;11.70;-19.10;-18.10;-18.68;20.30;6.90
15:35:03;-18.10;-30.00;-30.00;11.70;-19.10;-18.10;-18.69;20.30;6.90
15:35:05;-18.10;-30.00;-30.01;11.70;-19.10;-18.10;-18.68;20.40;6.90
15:35:07;-18.10;-30.00;-30.01;11.70;-19.10;-18.10;-18.70;20.40;6.90
15:35:09;-18.10;-30.00;-30.01;11.60;-19.10;-18.10;-18.70;20.40;6.90
15:35:13;-18.10;-30.00;-29.99;11.70;-19.10;-18.10;-18.68;20.40;6.90
15:35:15;-18.10;-30.00;-30.00;11.70;-19.00;-18.10;-18.68;20.40;6.90
15:35:17;-18.10;-30.00;-30.01;11.70;-19.10;-18.10;-18.69;20.40;6.90
15:35:19;-18.10;-30.00;-30.00;11.70;-19.10;-18.10;-18.69;20.50;6.90
15:35:21;-18.10;-30.00;-29.99;11.70;-19.10;-18.10;-18.69;20.50;6.90
15:35:23;-18.10;-30.00;-29.99;11.70;-19.10;-18.10;-18.70;20.50;6.90
15:35:25;-18.10;-30.00;-30.00;11.70;-19.10;-18.10;-18.70;20.50;6.90
15:35:27;-18.10;-30.00;-30.00;11.70;-19.10;-18.10;-18.70;20.50;6.90
15:35:29;-18.10;-30.00;-29.99;11.60;-19.10;-18.10;-18.69;20.50;6.90
15:35:31;-18.10;-30.00;-30.00;11.70;-19.10;-18.10;-18.70;20.60;6.90
15:35:33;-18.10;-30.00;-30.00;11.60;-19.10;-18.10;-18.69;20.50;6.90
15:35:35;-18.10;-30.00;-30.01;11.70;-19.00;-18.10;-18.69;20.50;6.80
15:35:37;-18.10;-30.00;-30.01;11.60;-19.10;-18.10;-18.69;20.50;6.90
15:35:39;-18.10;-30.00;-30.02;11.60;-19.10;-18.10;-18.70;20.50;6.90
15:35:41;-18.10;-30.00;-30.01;11.60;-19.10;-18.10;-18.69;20.50;6.90
15:35:43;-18.10;-30.00;-30.01;11.60;-19.10;-18.10;-18.69;20.50;6.90
15:35:45;-18.10;-30.00;-30.02;11.60;-19.10;-18.10;-18.69;20.40;6.90
15:35:47;-18.10;-30.00;-30.03;11.70;-19.10;-18.10;-18.70;20.40;6.90
15:35:49;-18.10;-30.00;-30.02;11.70;-19.10;-18.10;-18.69;20.40;6.90
15:35:51;-18.10;-30.00;-30.01;11.60;-19.10;-18.10;-18.69;20.50;6.90
15:35:53;-18.10;-30.00;-29.99;11.60;-19.10;-18.10;-18.68;20.40;6.90
15:35:55;-18.10;-30.00;-30.00;11.60;-19.10;-18.10;-18.69;20.40;6.90
15:35:57;-18.10;-30.00;-30.02;11.60;-19.10;-18.10;-18.70;20.30;6.90
15:35:59;-18.10;-30.00;-30.02;11.60;-19.10;-18.10;-18.69;20.30;6.90
15:36:01;-18.10;-30.00;-29.99;11.60;-19.10;-18.10;-18.69;20.30;6.90
15:36:03;-18.10;-30.00;-29.99;11.60;-19.10;-18.10;-18.69;20.40;6.80
15:36:05;-18.10;-30.00;-30.01;11.60;-19.10;-18.10;-18.70;20.40;6.80
15:36:07;-18.10;-30.00;-30.02;11.60;-19.10;-18.10;-18.70;20.40;6.80
15:36:09;-18.10;-30.00;-30.00;11.60;-19.10;-18.10;-18.70;20.40;6.90
15:36:11;-18.10;-30.00;-30.00;11.60;-19.10;-18.10;-18.69;20.40;6.80
15:36:13;-18.10;-30.00;-30.00;11.60;-19.10;-18.10;-18.69;20.40;6.80
15:36:15;-18.10;-30.00;-30.00;11.60;-19.10;-18.10;-18.69;20.30;6.80
15:36:17;-18.10;-30.00;-30.01;11.60;-19.10;-18.10;-18.70;20.30;6.80
15:36:19;-18.10;-30.00;-30.01;11.60;-19.10;-18.10;-18.70;20.20;6.90
15:36:21;-18.10;-30.00;-30.00;11.70;-19.10;-18.10;-18.70;20.20;6.90
15:36:23;-18.10;-30.00;-30.00;11.60;-19.10;-18.10;-18.70;20.20;6.80
15:36:25;-18.10;-30.00;-30.00;11.60;-19.10;-18.10;-18.70;20.20;6.80
15:36:27;-18.10;-30.00;-29.99;11.60;-19.10;-18.10;-18.70;20.20;6.80
15:36:29;-18.10;-30.00;-30.02;11.60;-19.10;-18.10;-18.71;20.10;6.80
15:36:31;-18.10;-30.00;-30.01;11.60;-19.10;-18.10;-18.70;20.10;6.80
15:36:33;-18.10;-30.00;-30.02;11.60;-19.10;-18.10;-18.70;20.10;6.80
15:36:35;-18.10;-30.00;-30.02;11.60;-19.10;-18.10;-18.70;20.10;6.80
15:36:37;-18.10;-30.00;-30.02;11.60;-19.10;-18.20;-18.70;20.20;6.80
15:36:39;-18.10;-30.00;-30.01;11.60;-19.10;-18.10;-18.71;20.20;6.90
15:36:41;-18.10;-30.00;-29.99;11.60;-19.10;-18.10;-18.70;20.20;6.80
15:36:43;-18.10;-30.00;-29.99;11.60;-19.10;-18.10;-18.71;20.20;6.80
15:36:45;-18.10;-30.00;-30.00;11.60;-19.10;-18.10;-18.71;20.20;6.80
15:36:47;-18.10;-30.00;-29.99;11.60;-19.10;-18.10;-18.72;20.30;6.90
15:36:49;-18.10;-30.00;-29.99;11.60;-19.10;-18.20;-18.72;20.30;6.90
15:36:51;-18.10;-30.00;-30.00;11.60;-19.10;-18.10;-18.72;20.40;6.90
15:36:53;-18.10;-30.00;-30.00;11.60;-19.10;-18.10;-18.72;20.40;6.90
15:36:55;-18.10;-30.00;-30.00;11.60;-19.10;-18.10;-18.71;20.30;6.80
15:36:57;-18.10;-30.00;-29.99;11.60;-19.10;-18.10;-18.71;20.40;6.80
15:36:59;-18.10;-30.00;-29.99;11.60;-19.10;-18.10;-18.71;20.30;6.80
15:37:03;-18.10;-30.00;-30.02;11.60;-19.10;-18.10;-18.71;20.40;6.80
15:37:05;-18.10;-30.00;-30.03;11.60;-19.10;-18.20;-18.72;20.50;6.80
15:37:07;-18.10;-30.00;-29.99;11.60;-19.10;-18.20;-18.72;20.40;6.80
15:37:09;-18.10;-30.00;-30.00;11.50;-19.10;-18.10;-18.72;20.30;6.90
15:37:11;-18.10;-30.00;-30.00;11.60;-19.10;-18.20;-18.71;20.30;6.80
15:37:13;-18.10;-30.00;-30.01;11.60;-19.10;-18.10;-18.72;20.30;6.80
15:37:15;-18.10;-30.00;-30.01;11.60;-19.10;-18.10;-18.73;20.30;6.90
15:37:17;-18.10;-30.00;-29.98;11.60;-19.10;-18.10;-18.74;20.30;6.90
15:37:19;-18.10;-30.00;-29.99;11.60;-19.10;-18.20;-18.73;20.30;6.80
15:37:21;-18.10;-30.00;-29.99;11.60;-19.10;-18.10;-18.72;20.40;6.90
15:37:23;-18.10;-30.00;-29.96;11.60;-19.10;-18.10;-18.73;20.40;6.80
15:37:25;-18.10;-30.00;-29.98;11.60;-19.10;-18.10;-18.73;20.40;6.90
15:37:27;-18.10;-30.00;-30.02;11.60;-19.10;-18.10;-18.72;20.40;6.90
15:37:29;-18.10;-30.00;-30.00;11.60;-19.10;-18.10;-18.71;20.40;6.80
15:37:31;-18.10;-30.00;-30.00;11.60;-19.10;-18.10;-18.73;20.30;6.80
15:37:33;-18.10;-30.00;-30.02;11.60;-19.10;-18.10;-18.74;20.30;6.80
15:37:35;-18.10;-30.00;-30.02;11.60;-19.10;-18.20;-18.73;20.30;6.80
15:37:37;-18.10;-30.00;-30.01;11.60;-19.10;-18.10;-18.74;20.30;6.80
15:37:39;-18.10;-30.00;-30.00;11.60;-19.10;-18.20;-18.74;20.30;6.90
15:37:41;-18.10;-30.00;-29.99;11.60;-19.10;-18.10;-18.74;20.30;6.90
15:37:43;-18.10;-30.00;-29.99;11.60;-19.10;-18.20;-18.74;20.30;6.80
15:37:45;-18.10;-30.00;-29.98;11.50;-19.10;-18.20;-18.75;20.30;6.80
15:37:47;-18.10;-30.00;-29.99;11.60;-19.10;-18.20;-18.75;20.30;6.80
15:37:49;-18.10;-30.00;-30.01;11.60;-19.10;-18.20;-18.75;20.20;6.90
15:37:51;-18.10;-30.00;-30.02;11.50;-19.10;-18.20;-18.74;20.30;6.80
15:37:53;-18.10;-30.00;-30.01;11.50;-19.10;-18.20;-18.74;20.30;6.80
15:37:55;-18.10;-30.00;-30.01;11.60;-19.10;-18.20;-18.74;20.30;6.80
15:37:57;-18.10;-30.00;-30.00;11.60;-19.10;-18.20;-18.74;20.30;6.80
15:37:59;-18.10;-30.00;-29.98;11.50;-19.20;-18.20;-18.73;20.20;6.80
15:38:01;-18.10;-30.00;-29.98;11.50;-19.10;-18.20;-18.73;20.30;6.90
15:38:03;-18.10;-30.00;-29.99;11.60;-19.20;-18.20;-18.71;20.20;6.90
15:38:05;-18.10;-30.00;-30.00;11.60;-19.10;-18.20;-18.70;20.20;6.80
15:38:07;-18.10;-30.00;-29.98;11.60;-19.10;-18.10;-18.70;20.20;6.80
15:38:09;-18.10;-30.00;-29.99;11.60;-19.10;-18.10;-18.71;20.20;6.80
15:38:11;-18.10;-30.00;-30.00;11.60;-19.10;-18.10;-18.69;20.30;6.80
15:38:13;-18.10;-30.00;-30.00;11.60;-19.10;-18.10;-18.69;20.30;6.80
15:38:15;-18.10;-30.00;-29.99;11.60;-19.10;-18.10;-18.69;20.30;6.80
15:38:17;-18.10;-30.00;-30.01;11.60;-19.10;-18.10;-18.69;20.30;6.80
15:38:19;-18.10;-30.00;-30.02;11.50;-19.10;-18.10;-18.69;20.30;6.80
15:38:21;-18.10;-30.00;-30.01;11.50;-19.10;-18.20;-18.70;20.30;6.80
15:38:23;-18.10;-30.00;-30.01;11.50;-19.10;-18.20;-18.69;20.30;6.80
15:38:25;-18.10;-30.00;-30.02;11.50;-19.10;-18.20;-18.70;20.30;6.80
15:38:27;-18.10;-30.00;-30.02;11.60;-19.10;-18.20;-18.71;20.30;6.80
15:38:29;-18.10;-30.00;-30.02;11.50;-19.10;-18.20;-18.70;20.20;6.80
15:38:31;-18.10;-30.00;-30.02;11.60;-19.10;-18.20;-18.70;20.20;6.80
15:38:33;-18.10;-30.00;-30.01;11.50;-19.20;-18.10;-18.70;20.20;6.80
15:38:35;-18.10;-30.00;-29.99;11.50;-19.10;-18.10;-18.69;20.20;6.80
15:38:37;-18.10;-30.00;-29.99;11.50;-19.10;-18.10;-18.68;20.20;6.90
15:38:39;-18.10;-30.00;-29.99;11.50;-19.10;-18.10;-18.67;20.20;6.90
15:38:41;-18.10;-30.00;-29.99;11.50;-19.10;-18.10;-18.67;20.30;6.80
15:38:43;-18.10;-30.00;-30.01;11.50;-19.10;-18.10;-18.67;20.20;6.80
15:38:45;-18.10;-30.00;-30.02;11.50;-19.10;-18.10;-18.68;20.20;6.80
15:38:47;-18.10;-30.00;-30.01;11.50;-19.10;-18.10;-18.68;20.30;6.80
15:38:49;-18.10;-30.00;-30.01;11.50;-19.10;-18.20;-18.68;20.30;6.80
15:38:54;-18.10;-30.00;-30.02;11.60;-19.10;-18.20;-18.69;20.30;6.80
15:38:56;-18.10;-30.00;-30.02;11.50;-19.10;-18.20;-18.69;20.30;6.80
15:38:58;-18.10;-30.00;-29.99;11.50;-19.10;-18.20;-18.69;20.30;6.80
15:39:00;-18.10;-30.00;-29.97;11.50;-19.10;-18.20;-18.68;20.40;6.80
15:39:02;-18.10;-30.00;-29.99;11.50;-19.10;-18.20;-18.66;20.40;6.80
15:39:04;-18.10;-30.00;-29.98;11.50;-19.10;-18.10;-18.66;20.40;6.80
15:39:06;-18.10;-30.00;-30.00;11.50;-19.10;-18.10;-18.65;20.40;6.80
15:39:08;-18.10;-30.00;-29.99;11.50;-19.10;-18.10;-18.65;20.40;6.80
15:39:10;-18.10;-30.00;-30.00;11.50;-19.10;-18.10;-18.65;20.40;6.80
15:39:12;-18.10;-30.00;-30.00;11.50;-19.10;-18.10;-18.64;20.40;6.80
15:39:14;-18.10;-30.00;-30.01;11.50;-19.10;-18.10;-18.64;20.30;6.80
15:39:16;-18.10;-30.00;-30.02;11.50;-19.10;-18.10;-18.63;20.30;6.80
15:39:18;-18.10;-30.00;-30.00;11.50;-19.10;-18.10;-18.63;20.20;6.90
15:39:20;-18.10;-30.00;-29.98;11.50;-19.10;-18.10;-18.63;20.20;6.90
15:39:22;-18.10;-30.00;-29.99;11.50;-19.10;-18.10;-18.63;20.20;6.80
15:39:24;-18.10;-30.00;-30.00;11.50;-19.10;-18.10;-18.64;20.20;6.80
15:39:26;-18.10;-30.00;-30.01;11.50;-19.10;-18.10;-18.64;20.20;6.80
15:39:28;-18.10;-30.00;-30.00;11.50;-19.10;-18.10;-18.63;20.20;6.80
15:39:30;-18.10;-30.00;-30.00;11.50;-19.10;-18.10;-18.64;20.20;6.80
15:39:32;-18.10;-30.00;-30.00;11.50;-19.10;-18.10;-18.64;20.20;6.80
15:39:34;-18.10;-30.00;-29.99;11.50;-19.10;-18.10;-18.65;20.20;6.80
15:39:36;-18.10;-30.00;-29.99;11.50;-19.10;-18.10;-18.64;20.30;6.80
15:39:38;-18.10;-30.00;-30.00;11.60;-19.10;-18.10;-18.65;20.20;6.80
15:39:40;-18.10;-30.00;-30.00;11.60;-19.10;-18.20;-18.65;20.20;6.80
15:39:42;-18.10;-30.00;-30.00;11.50;-19.10;-18.10;-18.63;20.30;6.80
15:39:44;-18.10;-30.00;-30.01;11.50;-19.10;-18.10;-18.63;20.30;6.80
15:39:46;-18.10;-30.00;-30.01;11.50;-19.10;-18.10;-18.62;20.30;6.80
15:39:48;-18.10;-30.00;-29.98;11.50;-19.10;-18.10;-18.62;20.30;6.80
15:39:50;-18.10;-30.00;-29.99;11.50;-19.10;-18.10;-18.62;20.20;6.80
15:39:52;-18.10;-30.00;-29.98;11.50;-19.10;-18.10;-18.62;20.20;6.80
15:39:54;-18.10;-30.00;-29.98;11.50;-19.10;-18.10;-18.62;20.10;6.80
15:39:56;-18.10;-30.00;-29.99;11.50;-19.10;-18.10;-18.61;20.10;6.80
15:39:58;-18.10;-30.00;-29.98;11.50;-19.10;-18.10;-18.63;20.10;6.80
15:40:00;-18.10;-30.00;-29.98;11.50;-19.10;-18.10;-18.62;20.10;6.80
15:40:02;-18.10;-30.00;-30.00;11.50;-19.10;-18.10;-18.62;20.10;6.80
15:40:04;-18.10;-30.00;-30.03;11.50;-19.10;-18.10;-18.62;20.10;6.80
15:40:06;-18.10;-30.00;-30.04;11.50;-19.10;-18.10;-18.61;20.10;6.80
15:40:08;-18.10;-30.00;-30.01;11.50;-19.10;-18.10;-18.61;20.20;6.80
15:40:10;-18.10;-30.00;-30.00;11.50;-19.10;-18.10;-18.61;20.20;6.80
15:40:12;-18.10;-30.00;-30.00;11.50;-19.10;-18.10;-18.62;20.20;6.80
15:40:14;-18.10;-30.00;-30.00;11.50;-19.10;-18.10;-18.62;20.20;6.80
15:40:16;-18.10;-30.00;-30.00;11.50;-19.10;-18.10;-18.62;20.20;6.80
15:40:18;-18.10;-30.00;-30.01;11.50;-19.10;-18.10;-18.61;20.20;6.80
15:40:20;-18.10;-30.00;-30.00;11.50;-19.10;-18.10;-18.62;20.10;6.80
15:40:22;-18.10;-30.00;-30.02;11.50;-19.10;-18.10;-18.61;20.10;6.80
15:40:24;-18.10;-30.00;-30.01;11.50;-19.10;-18.10;-18.61;20.10;6.80
15:40:26;-18.10;-30.00;-30.01;11.50;-19.10;-18.10;-18.62;20.10;6.80
15:40:28;-18.10;-30.00;-30.02;11.50;-19.10;-18.10;-18.62;20.20;6.80
15:40:30;-18.10;-30.00;-29.98;11.50;-19.10;-18.10;-18.62;20.10;6.80
15:40:32;-18.10;-30.00;-29.99;11.50;-19.10;-18.10;-18.62;20.10;6.80
15:40:34;-18.10;-30.00;-30.00;11.50;-19.10;-18.10;-18.62;20.20;6.80
15:40:36;-18.10;-30.00;-29.99;11.50;-19.10;-18.10;-18.61;20.20;6.80
15:40:38;-18.10;-30.00;-29.99;11.50;-19.10;-18.10;-18.61;20.30;6.80
15:40:40;-18.10;-30.00;-30.00;11.50;-19.10;-18.10;-18.60;20.30;6.80
15:40:44;-18.10;-30.00;-30.01;11.50;-19.10;-18.10;-18.59;20.30;6.80
15:40:46;-18.10;-30.00;-30.02;11.50;-19.10;-18.10;-18.59;20.30;6.80
15:40:48;-18.10;-30.00;-30.03;11.50;-19.10;-18.10;-18.59;20.30;6.70
15:40:50;-18.10;-30.00;-30.03;11.50;-19.10;-18.10;-18.59;20.30;6.70
15:40:52;-18.10;-30.00;-30.01;11.50;-19.10;-18.10;-18.60;20.30;6.80
15:40:54;-18.10;-30.00;-30.01;11.50;-19.10;-18.10;-18.60;20.30;6.70
15:40:56;-18.10;-30.00;-30.00;11.50;-19.10;-18.10;-18.60;20.30;6.80
15:40:58;-18.10;-30.00;-29.99;11.50;-19.10;-18.10;-18.60;20.20;6.80
15:41:00;-18.10;-30.00;-30.00;11.50;-19.10;-18.10;-18.60;20.20;6.80
15:41:02;-18.10;-30.00;-30.01;11.50;-19.10;-18.10;-18.60;20.20;6.80
15:41:04;-18.10;-30.00;-30.00;11.50;-19.10;-18.10;-18.58;20.20;6.80
15:41:06;-18.10;-30.00;-30.00;11.50;-19.10;-18.10;-18.59;20.10;6.80
15:41:08;-18.10;-30.00;-29.98;11.50;-19.10;-18.10;-18.59;20.10;6.80
15:41:10;-18.10;-30.00;-29.99;11.50;-19.10;-18.10;-18.60;20.10;6.80
15:41:12;-18.10;-30.00;-30.00;11.50;-19.10;-18.10;-18.59;20.20;6.80
15:41:14;-18.10;-30.00;-29.99;11.50;-19.10;-18.10;-18.59;20.20;6.80
15:41:16;-18.10;-30.00;-29.98;11.50;-19.10;-18.10;-18.59;20.20;6.80
15:41:18;-18.10;-30.00;-29.98;11.50;-19.10;-18.10;-18.59;20.20;6.80
15:41:20;-18.10;-30.00;-30.00;11.50;-19.10;-18.00;-18.59;20.20;6.70
15:41:22;-18.10;-30.00;-30.01;11.50;-19.10;-18.00;-18.58;20.30;6.80
15:41:24;-18.10;-30.00;-30.02;11.50;-19.10;-18.00;-18.58;20.30;6.70
15:41:26;-18.10;-30.00;-30.02;11.50;-19.10;-18.00;-18.57;20.40;6.80
15:41:28;-18.10;-30.00;-30.01;11.50;-19.10;-18.00;-18.58;20.30;6.80
15:41:30;-18.10;-30.00;-29.96;11.50;-19.10;-18.00;-18.59;20.30;6.80
15:41:32;-18.10;-30.00;-29.95;11.50;-19.10;-18.10;-18.60;20.20;6.70
15:41:34;-18.10;-30.00;-29.97;11.50;-19.10;-18.10;-18.61;20.20;6.80
15:41:36;-18.10;-30.00;-29.99;11.50;-19.10;-18.10;-18.62;20.20;6.80
15:41:38;-18.10;-30.00;-30.00;11.50;-19.10;-18.10;-18.61;20.20;6.80
15:41:40;-18.10;-30.00;-30.00;11.50;-19.10;-18.10;-18.62;20.20;6.80
15:41:42;-18.10;-30.00;-29.99;11.50;-19.10;-18.10;-18.63;20.20;6.70
15:41:44;-18.10;-30.00;-29.99;11.50;-19.10;-18.10;-18.63;20.10;6.80
15:41:46;-18.10;-30.00;-30.00;11.50;-19.10;-18.10;-18.61;20.10;6.70
15:41:48;-18.10;-30.00;-30.01;11.50;-19.10;-18.10;-18.61;20.00;6.80
15:41:50;-18.10;-30.00;-30.02;11.50;-19.10;-18.10;-18.61;20.00;6.80
15:41:52;-18.10;-30.00;-30.03;11.50;-19.10;-18.10;-18.60;20.00;6.80
15:41:54;-18.10;-30.00;-30.03;11.50;-19.10;-18.10;-18.60;20.00;6.70
15:41:56;-18.10;-30.00;-30.00;11.50;-19.10;-18.10;-18.61;20.00;6.80
15:41:58;-18.10;-30.00;-30.00;11.50;-19.10;-18.10;-18.61;20.00;6.80
15:42:00;-18.10;-30.00;-29.97;11.50;-19.10;-18.10;-18.61;20.10;6.70
15:42:02;-18.10;-30.00;-29.98;11.50;-19.10;-18.10;-18.61;20.10;6.80
15:42:04;-18.10;-30.00;-30.00;11.50;-19.10;-18.10;-18.59;20.10;6.80
15:42:06;-18.10;-30.00;-29.98;11.50;-19.10;-18.10;-18.58;20.00;6.70
15:42:08;-18.10;-30.00;-29.98;11.50;-19.10;-18.10;-18.58;20.00;6.70
15:42:10;-18.10;-30.00;-30.00;11.50;-19.10;-18.10;-18.58;20.00;6.70
15:42:12;-18.10;-30.00;-30.02;11.50;-19.10;-18.10;-18.59;20.00;6.70
15:42:14;-18.10;-30.00;-30.00;11.50;-19.10;-18.10;-18.59;20.00;6.80
15:42:16;-18.10;-30.00;-30.01;11.50;-19.10;-18.10;-18.58;20.00;6.80
15:42:18;-18.10;-30.00;-30.01;11.50;-19.10;-18.10;-18.59;20.00;6.80
15:42:20;-18.10;-30.00;-30.01;11.50;-19.10;-18.10;-18.59;20.00;6.80
15:42:22;-18.10;-30.00;-29.99;11.50;-19.10;-18.10;-18.59;20.00;6.80
15:42:24;-18.10;-30.00;-30.00;11.50;-19.10;-18.10;-18.57;20.00;6.80
15:42:26;-18.10;-30.00;-30.00;11.50;-19.10;-18.10;-18.58;20.00;6.80
15:42:28;-18.10;-30.00;-30.02;11.50;-19.10;-18.10;-18.58;20.10;6.80
15:42:30;-18.10;-30.00;-30.02;11.50;-19.10;-18.10;-18.58;20.10;6.70
15:42:32;-18.10;-30.00;-30.00;11.50;-19.10;-18.10;-18.57;20.10;6.80
