time (04.06.2024);target (PCB) temperature (C);chiller setpoint (C);chiller temperature (internal) (C);housing temperature (C);sensor box temperature (C);PCB temperature (C);Pt1000 temperature (C);housing humidity (%);sensor box humidity (%)
08:00:04;-18.10;-30.00;-30.00;16.40;-19.00;-18.20;-19.97;10.90;4.50
08:00:06;-18.10;-30.00;-29.99;16.30;-19.00;-18.10;-19.98;11.00;4.40
08:00:08;-18.10;-30.00;-29.97;16.30;-19.00;-18.10;-19.98;11.00;4.40
08:00:10;-18.10;-30.00;-29.98;16.30;-19.00;-18.20;-19.98;10.90;4.40
08:00:12;-18.10;-30.00;-29.99;16.40;-19.00;-18.20;-19.99;10.90;4.50
08:00:14;-18.10;-30.00;-30.00;16.30;-19.00;-18.20;-19.98;10.90;4.40
08:00:16;-18.10;-30.00;-30.02;16.40;-19.00;-18.20;-19.98;10.90;4.50
08:00:22;-18.10;-30.00;-30.00;16.40;-19.00;-18.20;-19.96;10.90;4.50
08:00:24;-18.10;-30.00;-30.00;16.30;-19.00;-18.20;-19.97;10.90;4.40
08:00:26;-18.10;-30.00;-30.00;16.30;-19.00;-18.20;-19.98;10.90;4.40
08:00:28;-18.10;-30.00;-29.99;16.30;-19.00;-18.20;-19.97;11.00;4.50
08:00:30;-18.10;-30.00;-30.00;16.30;-19.00;-18.10;-19.95;10.90;4.50
08:00:32;-18.10;-30.00;-30.01;16.30;-19.00;-18.10;-19.94;10.90;4.40
08:00:34;-18.10;-30.00;-30.00;16.30;-19.00;-18.10;-19.93;11.00;4.50
08:00:36;-18.10;-30.00;-29.99;16.30;-19.00;-18.10;-19.94;11.00;4.50
08:00:38;-18.10;-30.00;-29.98;16.30;-19.00;-18.10;-19.93;11.00;4.40
08:00:40;-18.10;-30.00;-29.98;16.30;-18.90;-18.10;-19.92;10.90;4.40
08:00:42;-18.10;-30.00;-29.99;16.30;-18.90;-18.10;-19.92;10.90;4.40
08:00:44;-18.10;-30.00;-29.99;16.30;-19.00;-18.10;-19.91;11.00;4.50
08:00:46;-18.10;-30.00;-29.99;16.30;-19.00;-18.10;-19.92;10.90;4.50
08:00:48;-18.10;-30.00;-30.00;16.20;-18.90;-18.10;-19.92;11.00;4.40
08:00:50;-18.10;-30.00;-29.99;16.20;-19.00;-18.10;-19.93;11.00;4.50
08:00:52;-18.10;-30.00;-29.99;16.30;-19.00;-18.10;-19.93;11.00;4.50
08:00:54;-18.10;-30.00;-29.98;16.30;-18.90;-18.10;-19.91;11.00;4.40
08:00:56;-18.10;-30.00;-29.98;16.30;-18.90;-18.10;-19.92;11.00;4.40
08:00:58;-18.10;-30.00;-29.99;16.20;-19.00;-18.10;-19.92;11.00;4.40
08:01:00;-18.10;-30.00;-29.98;16.30;-18.90;-18.10;-19.91;11.00;4.40
08:01:02;-18.10;-30.00;-29.98;16.20;-18.90;-18.10;-19.90;11.00;4.50
08:01:04;-18.10;-30.00;-30.00;16.30;-18.90;-18.00;-19.89;11.00;4.40
08:01:06;-18.10;-30.00;-30.01;16.20;-18.90;-18.00;-19.90;11.00;4.40
08:01:08;-18.10;-30.00;-30.00;16.20;-18.90;-18.10;-19.91;11.00;4.40
08:01:12;-18.10;-30.00;-30.02;16.20;-18.90;-18.00;-19.89;11.00;4.40
08:01:14;-18.10;-30.00;-30.00;16.30;-18.90;-18.10;-19.89;11.00;4.40
08:01:16;-18.10;-30.00;-29.98;16.20;-19.00;-18.10;-19.90;11.00;4.40
08:01:18;-18.10;-30.00;-29.99;16.20;-18.90;-18.00;-19.90;11.00;4.40
08:01:20;-18.10;-30.00;-30.00;16.30;-18.90;-18.10;-19.89;11.00;4.40
08:01:22;-18.10;-30.00;-30.01;16.20;-18.90;-18.10;-19.89;11.00;4.40
08:01:26;-18.10;-30.00;-30.01;16.20;-18.90;-18.10;-19.88;10.90;4.50
08:01:28;-18.10;-30.00;-30.03;16.20;-18.90;-18.10;-19.89;11.00;4.50
08:01:30;-18.10;-30.00;-30.03;16.20;-18.90;-18.10;-19.89;11.00;4.50
08:01:32;-18.10;-30.00;-30.02;16.20;-19.00;-18.10;-19.90;11.00;4.50
08:01:34;-18.10;-30.00;-30.02;16.20;-18.90;-18.10;-19.91;10.90;4.50
08:01:36;-18.10;-30.00;-30.03;16.20;-19.00;-18.10;-19.90;11.00;4.40
08:01:38;-18.10;-30.00;-30.04;16.20;-19.00;-18.10;-19.90;11.00;4.40
08:01:40;-18.10;-30.00;-30.01;16.20;-19.00;-18.10;-19.91;11.00;4.40
08:01:42;-18.10;-30.00;-30.01;16.20;-18.90;-18.10;-19.91;11.00;4.50
08:01:44;-18.10;-30.00;-30.01;16.20;-19.00;-18.10;-19.90;11.00;4.40
08:01:46;-18.10;-30.00;-30.01;16.20;-19.00;-18.10;-19.90;11.00;4.40
08:01:48;-18.10;-30.00;-30.02;16.20;-18.90;-18.10;-19.90;11.00;4.50
08:01:50;-18.10;-30.00;-30.00;16.20;-18.90;-18.10;-19.91;11.00;4.50
08:01:52;-18.10;-30.00;-29.99;16.20;-19.00;-18.10;-19.91;11.00;4.40
08:01:54;-18.10;-30.00;-29.99;16.20;-18.90;-18.10;-19.93;11.00;4.40
08:01:56;-18.10;-30.00;-30.00;16.20;-18.90;-18.10;-19.92;11.00;4.40
08:01:58;-18.10;-30.00;-29.99;16.20;-19.00;-18.10;-19.92;11.00;4.50
08:02:00;-18.10;-30.00;-29.98;16.20;-19.00;-18.10;-19.92;11.00;4.40
08:02:02;-18.10;-30.00;-30.00;16.20;-18.90;-18.10;-19.91;10.90;4.40
08:02:04;-18.10;-30.00;-29.99;16.20;-18.90;-18.10;-19.91;10.90;4.40
08:02:06;-18.10;-30.00;-29.99;16.20;-18.90;-18.10;-19.92;10.90;4.40
08:02:08;-18.10;-30.00;-29.98;16.20;-18.90;-18.10;-19.92;11.00;4.50
08:02:10;-18.10;-30.00;-30.00;16.20;-19.00;-18.10;-19.92;10.90;4.50
08:02:12;-18.10;-30.00;-30.01;16.20;-18.90;-18.10;-19.92;11.00;4.40
08:02:14;-18.10;-30.00;-30.01;16.20;-19.00;-18.10;-19.92;11.00;4.50
08:02:16;-18.10;-30.00;-30.01;16.20;-18.90;-18.10;-19.92;11.00;4.40
08:02:18;-18.10;-30.00;-30.00;16.20;-19.00;-18.10;-19.91;11.00;4.40
08:02:20;-18.10;-30.00;-30.01;16.20;-18.90;-18.10;-19.90;11.00;4.40
08:02:22;-18.10;-30.00;-30.01;16.20;-18.90;-18.10;-19.90;11.00;4.40
08:02:24;-18.10;-30.00;-30.01;16.20;-19.00;-18.10;-19.89;11.00;4.40
08:02:26;-18.10;-30.00;-30.01;16.20;-19.00;-18.10;-19.90;11.00;4.40
08:02:28;-18.10;-30.00;-29.98;16.20;-19.00;-18.10;-19.90;11.00;4.50
08:02:30;-18.10;-30.00;-29.98;16.20;-19.00;-18.10;-19.89;11.00;4.50
08:02:32;-18.10;-30.00;-29.99;16.20;-19.00;-18.10;-19.90;10.90;4.40
08:02:34;-18.10;-30.00;-30.00;16.20;-18.90;-18.10;-19.90;10.90;4.40
08:02:36;-18.10;-30.00;-30.02;16.20;-18.90;-18.10;-19.89;10.90;4.40
08:02:38;-18.10;-30.00;-30.02;16.20;-18.90;-18.10;-19.88;10.90;4.40
08:02:40;-18.10;-30.00;-30.03;16.20;-18.90;-18.10;-19.89;10.90;4.50
08:02:42;-18.10;-30.00;-30.02;16.20;-18.90;-18.00;-19.89;10.90;4.50
08:02:44;-18.10;-30.00;-30.03;16.20;-18.90;-18.10;-19.88;10.90;4.50
08:02:46;-18.10;-30.00;-30.02;16.10;-18.90;-18.10;-19.89;10.90;4.40
08:02:48;-18.10;-30.00;-30.01;16.10;-18.90;-18.00;-19.87;10.90;4.50
08:02:50;-18.10;-30.00;-30.00;16.10;-18.90;-18.00;-19.88;10.90;4.40
08:02:52;-18.10;-30.00;-29.97;16.10;-18.90;-18.00;-19.87;10.90;4.50
08:02:54;-18.10;-30.00;-29.98;16.10;-19.00;-18.00;-19.87;10.90;4.50
08:02:56;-18.10;-30.00;-29.98;16.10;-18.90;-18.10;-19.88;10.90;4.50
08:02:58;-18.10;-30.00;-30.00;16.10;-18.90;-18.10;-19.89;10.90;4.40
08:03:00;-18.10;-30.00;-29.99;16.10;-19.00;-18.10;-19.89;10.90;4.50
08:03:02;-18.10;-30.00;-30.00;16.10;-19.00;-18.10;-19.88;10.90;4.40
08:03:04;-18.10;-30.00;-30.01;16.10;-19.00;-18.10;-19.90;10.90;4.40
08:03:06;-18.10;-30.00;-30.01;16.10;-18.90;-18.10;-19.89;10.90;4.50
08:03:08;-18.10;-30.00;-30.00;16.10;-18.90;-18.10;-19.89;10.90;4.40
08:03:10;-18.10;-30.00;-30.00;16.10;-18.90;-18.10;-19.89;10.90;4.50
08:03:15;-18.10;-30.00;-30.00;16.10;-19.00;-18.10;-19.89;10.90;4.40
08:03:16;-18.10;-30.00;-29.99;16.10;-19.00;-18.00;-19.90;10.90;4.50
08:03:18;-18.10;-30.00;-29.99;16.10;-19.00;-18.00;-19.89;10.90;4.50
08:03:20;-18.10;-30.00;-29.98;16.10;-18.90;-18.00;-19.90;10.90;4.50
08:03:22;-18.10;-30.00;-29.99;16.10;-19.00;-18.00;-19.90;11.00;4.50
08:03:24;-18.10;-30.00;-29.99;16.10;-19.00;-18.00;-19.90;11.00;4.50
08:03:26;-18.10;-30.00;-29.98;16.10;-19.00;-18.10;-19.89;10.90;4.40
08:03:28;-18.10;-30.00;-29.98;16.10;-19.00;-18.10;-19.88;10.90;4.50
08:03:30;-18.10;-30.00;-29.99;16.10;-18.90;-18.00;-19.89;11.00;4.50
08:03:32;-18.10;-30.00;-30.01;16.10;-19.00;-18.10;-19.89;10.90;4.50
08:03:34;-18.10;-30.00;-29.99;16.10;-19.00;-18.10;-19.90;10.90;4.50
08:03:36;-18.10;-30.00;-30.00;16.10;-19.00;-18.10;-19.89;10.90;4.50
08:03:38;-18.10;-30.00;-29.99;16.10;-19.00;-18.10;-19.88;10.90;4.50
08:03:40;-18.10;-30.00;-29.98;16.10;-19.00;-18.10;-19.89;10.90;4.50
08:03:42;-18.10;-30.00;-29.98;16.10;-19.00;-18.10;-19.90;10.90;4.50
08:03:44;-18.10;-30.00;-30.00;16.10;-19.00;-18.10;-19.91;10.90;4.40
08:03:46;-18.10;-30.00;-30.01;16.10;-19.00;-18.10;-19.92;11.00;4.40
08:03:48;-18.10;-30.00;-30.02;16.10;-19.00;-18.10;-19.91;11.00;4.50
08:03:50;-18.10;-30.00;-30.02;16.10;-19.00;-18.10;-19.91;11.00;4.50
08:03:52;-18.10;-30.00;-29.99;16.10;-19.00;-18.10;-19.92;11.00;4.50
08:03:54;-18.10;-30.00;-29.99;16.00;-18.90;-18.10;-19.92;11.00;4.40
08:03:56;-18.10;-30.00;-29.98;16.10;-18.90;-18.10;-19.92;11.00;4.40
08:03:58;-18.10;-30.00;-30.00;16.00;-18.90;-18.10;-19.93;11.00;4.40
08:04:00;-18.10;-30.00;-30.02;16.00;-18.90;-18.10;-19.94;11.00;4.50
08:04:02;-18.10;-30.00;-30.02;16.10;-19.00;-18.10;-19.93;11.00;4.50
08:04:04;-18.10;-30.00;-30.00;16.10;-19.00;-18.10;-19.93;11.00;4.50
08:04:06;-18.10;-30.00;-30.01;16.10;-19.00;-18.10;-19.93;11.00;4.50
08:04:08;-18.10;-30.00;-30.04;16.00;-19.00;-18.10;-19.93;11.00;4.50
08:04:10;-18.10;-30.00;-30.04;16.00;-18.90;-18.10;-19.92;11.00;4.50
08:04:12;-18.10;-30.00;-30.04;16.10;-18.90;-18.10;-19.92;11.00;4.40
08:04:14;-18.10;-30.00;-30.03;16.00;-19.00;-18.10;-19.93;11.00;4.40
08:04:16;-18.10;-30.00;-30.03;16.00;-19.00;-18.10;-19.93;11.00;4.40
08:04:18;-18.10;-30.00;-30.03;16.00;-18.90;-18.10;-19.92;10.90;4.50
08:04:20;-18.10;-30.00;-30.02;16.00;-19.00;-18.10;-19.91;10.90;4.50
08:04:22;-18.10;-30.00;-30.00;16.00;-19.00;-18.10;-19.90;10.90;4.50
08:04:24;-18.10;-30.00;-29.99;16.00;-19.00;-18.10;-19.89;10.90;4.50
08:04:26;-18.10;-30.00;-29.99;16.00;-19.00;-18.10;-19.90;10.90;4.50
08:04:28;-18.10;-30.00;-29.97;16.00;-18.90;-18.10;-19.91;10.90;4.50
08:04:30;-18.10;-30.00;-30.00;16.00;-19.00;-18.10;-19.91;10.90;4.50
08:04:32;-18.10;-30.00;-29.99;16.00;-18.90;-18.10;-19.90;10.90;4.40
08:04:34;-18.10;-30.00;-29.99;16.00;-18.90;-18.10;-19.90;10.90;4.40
08:04:36;-18.10;-30.00;-29.99;16.00;-19.00;-18.10;-19.90;10.90;4.40
08:04:38;-18.10;-30.00;-29.98;16.00;-19.00;-18.10;-19.90;10.90;4.40
08:04:40;-18.10;-30.00;-29.98;16.00;-19.00;-18.10;-19.90;11.00;4.40
08:04:43;-18.10;-30.00;-29.99;16.00;-18.90;-18.10;-19.90;10.90;4.50
08:04:44;-18.10;-30.00;-29.99;16.00;-19.00;-18.10;-19.90;10.90;4.40
08:04:46;-18.10;-30.00;-29.98;16.00;-19.00;-18.10;-19.89;10.90;4.50
08:04:48;-18.10;-30.00;-30.00;16.00;-18.90;-18.10;-19.91;10.90;4.50
08:04:50;-18.10;-30.00;-30.02;16.00;-19.00;-18.10;-19.91;11.00;4.50
08:04:53;-18.10;-30.00;-30.01;16.00;-18.90;-18.10;-19.92;10.90;4.50
08:04:54;-18.10;-30.00;-30.00;16.00;-19.00;-18.10;-19.92;10.90;4.40
08:04:56;-18.10;-30.00;-29.99;16.00;-18.90;-18.10;-19.92;10.90;4.40
08:04:58;-18.10;-30.00;-29.99;16.00;-19.00;-18.10;-19.92;10.90;4.50
08:05:03;-18.10;-30.00;-30.00;16.00;-19.00;-18.10;-19.91;10.90;4.50
08:05:05;-18.10;-30.00;-30.01;16.00;-19.00;-18.10;-19.91;10.90;4.40
08:05:06;-18.10;-30.00;-29.99;16.00;-19.00;-18.10;-19.91;10.90;4.40
08:05:08;-18.10;-30.00;-29.98;16.00;-18.90;-18.10;-19.91;10.90;4.40
08:05:10;-18.10;-30.00;-30.00;16.00;-19.00;-18.10;-19.90;10.90;4.50
08:05:12;-18.10;-30.00;-30.01;16.00;-19.00;-18.10;-19.90;10.90;4.40
08:05:15;-18.10;-30.00;-30.00;16.00;-18.90;-18.10;-19.91;10.90;4.40
08:05:17;-18.10;-30.00;-30.00;16.00;-19.00;-18.10;-19.91;10.90;4.50
08:05:19;-18.10;-30.00;-30.02;16.00;-19.00;-18.10;-19.92;10.90;4.40
08:05:21;-18.10;-30.00;-30.02;16.00;-19.00;-18.10;-19.91;10.90;4.40
08:05:23;-18.10;-30.00;-30.02;16.00;-19.00;-18.10;-19.92;10.90;4.40
08:05:25;-18.10;-30.00;-30.02;16.00;-19.00;-18.10;-19.91;10.90;4.40
08:05:27;-18.10;-30.00;-30.02;16.00;-19.00;-18.10;-19.92;10.90;4.50
08:05:29;-18.10;-30.00;-30.00;16.00;-19.00;-18.10;-19.93;10.90;4.50
08:05:31;-18.10;-30.00;-30.00;16.00;-19.00;-18.10;-19.94;10.90;4.50
08:05:33;-18.10;-30.00;-30.01;16.00;-19.00;-18.10;-19.93;10.90;4.40
08:05:35;-18.10;-30.00;-30.01;16.00;-19.00;-18.10;-19.93;10.90;4.50
08:05:37;-18.10;-30.00;-30.00;16.00;-19.00;-18.10;-19.93;10.90;4.50
08:05:39;-18.10;-30.00;-30.00;16.00;-19.00;-18.10;-19.93;10.90;4.50
08:05:41;-18.10;-30.00;-29.97;16.00;-18.90;-18.10;-19.92;10.90;4.50
08:05:43;-18.10;-30.00;-29.99;16.00;-19.00;-18.10;-19.92;10.90;4.40
08:05:45;-18.10;-30.00;-30.01;16.00;-19.00;-18.10;-19.92;10.90;4.50
08:05:47;-18.10;-30.00;-30.00;16.00;-19.00;-18.10;-19.92;10.80;4.50
08:05:49;-18.10;-30.00;-30.00;16.00;-18.90;-18.10;-19.92;10.90;4.50
08:05:51;-18.10;-30.00;-30.00;16.00;-18.90;-18.10;-19.93;10.90;4.40
08:05:53;-18.10;-30.00;-30.01;16.00;-18.90;-18.10;-19.93;10.90;4.50
08:05:55;-18.10;-30.00;-30.01;15.90;-18.90;-18.10;-19.93;10.90;4.50
08:05:57;-18.10;-30.00;-30.01;16.00;-18.90;-18.10;-19.93;10.90;4.50
08:05:59;-18.10;-30.00;-30.00;15.90;-18.90;-18.10;-19.92;10.90;4.40
08:06:01;-18.10;-30.00;-29.99;16.00;-18.90;-18.10;-19.92;10.80;4.50
08:06:03;-18.10;-30.00;-30.02;15.90;-19.00;-18.10;-19.91;10.90;4.50
08:06:05;-18.10;-30.00;-30.00;15.90;-19.00;-18.10;-19.91;10.90;4.50
08:06:07;-18.10;-30.00;-30.00;15.90;-18.90;-18.10;-19.90;10.80;4.40
08:06:09;-18.10;-30.00;-29.97;15.90;-19.00;-18.10;-19.90;10.80;4.50
08:06:11;-18.10;-30.00;-29.99;15.90;-19.00;-18.10;-19.91;10.90;4.50
08:06:13;-18.10;-30.00;-30.03;15.90;-18.90;-18.10;-19.91;10.80;4.40
08:06:15;-18.10;-30.00;-30.02;15.90;-19.00;-18.10;-19.91;10.90;4.40
08:06:17;-18.10;-30.00;-30.00;15.90;-18.90;-18.10;-19.92;10.90;4.50
08:06:19;-18.10;-30.00;-30.01;15.90;-18.90;-18.10;-19.91;10.90;4.40
08:06:21;-18.10;-30.00;-30.02;15.90;-18.90;-18.10;-19.91;10.90;4.40
08:06:23;-18.10;-30.00;-30.00;15.90;-19.00;-18.10;-19.91;10.90;4.50
08:06:25;-18.10;-30.00;-29.97;15.90;-19.00;-18.10;-19.91;10.90;4.40
08:06:27;-18.10;-30.00;-29.99;15.90;-18.90;-18.10;-19.92;10.90;4.50
08:06:29;-18.10;-30.00;-30.00;15.90;-19.00;-18.10;-19.92;10.80;4.50
08:06:31;-18.10;-30.00;-30.00;15.90;-19.00;-18.10;-19.92;10.90;4.40
08:06:33;-18.10;-30.00;-30.02;15.90;-19.00;-18.10;-19.91;10.90;4.40
08:06:35;-18.10;-30.00;-30.03;15.90;-19.00;-18.10;-19.92;10.90;4.40
08:06:37;-18.10;-30.00;-30.02;15.90;-18.90;-18.10;-19.92;10.90;4.50
08:06:39;-18.10;-30.00;-30.01;15.90;-18.90;-18.10;-19.94;10.90;4.50
08:06:41;-18.10;-30.00;-30.00;15.90;-19.00;-18.10;-19.94;10.90;4.50
08:06:43;-18.10;-30.00;-29.98;15.90;-19.00;-18.10;-19.94;10.90;4.50
08:06:45;-18.10;-30.00;-29.99;15.90;-19.00;-18.10;-19.95;10.90;4.50
08:06:47;-18.10;-30.00;-30.00;15.80;-18.90;-18.10;-19.95;10.90;4.50
08:06:51;-18.10;-30.00;-30.00;15.80;-18.90;-18.10;-19.92;10.80;4.50
08:06:53;-18.10;-30.00;-29.99;15.80;-19.00;-18.10;-19.94;10.90;4.40
08:06:55;-18.10;-30.00;-30.00;15.90;-19.00;-18.10;-19.95;10.90;4.40
08:06:57;-18.10;-30.00;-29.99;15.90;-19.00;-18.10;-19.95;10.90;4.50
08:06:59;-18.10;-30.00;-29.99;15.80;-19.00;-18.10;-19.96;10.90;4.40
08:07:01;-18.10;-30.00;-30.00;15.80;-19.00;-18.20;-19.95;10.90;4.40
08:07:03;-18.10;-30.00;-30.00;15.80;-19.00;-18.10;-19.94;10.90;4.40
08:07:05;-18.10;-30.00;-30.00;15.80;-19.00;-18.10;-19.95;10.90;4.40
08:07:07;-18.10;-30.00;-30.01;15.80;-19.00;-18.10;-19.95;10.90;4.50
08:07:09;-18.10;-30.00;-30.01;15.80;-18.90;-18.10;-19.95;10.90;4.50
08:07:11;-18.10;-30.00;-30.02;15.80;-19.00;-18.10;-19.94;10.90;4.50
08:07:13;-18.10;-30.00;-30.04;15.80;-19.00;-18.10;-19.93;10.90;4.50
08:07:15;-18.10;-30.00;-30.03;15.80;-19.00;-18.10;-19.94;10.90;4.40
08:07:17;-18.10;-30.00;-30.02;15.80;-19.00;-18.10;-19.94;10.90;4.50
08:07:19;-18.10;-30.00;-30.01;15.80;-19.00;-18.10;-19.95;10.90;4.50
08:07:21;-18.10;-30.00;-30.01;15.80;-19.00;-18.10;-19.94;10.90;4.40
08:07:23;-18.10;-30.00;-30.00;15.80;-19.00;-18.10;-19.94;10.90;4.50
08:07:25;-18.10;-30.00;-30.01;15.80;-19.00;-18.10;-19.94;10.90;4.50
08:07:27;-18.10;-30.00;-30.00;15.80;-18.90;-18.10;-19.95;11.00;4.50
08:07:29;-18.10;-30.00;-30.00;15.80;-19.00;-18.10;-19.95;11.00;4.50
08:07:31;-18.10;-30.00;-30.01;15.80;-19.00;-18.10;-19.94;11.00;4.40
08:07:33;-18.10;-30.00;-30.00;15.80;-19.00;-18.20;-19.95;11.00;4.50
08:07:35;-18.10;-30.00;-30.00;15.80;-19.00;-18.10;-19.95;11.00;4.50
08:07:37;-18.10;-30.00;-29.99;15.80;-19.00;-18.20;-19.96;11.00;4.50
08:07:39;-18.10;-30.00;-29.99;15.80;-19.00;-18.10;-19.97;11.00;4.50
08:07:41;-18.10;-30.00;-29.98;15.80;-19.00;-18.10;-19.96;11.00;4.50
08:07:43;-18.10;-30.00;-29.98;15.80;-19.00;-18.20;-19.96;11.00;4.50
08:07:45;-18.10;-30.00;-30.00;15.80;-19.00;-18.20;-19.96;10.90;4.50
08:07:47;-18.10;-30.00;-30.00;15.80;-19.00;-18.10;-19.97;11.00;4.50
08:07:49;-18.10;-30.00;-30.01;15.80;-19.00;-18.10;-19.97;11.00;4.50
08:07:51;-18.10;-30.00;-30.00;15.80;-19.00;-18.10;-19.96;11.00;4.50
08:07:53;-18.10;-30.00;-30.00;15.80;-19.00;-18.10;-19.96;11.00;4.40
08:07:55;-18.10;-30.00;-29.99;15.80;-19.00;-18.10;-19.96;11.00;4.40
08:07:57;-18.10;-30.00;-29.99;15.80;-19.00;-18.10;-19.97;11.00;4.40
08:07:59;-18.10;-30.00;-30.00;15.80;-19.00;-18.10;-19.97;11.00;4.50
08:08:01;-18.10;-30.00;-30.00;15.80;-19.00;-18.10;-19.97;11.00;4.50
08:08:03;-18.10;-30.00;-29.99;15.80;-19.00;-18.20;-19.97;11.00;4.50
08:08:05;-18.10;-30.00;-29.99;15.80;-19.00;-18.10;-19.96;11.00;4.50
08:08:07;-18.10;-30.00;-30.00;15.80;-19.00;-18.10;-19.97;11.00;4.50
08:08:09;-18.10;-30.00;-30.01;15.80;-19.00;-18.20;-19.96;11.00;4.50
08:08:11;-18.10;-30.00;-30.00;15.80;-19.00;-18.10;-19.96;11.00;4.50
08:08:13;-18.10;-30.00;-30.00;15.80;-19.00;-18.10;-19.95;11.00;4.50
08:08:15;-18.10;-30.00;-29.99;15.80;-19.00;-18.10;-19.96;11.00;4.50
08:08:17;-18.10;-30.00;-30.01;15.80;-19.00;-18.10;-19.96;11.00;4.50
08:08:19;-18.10;-30.00;-30.02;15.80;-19.00;-18.10;-19.96;11.10;4.50
08:08:21;-18.10;-30.00;-30.02;15.80;-19.00;-18.10;-19.97;11.10;4.50
08:08:23;-18.10;-30.00;-30.00;15.80;-19.00;-18.10;-19.96;11.00;4.50
08:08:25;-18.10;-30.00;-29.99;15.80;-19.00;-18.10;-19.96;11.10;4.50
08:08:27;-18.10;-30.00;-30.00;15.80;-19.00;-18.10;-19.97;11.00;4.50
08:08:29;-18.10;-30.00;-30.01;15.80;-19.00;-18.20;-19.98;11.00;4.50
08:08:31;-18.10;-30.00;-30.00;15.80;-19.00;-18.20;-19.97;11.00;4.50
08:08:33;-18.10;-30.00;-30.00;15.80;-19.00;-18.10;-19.96;11.00;4.50
08:08:35;-18.10;-30.00;-29.98;15.80;-19.00;-18.20;-19.97;11.00;4.50
08:08:40;-18.10;-30.00;-29.99;15.80;-19.00;-18.10;-19.95;11.10;4.50
08:08:41;-18.10;-30.00;-29.99;15.80;-19.00;-18.20;-19.96;11.10;4.50
08:08:43;-18.10;-30.00;-29.99;15.80;-19.00;-18.20;-19.95;11.10;4.50
08:08:45;-18.10;-30.00;-29.99;15.80;-19.00;-18.10;-19.95;11.10;4.50
08:08:47;-18.10;-30.00;-30.01;15.80;-19.00;-18.10;-19.94;11.10;4.50
08:08:49;-18.10;-30.00;-30.00;15.80;-19.00;-18.10;-19.93;11.10;4.50
08:08:51;-18.10;-30.00;-30.00;15.80;-19.00;-18.10;-19.93;11.10;4.40
08:08:53;-18.10;-30.00;-30.00;15.80;-19.00;-18.10;-19.94;11.10;4.50
08:08:55;-18.10;-30.00;-30.01;15.80;-19.00;-18.10;-19.93;11.10;4.50
08:08:57;-18.10;-30.00;-30.00;15.80;-19.00;-18.10;-19.94;11.10;4.50
08:08:59;-18.10;-30.00;-29.96;15.80;-19.00;-18.10;-19.93;11.10;4.50
08:09:01;-18.10;-30.00;-29.98;15.80;-19.00;-18.10;-19.91;11.10;4.50
08:09:03;-18.10;-30.00;-30.00;15.80;-19.00;-18.10;-19.92;11.10;4.50
08:09:05;-18.10;-30.00;-30.00;15.80;-19.00;-18.10;-19.92;11.10;4.60
08:09:07;-18.10;-30.00;-29.99;15.80;-19.00;-18.10;-19.92;11.10;4.50
08:09:09;-18.10;-30.00;-29.97;15.80;-19.00;-18.10;-19.92;11.10;4.50
08:09:11;-18.10;-30.00;-29.98;15.80;-19.00;-18.10;-19.92;11.10;4.50
08:09:13;-18.10;-30.00;-30.00;15.80;-19.00;-18.10;-19.92;11.10;4.50
08:09:15;-18.10;-30.00;-30.01;15.70;-19.00;-18.10;-19.92;11.10;4.50
08:09:17;-18.10;-30.00;-30.01;15.70;-19.00;-18.10;-19.94;11.10;4.50
08:09:19;-18.10;-30.00;-30.00;15.70;-19.00;-18.10;-19.94;11.10;4.40
08:09:21;-18.10;-30.00;-29.99;15.70;-19.00;-18.10;-19.94;11.10;4.50
08:09:23;-18.10;-30.00;-29.99;15.70;-19.00;-18.10;-19.95;11.10;4.50
08:09:25;-18.10;-30.00;-30.02;15.70;-19.00;-18.10;-19.95;11.10;4.40
08:09:27;-18.10;-30.00;-30.02;15.70;-19.00;-18.10;-19.94;11.20;4.50
08:09:29;-18.10;-30.00;-30.02;15.70;-19.00;-18.10;-19.93;11.20;4.50
08:09:31;-18.10;-30.00;-30.02;15.70;-19.00;-18.10;-19.94;11.20;4.50
08:09:33;-18.10;-30.00;-30.02;15.70;-19.00;-18.10;-19.94;11.20;4.50
08:09:35;-18.10;-30.00;-29.98;15.70;-19.00;-18.10;-19.93;11.20;4.50
08:09:37;-18.10;-30.00;-29.99;15.70;-19.00;-18.10;-19.92;11.20;4.50
08:09:39;-18.10;-30.00;-30.01;15.70;-19.00;-18.10;-19.93;11.20;4.50
08:09:41;-18.10;-30.00;-30.02;15.70;-19.00;-18.10;-19.93;11.20;4.50
08:09:43;-18.10;-30.00;-30.02;15.70;-19.00;-18.10;-19.93;11.20;4.50
08:09:45;-18.10;-30.00;-29.99;15.70;-19.00;-18.10;-19.93;11.20;4.50
08:09:47;-18.10;-30.00;-29.99;15.60;-19.00;-18.10;-19.93;11.20;4.50
08:09:49;-18.10;-30.00;-29.99;15.60;-19.00;-18.10;-19.92;11.20;4.50
08:09:51;-18.10;-30.00;-30.00;15.60;-18.90;-18.10;-19.94;11.20;4.50
08:09:53;-18.10;-30.00;-30.00;15.70;-19.00;-18.10;-19.94;11.20;4.50
08:09:55;-18.10;-30.00;-29.96;15.70;-19.00;-18.10;-19.93;11.20;4.50
08:09:57;-18.10;-30.00;-29.99;15.60;-19.00;-18.10;-19.92;11.20;4.50
08:09:59;-18.10;-30.00;-30.01;15.70;-19.00;-18.10;-19.93;11.20;4.50
08:10:01;-18.10;-30.00;-29.99;15.60;-19.00;-18.10;-19.93;11.20;4.50
08:10:03;-18.10;-30.00;-30.00;15.60;-19.00;-18.10;-19.94;11.20;4.50
08:10:05;-18.10;-30.00;-30.00;15.60;-19.00;-18.10;-19.94;11.20;4.50
08:10:07;-18.10;-30.00;-30.01;15.60;-19.00;-18.10;-19.94;11.20;4.50
08:10:09;-18.10;-30.00;-30.02;15.60;-19.00;-18.10;-19.93;11.20;4.50
08:10:11;-18.10;-30.00;-30.02;15.60;-19.00;-18.10;-19.93;11.30;4.50
08:10:13;-18.10;-30.00;-30.01;15.60;-18.90;-18.10;-19.94;11.30;4.50
08:10:15;-18.10;-30.00;-30.01;15.70;-18.90;-18.10;-19.93;11.20;4.50
08:10:17;-18.10;-30.00;-30.00;15.60;-19.00;-18.10;-19.93;11.30;4.50
08:10:19;-18.10;-30.00;-30.01;15.60;-19.00;-18.10;-19.93;11.30;4.50
08:10:21;-18.10;-30.00;-30.02;15.60;-19.00;-18.10;-19.94;11.30;4.50
08:10:23;-18.10;-30.00;-30.02;15.60;-19.00;-18.10;-19.94;11.30;4.50
08:10:28;-18.10;-30.00;-30.01;15.60;-19.00;-18.20;-19.94;11.30;4.50
08:10:29;-18.10;-30.00;-30.01;15.60;-19.00;-18.10;-19.95;11.30;4.50
08:10:31;-18.10;-30.00;-30.00;15.60;-19.00;-18.10;-19.94;11.30;4.50
08:10:33;-18.10;-30.00;-29.97;15.60;-19.00;-18.10;-19.94;11.30;4.50
08:10:35;-18.10;-30.00;-29.98;15.60;-19.00;-18.10;-19.94;11.30;4.50
08:10:37;-18.10;-30.00;-29.97;15.60;-19.00;-18.10;-19.93;11.30;4.60
08:10:39;-18.10;-30.00;-29.98;15.60;-19.00;-18.10;-19.92;11.30;4.50
08:10:41;-18.10;-30.00;-29.96;15.60;-19.00;-18.10;-19.93;11.30;4.40
08:10:43;-18.10;-30.00;-29.97;15.60;-19.00;-18.10;-19.92;11.30;4.50
08:10:45;-18.10;-30.00;-29.99;15.60;-19.00;-18.10;-19.92;11.30;4.50
08:10:47;-18.10;-30.00;-30.00;15.60;-19.00;-18.10;-19.92;11.30;4.60
08:10:49;-18.10;-30.00;-30.00;15.60;-19.00;-18.10;-19.91;11.30;4.50
08:10:51;-18.10;-30.00;-30.00;15.60;-19.00;-18.10;-19.91;11.30;4.50
08:10:53;-18.10;-30.00;-30.00;15.60;-19.00;-18.10;-19.92;11.30;4.50
08:10:55;-18.10;-30.00;-30.00;15.60;-19.00;-18.10;-19.93;11.30;4.50
08:10:57;-18.10;-30.00;-30.00;15.60;-19.00;-18.20;-19.92;11.30;4.50
08:10:59;-18.10;-30.00;-30.01;15.60;-19.00;-18.10;-19.92;11.30;4.50
08:11:01;-18.10;-30.00;-30.02;15.60;-19.00;-18.20;-19.92;11.30;4.50
08:11:03;-18.10;-30.00;-29.97;15.60;-19.00;-18.20;-19.92;11.30;4.50
08:11:05;-18.10;-30.00;-29.96;15.60;-19.00;-18.20;-19.92;11.30;4.50
08:11:07;-18.10;-30.00;-29.97;15.60;-19.00;-18.10;-19.93;11.30;4.50
08:11:09;-18.10;-30.00;-29.97;15.60;-19.00;-18.10;-19.92;11.30;4.50
08:11:11;-18.10;-30.00;-29.99;15.60;-19.00;-18.10;-19.92;11.40;4.50
08:11:13;-18.10;-30.00;-30.01;15.60;-19.00;-18.10;-19.92;11.40;4.50
08:11:15;-18.10;-30.00;-30.02;15.60;-19.00;-18.10;-19.92;11.40;4.50
08:11:17;-18.10;-30.00;-30.01;15.60;-19.00;-18.10;-19.92;11.40;4.50
08:11:19;-18.10;-30.00;-30.00;15.60;-19.00;-18.10;-19.92;11.50;4.50
08:11:21;-18.10;-30.00;-30.01;15.60;-19.00;-18.10;-19.93;11.50;4.50
08:11:23;-18.10;-30.00;-30.02;15.60;-19.00;-18.10;-19.92;11.50;4.50
08:11:25;-18.10;-30.00;-30.01;15.60;-19.00;-18.10;-19.92;11.40;4.50
08:11:27;-18.10;-30.00;-30.00;15.60;-18.90;-18.10;-19.91;11.40;4.50
08:11:29;-18.10;-30.00;-29.98;15.60;-19.00;-18.10;-19.91;11.40;4.50
08:11:31;-18.10;-30.00;-29.98;15.60;-19.00;-18.10;-19.90;11.40;4.50
08:11:33;-18.10;-30.00;-30.00;15.60;-19.00;-18.10;-19.91;11.40;4.50
08:11:35;-18.10;-30.00;-30.00;15.60;-19.00;-18.10;-19.92;11.40;4.50
08:11:37;-18.10;-30.00;-30.00;15.60;-19.00;-18.10;-19.92;11.50;4.50
08:11:39;-18.10;-30.00;-30.00;15.60;-19.00;-18.10;-19.92;11.50;4.50
08:11:41;-18.10;-30.00;-30.01;15.60;-18.90;-18.10;-19.92;11.50;4.50
08:11:43;-18.10;-30.00;-30.02;15.60;-19.00;-18.10;-19.92;11.40;4.50
08:11:45;-18.10;-30.00;-30.00;15.60;-18.90;-18.10;-19.93;11.40;4.50
08:11:47;-18.10;-30.00;-29.96;15.60;-19.00;-18.10;-19.92;11.40;4.50
08:11:49;-18.10;-30.00;-29.97;15.60;-19.00;-18.10;-19.91;11.40;4.50
08:11:51;-18.10;-30.00;-29.98;15.60;-19.00;-18.10;-19.91;11.40;4.50
08:11:53;-18.10;-30.00;-29.99;15.60;-19.00;-18.10;-19.91;11.40;4.50
08:11:56;-18.10;-30.00;-30.01;15.60;-19.00;-18.20;-19.92;11.50;4.40
08:11:58;-18.10;-30.00;-30.02;15.60;-18.90;-18.10;-19.91;11.50;4.50
08:11:59;-18.10;-30.00;-30.00;15.60;-19.00;-18.10;-19.91;11.50;4.60
08:12:01;-18.10;-30.00;-29.97;15.60;-19.00;-18.10;-19.91;11.50;4.60
08:12:03;-18.10;-30.00;-29.98;15.60;-18.90;-18.10;-19.91;11.50;4.50
08:12:05;-18.10;-30.00;-30.00;15.60;-19.00;-18.10;-19.92;11.50;4.50
08:12:08;-18.10;-30.00;-29.99;15.60;-19.00;-18.10;-19.92;11.50;4.50
08:12:09;-18.10;-30.00;-29.99;15.60;-19.00;-18.10;-19.93;11.50;4.50
08:12:11;-18.10;-30.00;-30.01;15.60;-19.00;-18.10;-19.92;11.50;4.50
08:12:13;-18.10;-30.00;-29.99;15.50;-19.00;-18.10;-19.93;11.50;4.50
08:12:17;-18.10;-30.00;-30.00;15.60;-19.00;-18.10;-19.94;11.50;4.50
08:12:19;-18.10;-30.00;-30.00;15.50;-19.00;-18.10;-19.94;11.50;4.50
08:12:21;-18.10;-30.00;-30.01;15.50;-19.00;-18.10;-19.95;11.50;4.60
08:12:24;-18.10;-30.00;-30.03;15.50;-19.00;-18.20;-19.95;11.50;4.50
08:12:26;-18.10;-30.00;-30.03;15.50;-19.00;-18.10;-19.95;11.50;4.50
08:12:28;-18.10;-30.00;-30.01;15.50;-19.00;-18.10;-19.94;11.50;4.50
08:12:30;-18.10;-30.00;-30.00;15.50;-19.00;-18.10;-19.94;11.60;4.50
08:12:32;-18.10;-30.00;-30.00;15.50;-19.00;-18.10;-19.93;11.60;4.50
08:12:34;-18.10;-30.00;-29.99;15.50;-19.00;-18.10;-19.93;11.60;4.50
08:12:36;-18.10;-30.00;-29.96;15.50;-19.00;-18.10;-19.92;11.60;4.50
08:12:38;-18.10;-30.00;-29.96;15.50;-19.00;-18.10;-19.93;11.70;4.50
08:12:40;-18.10;-30.00;-29.98;15.50;-18.90;-18.10;-19.94;11.70;4.50
08:12:42;-18.10;-30.00;-29.98;15.50;-18.90;-18.10;-19.94;11.70;4.50
08:12:44;-18.10;-30.00;-29.99;15.50;-18.90;-18.10;-19.95;11.70;4.50
08:12:46;-18.10;-30.00;-29.99;15.50;-19.00;-18.10;-19.94;11.70;4.50
08:12:48;-18.10;-30.00;-29.97;15.50;-18.90;-18.10;-19.95;11.70;4.60
08:12:50;-18.10;-30.00;-29.96;15.50;-18.90;-18.10;-19.95;11.70;4.50
08:12:52;-18.10;-30.00;-29.98;15.50;-18.90;-18.10;-19.93;11.70;4.50
08:12:54;-18.10;-30.00;-29.98;15.50;-18.90;-18.10;-19.93;11.70;4.50
08:12:56;-18.10;-30.00;-30.00;15.50;-18.90;-18.10;-19.93;11.70;4.50
08:12:58;-18.10;-30.00;-30.00;15.50;-19.00;-18.10;-19.93;11.70;4.50
08:13:00;-18.10;-30.00;-29.99;15.50;-18.90;-18.10;-19.92;11.70;4.50
08:13:02;-18.10;-30.00;-29.96;15.50;-19.00;-18.10;-19.92;11.70;4.50
08:13:04;-18.10;-30.00;-29.99;15.50;-19.00;-18.10;-19.92;11.70;4.50
08:13:06;-18.10;-30.00;-30.02;15.50;-18.90;-18.10;-19.92;11.70;4.50
08:13:08;-18.10;-30.00;-30.03;15.50;-18.90;-18.10;-19.93;11.70;4.50
08:13:10;-18.10;-30.00;-30.01;15.50;-19.00;-18.10;-19.92;11.70;4.50
08:13:12;-18.10;-30.00;-30.00;15.50;-19.00;-18.10;-19.93;11.70;4.50
08:13:14;-18.10;-30.00;-30.00;15.50;-19.00;-18.10;-19.93;11.80;4.50
08:13:16;-18.10;-30.00;-30.00;15.50;-19.00;-18.10;-19.93;11.80;4.60
08:13:18;-18.10;-30.00;-29.99;15.50;-19.00;-18.10;-19.93;11.80;4.50
08:13:20;-18.10;-30.00;-30.00;15.50;-19.00;-18.10;-19.93;11.80;4.50
08:13:22;-18.10;-30.00;-29.99;15.50;-19.00;-18.10;-19.93;11.80;4.60
08:13:24;-18.10;-30.00;-30.00;15.50;-19.00;-18.10;-19.93;11.80;4.50
08:13:26;-18.10;-30.00;-29.99;15.50;-19.00;-18.10;-19.92;11.80;4.50
08:13:28;-18.10;-30.00;-30.00;15.50;-18.90;-18.10;-19.92;11.80;4.50
08:13:30;-18.10;-30.00;-30.01;15.50;-19.00;-18.10;-19.92;11.80;4.50
08:13:32;-18.10;-30.00;-29.98;15.50;-19.00;-18.10;-19.92;11.80;4.50
08:13:34;-18.10;-30.00;-29.99;15.50;-19.00;-18.10;-19.92;11.80;4.50
08:13:36;-18.10;-30.00;-29.99;15.50;-18.90;-18.10;-19.93;11.80;4.50
08:13:38;-18.10;-30.00;-29.99;15.50;-19.00;-18.10;-19.92;11.80;4.50
08:13:40;-18.10;-30.00;-30.00;15.50;-19.00;-18.10;-19.92;11.80;4.50
08:13:42;-18.10;-30.00;-30.00;15.50;-18.90;-18.10;-19.92;11.80;4.50
08:13:44;-18.10;-30.00;-30.01;15.50;-19.00;-18.10;-19.92;11.80;4.50
08:13:46;-18.10;-30.00;-30.01;15.50;-18.90;-18.10;-19.92;11.80;4.50
08:13:48;-18.10;-30.00;-29.99;15.50;-19.00;-18.10;-19.92;11.80;4.60
08:13:50;-18.10;-30.00;-30.01;15.50;-19.00;-18.10;-19.93;11.80;4.50
08:13:52;-18.10;-30.00;-30.02;15.50;-19.00;-18.10;-19.93;11.80;4.60
08:13:54;-18.10;-30.00;-30.02;15.50;-18.90;-18.10;-19.93;11.80;4.60
08:13:56;-18.10;-30.00;-30.03;15.50;-19.00;-18.20;-19.94;11.80;4.50
08:13:58;-18.10;-30.00;-30.01;15.40;-19.00;-18.20;-19.93;11.80;4.50
08:14:00;-18.10;-30.00;-29.98;15.50;-19.00;-18.10;-19.93;11.80;4.60
08:14:02;-18.10;-30.00;-29.96;15.50;-19.00;-18.10;-19.93;11.80;4.60
08:14:06;-18.10;-30.00;-29.96;15.40;-19.00;-18.10;-19.94;11.90;4.50
08:14:08;-18.10;-30.00;-29.98;15.40;-19.00;-18.10;-19.94;11.90;4.50
08:14:10;-18.10;-30.00;-30.00;15.50;-19.00;-18.10;-19.92;11.90;4.50
08:14:12;-18.10;-30.00;-30.00;15.50;-19.00;-18.10;-19.92;12.00;4.60
08:14:14;-18.10;-30.00;-30.00;15.40;-19.00;-18.10;-19.93;11.90;4.60
08:14:16;-18.10;-30.00;-29.99;15.50;-19.00;-18.10;-19.93;11.90;4.50
08:14:18;-18.10;-30.00;-29.96;15.50;-19.00;-18.10;-19.93;11.90;4.50
08:14:20;-18.10;-30.00;-29.97;15.40;-19.00;-18.10;-19.94;11.90;4.60
08:14:22;-18.10;-30.00;-30.02;15.40;-19.00;-18.10;-19.94;11.90;4.50
08:14:24;-18.10;-30.00;-30.02;15.40;-19.00;-18.10;-19.93;12.00;4.50
08:14:26;-18.10;-30.00;-30.01;15.40;-19.00;-18.10;-19.94;12.00;4.50
08:14:28;-18.10;-30.00;-30.01;15.50;-19.00;-18.10;-19.93;12.00;4.50
08:14:30;-18.10;-30.00;-29.99;15.50;-19.00;-18.10;-19.94;12.00;4.50
08:14:32;-18.10;-30.00;-30.00;15.40;-19.00;-18.10;-19.94;12.00;4.50
08:14:34;-18.10;-30.00;-30.02;15.40;-19.00;-18.10;-19.94;12.10;4.50
08:14:36;-18.10;-30.00;-30.01;15.40;-18.90;-18.10;-19.94;12.10;4.50
08:14:38;-18.10;-30.00;-29.99;15.40;-19.00;-18.10;-19.94;12.10;4.50
08:14:40;-18.10;-30.00;-29.99;15.40;-19.00;-18.10;-19.94;12.10;4.50
08:14:42;-18.10;-30.00;-29.99;15.40;-19.00;-18.10;-19.94;12.10;4.50
08:14:44;-18.10;-30.00;-29.98;15.40;-18.90;-18.10;-19.94;12.10;4.50
08:14:46;-18.10;-30.00;-29.99;15.40;-19.00;-18.10;-19.94;12.10;4.60
08:14:48;-18.10;-30.00;-29.99;15.40;-19.00;-18.10;-19.96;12.10;4.60
08:14:50;-18.10;-30.00;-30.00;15.40;-19.00;-18.10;-19.96;12.10;4.50
08:14:52;-18.10;-30.00;-29.97;15.40;-19.00;-18.10;-19.95;12.10;4.50
08:14:54;-18.10;-30.00;-29.99;15.40;-19.00;-18.10;-19.96;12.10;4.50
08:14:56;-18.10;-30.00;-29.98;15.40;-19.00;-18.10;-19.96;12.10;4.50
08:14:58;-18.10;-30.00;-29.99;15.40;-19.00;-18.20;-19.96;12.10;4.50
08:15:00;-18.10;-30.00;-30.00;15.40;-19.00;-18.20;-19.96;12.10;4.50
08:15:02;-18.10;-30.00;-30.00;15.40;-19.00;-18.10;-19.96;12.10;4.50
08:15:04;-18.10;-30.00;-30.01;15.40;-19.00;-18.10;-19.97;12.10;4.50
08:15:06;-18.10;-30.00;-30.00;15.40;-19.00;-18.10;-19.96;12.00;4.50
08:15:08;-18.10;-30.00;-29.98;15.40;-19.00;-18.10;-19.95;12.10;4.50
08:15:10;-18.10;-30.00;-29.98;15.40;-19.00;-18.10;-19.93;12.00;4.60
08:15:12;-18.10;-30.00;-29.99;15.40;-19.00;-18.10;-19.92;12.00;4.50
08:15:14;-18.10;-30.00;-30.01;15.40;-19.00;-18.10;-19.93;12.00;4.40
08:15:16;-18.10;-30.00;-30.03;15.40;-19.00;-18.10;-19.95;12.10;4.50
08:15:18;-18.10;-30.00;-30.04;15.40;-19.00;-18.10;-19.95;12.10;4.50
08:15:20;-18.10;-30.00;-30.04;15.40;-19.00;-18.10;-19.94;12.10;4.50
08:15:22;-18.10;-30.00;-30.04;15.40;-19.00;-18.10;-19.94;12.20;4.50
08:15:24;-18.10;-30.00;-30.03;15.40;-19.00;-18.10;-19.93;12.20;4.60
08:15:26;-18.10;-30.00;-30.03;15.40;-19.00;-18.10;-19.93;12.20;4.50
08:15:28;-18.10;-30.00;-30.02;15.40;-19.00;-18.10;-19.93;12.20;4.50
08:15:30;-18.10;-30.00;-30.02;15.40;-19.00;-18.10;-19.92;12.20;4.50
08:15:32;-18.10;-30.00;-30.00;15.40;-19.00;-18.10;-19.93;12.20;4.50
08:15:34;-18.10;-30.00;-30.00;15.40;-19.00;-18.10;-19.93;12.20;4.50
08:15:36;-18.10;-30.00;-29.99;15.40;-19.00;-18.10;-19.93;12.30;4.50
08:15:38;-18.10;-30.00;-29.98;15.40;-19.00;-18.10;-19.92;12.20;4.50
08:15:40;-18.10;-30.00;-29.99;15.40;-18.90;-18.10;-19.93;12.20;4.50
08:15:42;-18.10;-30.00;-29.99;15.40;-19.00;-18.20;-19.92;12.30;4.50
08:15:44;-18.10;-30.00;-29.99;15.40;-19.00;-18.10;-19.94;12.30;4.50
08:15:46;-18.10;-30.00;-30.01;15.40;-19.00;-18.10;-19.94;12.40;4.60
08:15:48;-18.10;-30.00;-30.02;15.40;-19.00;-18.10;-19.95;12.30;4.50
08:15:50;-18.10;-30.00;-29.99;15.40;-19.00;-18.10;-19.95;12.30;4.50
08:15:54;-18.10;-30.00;-29.97;15.40;-19.00;-18.10;-19.95;12.30;4.60
08:15:56;-18.10;-30.00;-30.01;15.40;-19.00;-18.10;-19.95;12.30;4.50
08:15:58;-18.10;-30.00;-30.02;15.30;-19.00;-18.10;-19.95;12.30;4.50
08:16:00;-18.10;-30.00;-30.01;15.40;-19.00;-18.10;-19.94;12.20;4.60
08:16:02;-18.10;-30.00;-30.00;15.40;-19.00;-18.10;-19.93;12.20;4.60
08:16:04;-18.10;-30.00;-29.99;15.30;-19.00;-18.10;-19.92;12.20;4.60
08:16:06;-18.10;-30.00;-29.99;15.40;-19.00;-18.10;-19.92;12.20;4.50
08:16:08;-18.10;-30.00;-30.00;15.40;-19.00;-18.10;-19.93;12.30;4.50
08:16:10;-18.10;-30.00;-29.99;15.40;-19.00;-18.10;-19.94;12.30;4.50
08:16:12;-18.10;-30.00;-29.99;15.30;-19.00;-18.10;-19.94;12.30;4.50
08:16:14;-18.10;-30.00;-29.98;15.40;-19.00;-18.10;-19.95;12.30;4.50
08:16:16;-18.10;-30.00;-29.99;15.30;-19.00;-18.10;-19.96;12.30;4.50
08:16:18;-18.10;-30.00;-30.01;15.40;-19.00;-18.10;-19.95;12.30;4.50
08:16:20;-18.10;-30.00;-30.03;15.30;-19.00;-18.10;-19.95;12.30;4.50
08:16:22;-18.10;-30.00;-30.02;15.30;-18.90;-18.10;-19.95;12.30;4.60
08:16:24;-18.10;-30.00;-30.00;15.30;-19.00;-18.10;-19.95;12.30;4.50
08:16:26;-18.10;-30.00;-30.01;15.30;-19.00;-18.10;-19.95;12.30;4.50
08:16:28;-18.10;-30.00;-30.03;15.30;-19.00;-18.10;-19.94;12.40;4.60
08:16:30;-18.10;-30.00;-30.03;15.30;-19.00;-18.10;-19.93;12.40;4.60
08:16:32;-18.10;-30.00;-30.02;15.30;-19.00;-18.10;-19.93;12.40;4.60
08:16:34;-18.10;-30.00;-30.00;15.30;-19.00;-18.10;-19.92;12.40;4.50
08:16:36;-18.10;-30.00;-29.99;15.30;-19.00;-18.10;-19.93;12.40;4.50
08:16:38;-18.10;-30.00;-29.99;15.30;-19.00;-18.10;-19.93;12.40;4.50
08:16:40;-18.10;-30.00;-29.99;15.30;-19.00;-18.10;-19.94;12.50;4.50
08:16:42;-18.10;-30.00;-29.99;15.30;-19.00;-18.10;-19.95;12.50;4.50
08:16:44;-18.10;-30.00;-29.98;15.30;-19.00;-18.10;-19.96;12.50;4.50
08:16:46;-18.10;-30.00;-29.99;15.30;-19.00;-18.10;-19.96;12.50;4.50
08:16:48;-18.10;-30.00;-30.02;15.30;-19.00;-18.10;-19.96;12.60;4.60
08:16:50;-18.10;-30.00;-30.02;15.30;-19.00;-18.10;-19.95;12.60;4.50
08:16:52;-18.10;-30.00;-30.00;15.30;-19.00;-18.10;-19.95;12.60;4.50
08:16:54;-18.10;-30.00;-30.00;15.30;-19.00;-18.10;-19.96;12.60;4.60
08:16:56;-18.10;-30.00;-30.00;15.30;-19.00;-18.10;-19.96;12.60;4.50
08:16:58;-18.10;-30.00;-29.98;15.30;-19.00;-18.10;-19.97;12.50;4.50
08:17:00;-18.10;-30.00;-29.99;15.30;-19.00;-18.10;-19.96;12.50;4.50
08:17:02;-18.10;-30.00;-29.99;15.30;-19.00;-18.10;-19.95;12.50;4.50
08:17:04;-18.10;-30.00;-30.00;15.30;-18.90;-18.10;-19.94;12.60;4.50
08:17:06;-18.10;-30.00;-30.00;15.30;-19.00;-18.10;-19.93;12.60;4.50
08:17:08;-18.10;-30.00;-29.99;15.30;-18.90;-18.10;-19.92;12.60;4.50
08:17:10;-18.10;-30.00;-29.98;15.30;-19.00;-18.10;-19.93;12.60;4.60
08:17:12;-18.10;-30.00;-29.97;15.30;-19.00;-18.10;-19.92;12.60;4.50
08:17:14;-18.10;-30.00;-30.00;15.30;-19.00;-18.10;-19.92;12.60;4.60
08:17:16;-18.10;-30.00;-30.02;15.30;-19.00;-18.10;-19.93;12.60;4.50
08:17:18;-18.10;-30.00;-30.03;15.30;-19.00;-18.10;-19.94;12.60;4.50
08:17:20;-18.10;-30.00;-30.03;15.30;-19.00;-18.10;-19.94;12.60;4.60
08:17:22;-18.10;-30.00;-30.02;15.30;-19.00;-18.10;-19.94;12.60;4.60
08:17:24;-18.10;-30.00;-30.01;15.30;-19.00;-18.10;-19.95;12.70;4.50
08:17:26;-18.10;-30.00;-29.99;15.30;-19.00;-18.10;-19.95;12.70;4.60
08:17:28;-18.10;-30.00;-29.98;15.30;-19.00;-18.10;-19.95;12.70;4.60
08:17:30;-18.10;-30.00;-30.00;15.30;-19.00;-18.10;-19.94;12.70;4.50
08:17:32;-18.10;-30.00;-30.01;15.30;-19.00;-18.10;-19.93;12.70;4.60
08:17:34;-18.10;-30.00;-30.01;15.30;-19.00;-18.10;-19.94;12.70;4.60
08:17:36;-18.10;-30.00;-30.01;15.30;-19.00;-18.10;-19.93;12.70;4.60
08:17:38;-18.10;-30.00;-30.00;15.30;-19.00;-18.10;-19.94;12.70;4.50
08:17:42;-18.10;-30.00;-30.01;15.30;-19.00;-18.10;-19.92;12.70;4.60
08:17:44;-18.10;-30.00;-30.02;15.30;-19.00;-18.10;-19.92;12.70;4.50
08:17:46;-18.10;-30.00;-30.02;15.30;-19.00;-18.10;-19.90;12.70;4.50
08:17:48;-18.10;-30.00;-30.00;15.30;-19.00;-18.10;-19.90;12.70;4.60
08:17:50;-18.10;-30.00;-30.00;15.30;-19.00;-18.10;-19.90;12.70;4.60
08:17:52;-18.10;-30.00;-29.99;15.30;-19.00;-18.10;-19.90;12.80;4.60
08:17:54;-18.10;-30.00;-30.00;15.30;-19.00;-18.10;-19.91;12.80;4.50
08:17:56;-18.10;-30.00;-30.00;15.30;-19.00;-18.10;-19.92;12.80;4.50
08:17:58;-18.10;-30.00;-29.99;15.30;-19.00;-18.10;-19.91;12.80;4.50
08:18:00;-18.10;-30.00;-30.00;15.30;-18.90;-18.10;-19.91;12.90;4.50
08:18:02;-18.10;-30.00;-29.99;15.20;-19.00;-18.10;-19.91;12.90;4.50
08:18:04;-18.10;-30.00;-30.00;15.20;-19.00;-18.10;-19.91;13.00;4.50
08:18:06;-18.10;-30.00;-29.98;15.30;-19.00;-18.10;-19.91;13.00;4.60
08:18:08;-18.10;-30.00;-29.99;15.30;-18.90;-18.10;-19.91;13.00;4.50
08:18:10;-18.10;-30.00;-29.98;15.20;-18.90;-18.10;-19.91;13.00;4.60
08:18:12;-18.10;-30.00;-29.98;15.20;-18.90;-18.10;-19.91;12.90;4.50
08:18:14;-18.10;-30.00;-29.99;15.30;-19.00;-18.10;-19.91;12.90;4.50
08:18:16;-18.10;-30.00;-30.01;15.20;-19.00;-18.10;-19.91;12.90;4.60
08:18:18;-18.10;-30.00;-30.02;15.20;-19.00;-18.10;-19.91;12.90;4.60
08:18:20;-18.10;-30.00;-30.00;15.30;-19.00;-18.10;-19.90;12.90;4.60
08:18:22;-18.10;-30.00;-29.99;15.30;-18.90;-18.10;-19.90;13.00;4.60
08:18:24;-18.10;-30.00;-30.00;15.30;-19.00;-18.10;-19.91;13.00;4.60
08:18:26;-18.10;-30.00;-30.01;15.20;-18.90;-18.10;-19.91;13.00;4.50
08:18:28;-18.10;-30.00;-30.00;15.20;-18.90;-18.10;-19.92;13.00;4.50
08:18:30;-18.10;-30.00;-30.00;15.20;-19.00;-18.10;-19.92;13.00;4.50
08:18:32;-18.10;-30.00;-30.01;15.20;-18.90;-18.10;-19.92;13.00;4.50
08:18:34;-18.10;-30.00;-30.01;15.20;-18.90;-18.10;-19.92;13.00;4.50
08:18:36;-18.10;-30.00;-30.02;15.20;-18.90;-18.10;-19.91;13.10;4.50
08:18:38;-18.10;-30.00;-30.03;15.20;-19.00;-18.10;-19.91;13.10;4.50
08:18:40;-18.10;-30.00;-30.01;15.20;-18.90;-18.10;-19.92;13.20;4.60
08:18:42;-18.10;-30.00;-30.01;15.20;-18.90;-18.10;-19.92;13.20;4.50
08:18:44;-18.10;-30.00;-30.01;15.20;-19.00;-18.10;-19.91;13.20;4.50
08:18:46;-18.10;-30.00;-29.99;15.20;-19.00;-18.10;-19.92;13.20;4.50
08:18:48;-18.10;-30.00;-29.98;15.20;-18.90;-18.10;-19.92;13.20;4.60
08:18:50;-18.10;-30.00;-29.99;15.20;-19.00;-18.10;-19.92;13.20;4.60
08:18:52;-18.10;-30.00;-29.97;15.20;-18.90;-18.10;-19.92;13.20;4.60
08:18:54;-18.10;-30.00;-29.97;15.20;-19.00;-18.10;-19.93;13.20;4.60
08:18:56;-18.10;-30.00;-29.96;15.20;-19.00;-18.10;-19.92;13.20;4.60
08:18:58;-18.10;-30.00;-29.97;15.20;-19.00;-18.10;-19.91;13.20;4.60
08:19:00;-18.10;-30.00;-29.99;15.20;-19.00;-18.10;-19.91;13.20;4.50
08:19:02;-18.10;-30.00;-30.00;15.20;-18.90;-18.10;-19.90;13.20;4.50
08:19:04;-18.10;-30.00;-30.00;15.20;-18.90;-18.10;-19.90;13.20;4.60
08:19:06;-18.10;-30.00;-30.00;15.20;-18.90;-18.10;-19.90;13.20;4.50
08:19:08;-18.10;-30.00;-30.00;15.20;-18.90;-18.10;-19.90;13.20;4.60
08:19:10;-18.10;-30.00;-30.00;15.20;-18.90;-18.10;-19.91;13.20;4.60
08:19:12;-18.10;-30.00;-30.00;15.20;-18.90;-18.10;-19.90;13.20;4.50
08:19:14;-18.10;-30.00;-29.98;15.20;-18.90;-18.10;-19.90;13.20;4.60
08:19:16;-18.10;-30.00;-29.99;15.20;-18.90;-18.10;-19.90;13.30;4.50
08:19:18;-18.10;-30.00;-30.00;15.20;-18.90;-18.10;-19.89;13.30;4.50
08:19:20;-18.10;-30.00;-30.01;15.20;-18.90;-18.10;-19.90;13.30;4.50
08:19:22;-18.10;-30.00;-30.01;15.20;-18.90;-18.10;-19.90;13.40;4.50
08:19:25;-18.10;-30.00;-30.01;15.20;-18.90;-18.10;-19.90;13.40;4.60
08:19:26;-18.10;-30.00;-30.00;15.20;-19.00;-18.10;-19.91;13.40;4.60
08:19:32;-18.10;-30.00;-30.01;15.20;-19.00;-18.10;-19.91;13.40;4.60
08:19:35;-18.10;-30.00;-30.00;15.20;-19.00;-18.10;-19.90;13.50;4.50
08:19:36;-18.10;-30.00;-29.99;15.20;-19.00;-18.10;-19.90;13.50;4.50
08:19:38;-18.10;-30.00;-29.99;15.20;-18.90;-18.10;-19.90;13.50;4.50
08:19:41;-18.10;-30.00;-29.98;15.20;-18.90;-18.00;-19.91;13.50;4.50
08:19:42;-18.10;-30.00;-30.01;15.20;-18.90;-18.00;-19.91;13.40;4.60
08:19:44;-18.10;-30.00;-30.02;15.20;-18.90;-18.00;-19.90;13.40;4.60
08:19:46;-18.10;-30.00;-30.01;15.20;-18.90;-18.00;-19.91;13.50;4.60
08:19:48;-18.10;-30.00;-30.00;15.20;-18.90;-18.00;-19.90;13.50;4.50
08:19:51;-18.10;-30.00;-30.00;15.20;-18.90;-18.00;-19.91;13.50;4.60
08:19:52;-18.10;-30.00;-30.02;15.20;-18.90;-18.10;-19.91;13.50;4.60
08:19:54;-18.10;-30.00;-30.02;15.20;-18.90;-18.10;-19.91;13.60;4.50
08:19:56;-18.10;-30.00;-30.00;15.20;-18.90;-18.10;-19.92;13.70;4.60
08:19:58;-18.10;-30.00;-29.99;15.20;-18.90;-18.10;-19.92;13.70;4.60
08:20:00;-18.10;-30.00;-30.00;15.20;-18.90;-18.10;-19.93;13.70;4.50
08:20:02;-18.10;-30.00;-30.00;15.20;-18.90;-18.10;-19.93;13.70;4.50
08:20:04;-18.10;-30.00;-30.00;15.20;-18.90;-18.10;-19.93;13.70;4.60
08:20:06;-18.10;-30.00;-30.00;15.20;-18.90;-18.10;-19.94;13.70;4.50
08:20:09;-18.10;-30.00;-29.98;15.20;-18.90;-18.10;-19.94;13.70;4.50
08:20:11;-18.10;-30.00;-29.99;15.20;-18.90;-18.10;-19.94;13.70;4.50
08:20:13;-18.10;-30.00;-29.99;15.20;-18.90;-18.10;-19.95;13.70;4.50
08:20:15;-18.10;-30.00;-29.99;15.20;-18.90;-18.10;-19.94;13.60;4.50
08:20:17;-18.10;-30.00;-30.00;15.20;-18.90;-18.10;-19.94;13.60;4.60
08:20:19;-18.10;-30.00;-30.00;15.20;-18.90;-18.10;-19.92;13.70;4.60
08:20:21;-18.10;-30.00;-29.98;15.20;-18.90;-18.10;-19.93;13.70;4.60
08:20:23;-18.10;-30.00;-29.99;15.20;-18.90;-18.10;-19.93;13.70;4.50
08:20:25;-18.10;-30.00;-29.97;15.20;-18.90;-18.10;-19.92;13.70;4.60
08:20:27;-18.10;-30.00;-29.98;15.10;-18.90;-18.10;-19.92;13.70;4.50
08:20:29;-18.10;-30.00;-29.98;15.10;-18.90;-18.10;-19.92;13.70;4.50
08:20:31;-18.10;-30.00;-29.99;15.20;-18.90;-18.10;-19.92;13.70;4.60
08:20:33;-18.10;-30.00;-29.99;15.20;-18.90;-18.10;-19.94;13.80;4.60
08:20:35;-18.10;-30.00;-29.99;15.20;-19.00;-18.10;-19.94;13.70;4.60
08:20:37;-18.10;-30.00;-30.00;15.10;-18.90;-18.10;-19.94;13.70;4.60
08:20:39;-18.10;-30.00;-29.99;15.20;-18.90;-18.10;-19.93;13.70;4.60
08:20:41;-18.10;-30.00;-30.00;15.10;-19.00;-18.10;-19.92;13.70;4.60
08:20:43;-18.10;-30.00;-30.01;15.10;-18.90;-18.10;-19.93;13.70;4.60
08:20:45;-18.10;-30.00;-30.02;15.10;-18.90;-18.10;-19.92;13.80;4.60
08:20:47;-18.10;-30.00;-30.02;15.10;-18.90;-18.10;-19.91;13.80;4.60
08:20:49;-18.10;-30.00;-30.02;15.20;-19.00;-18.10;-19.91;13.70;4.50
08:20:51;-18.10;-30.00;-30.00;15.10;-19.00;-18.10;-19.90;13.80;4.60
08:20:53;-18.10;-30.00;-30.00;15.10;-18.90;-18.10;-19.92;13.80;4.60
08:20:55;-18.10;-30.00;-29.99;15.10;-18.90;-18.10;-19.91;13.70;4.60
08:20:57;-18.10;-30.00;-30.00;15.10;-19.00;-18.10;-19.93;13.70;4.60
08:20:59;-18.10;-30.00;-29.99;15.10;-19.00;-18.10;-19.92;13.70;4.60
08:21:01;-18.10;-30.00;-30.00;15.10;-18.90;-18.10;-19.92;13.70;4.50
08:21:03;-18.10;-30.00;-29.99;15.10;-18.90;-18.10;-19.91;13.70;4.50
08:21:05;-18.10;-30.00;-29.99;15.10;-19.00;-18.10;-19.92;13.80;4.60
08:21:07;-18.10;-30.00;-30.01;15.10;-18.90;-18.10;-19.93;13.80;4.60
08:21:09;-18.10;-30.00;-30.02;15.10;-18.90;-18.10;-19.93;13.90;4.60
08:21:11;-18.10;-30.00;-30.03;15.10;-18.90;-18.10;-19.93;13.90;4.60
08:21:13;-18.10;-30.00;-30.02;15.10;-19.00;-18.10;-19.92;13.90;4.50
08:21:15;-18.10;-30.00;-30.00;15.10;-18.90;-18.10;-19.92;14.00;4.60
08:21:19;-18.10;-30.00;-30.01;15.10;-18.90;-18.10;-19.92;14.00;4.60
08:21:21;-18.10;-30.00;-30.00;15.10;-18.90;-18.10;-19.92;14.00;4.60
08:21:23;-18.10;-30.00;-30.01;15.10;-18.90;-18.10;-19.92;14.00;4.60
08:21:25;-18.10;-30.00;-30.03;15.10;-18.90;-18.10;-19.92;14.00;4.60
08:21:27;-18.10;-30.00;-30.02;15.10;-18.90;-18.10;-19.92;14.00;4.60
08:21:29;-18.10;-30.00;-30.02;15.10;-18.90;-18.10;-19.91;14.00;4.60
08:21:31;-18.10;-30.00;-30.01;15.10;-18.90;-18.10;-19.91;14.00;4.50
08:21:33;-18.10;-30.00;-30.00;15.00;-18.90;-18.10;-19.92;14.00;4.60
08:21:35;-18.10;-30.00;-29.98;15.10;-18.90;-18.10;-19.92;14.00;4.60
08:21:37;-18.10;-30.00;-29.98;15.10;-18.90;-18.10;-19.92;14.00;4.60
08:21:39;-18.10;-30.00;-29.98;15.10;-18.90;-18.10;-19.93;14.00;4.60
08:21:41;-18.10;-30.00;-29.98;15.10;-18.90;-18.10;-19.93;14.00;4.60
08:21:43;-18.10;-30.00;-29.98;15.00;-18.90;-18.10;-19.93;14.00;4.60
08:21:45;-18.10;-30.00;-29.99;15.00;-18.90;-18.10;-19.93;14.00;4.60
08:21:47;-18.10;-30.00;-30.00;15.00;-18.90;-18.10;-19.92;14.10;4.50
08:21:49;-18.10;-30.00;-30.02;15.00;-18.90;-18.10;-19.91;14.10;4.60
08:21:51;-18.10;-30.00;-30.01;15.00;-18.90;-18.10;-19.92;14.00;4.60
08:21:53;-18.10;-30.00;-30.00;15.00;-18.90;-18.10;-19.92;14.10;4.60
08:21:55;-18.10;-30.00;-30.00;15.00;-18.90;-18.10;-19.91;14.10;4.60
08:21:57;-18.10;-30.00;-30.00;15.00;-18.90;-18.10;-19.91;14.00;4.60
08:21:59;-18.10;-30.00;-30.02;15.00;-18.90;-18.00;-19.91;14.00;4.60
08:22:01;-18.10;-30.00;-30.01;15.00;-18.90;-18.10;-19.90;14.00;4.60
08:22:03;-18.10;-30.00;-29.99;15.00;-18.90;-18.10;-19.90;14.10;4.60
08:22:05;-18.10;-30.00;-29.99;15.00;-18.90;-18.10;-19.92;14.10;4.60
08:22:07;-18.10;-30.00;-30.00;15.00;-18.90;-18.10;-19.93;14.20;4.50
08:22:09;-18.10;-30.00;-30.01;15.00;-18.90;-18.10;-19.92;14.20;4.60
08:22:11;-18.10;-30.00;-30.01;15.00;-18.90;-18.10;-19.93;14.10;4.60
08:22:13;-18.10;-30.00;-30.01;15.00;-18.90;-18.10;-19.93;14.10;4.60
08:22:15;-18.10;-30.00;-30.01;15.00;-18.90;-18.10;-19.93;14.20;4.60
08:22:17;-18.10;-30.00;-30.00;15.00;-18.90;-18.10;-19.93;14.20;4.60
08:22:19;-18.10;-30.00;-29.97;15.00;-18.90;-18.10;-19.92;14.20;4.60
08:22:21;-18.10;-30.00;-29.98;15.00;-18.90;-18.10;-19.92;14.20;4.50
08:22:23;-18.10;-30.00;-30.00;15.00;-18.90;-18.10;-19.91;14.20;4.60
08:22:25;-18.10;-30.00;-30.00;15.00;-18.90;-18.10;-19.92;14.20;4.60
08:22:27;-18.10;-30.00;-30.00;15.00;-18.90;-18.10;-19.92;14.20;4.60
08:22:29;-18.10;-30.00;-30.00;15.00;-18.90;-18.10;-19.92;14.20;4.60
08:22:31;-18.10;-30.00;-29.99;15.00;-18.90;-18.10;-19.91;14.10;4.60
08:22:33;-18.10;-30.00;-29.99;15.00;-18.90;-18.10;-19.92;14.10;4.50
08:22:35;-18.10;-30.00;-30.00;15.00;-18.90;-18.10;-19.92;14.10;4.60
08:22:37;-18.10;-30.00;-30.01;15.00;-18.90;-18.10;-19.92;14.20;4.60
08:22:39;-18.10;-30.00;-30.01;15.00;-18.90;-18.10;-19.92;14.20;4.60
08:22:41;-18.10;-30.00;-30.01;15.00;-18.90;-18.10;-19.93;14.30;4.60
08:22:43;-18.10;-30.00;-30.00;15.00;-18.90;-18.10;-19.94;14.30;4.50
08:22:45;-18.10;-30.00;-29.98;15.00;-18.90;-18.10;-19.94;14.40;4.60
08:22:47;-18.10;-30.00;-29.98;15.00;-18.90;-18.10;-19.93;14.50;4.60
08:22:49;-18.10;-30.00;-29.97;15.00;-18.90;-18.10;-19.93;14.50;4.60
08:22:51;-18.10;-30.00;-29.96;15.00;-18.90;-18.10;-19.93;14.50;4.60
08:22:53;-18.10;-30.00;-29.97;15.00;-18.90;-18.00;-19.91;14.50;4.60
08:22:55;-18.10;-30.00;-29.98;15.00;-18.90;-18.10;-19.90;14.50;4.60
08:22:57;-18.10;-30.00;-29.98;15.00;-18.90;-18.10;-19.91;14.50;4.60
08:22:59;-18.10;-30.00;-29.98;15.00;-18.90;-18.10;-19.92;14.50;4.50
08:23:01;-18.10;-30.00;-29.98;15.00;-18.90;-18.00;-19.91;14.50;4.60
08:23:03;-18.10;-30.00;-29.98;15.00;-18.90;-18.10;-19.91;14.50;4.60
08:23:07;-18.10;-30.00;-30.02;15.00;-18.90;-18.10;-19.91;14.60;4.60
08:23:09;-18.10;-30.00;-30.03;15.00;-18.90;-18.10;-19.91;14.60;4.60
08:23:11;-18.10;-30.00;-30.01;15.00;-18.90;-18.10;-19.91;14.60;4.60
08:23:13;-18.10;-30.00;-30.00;15.00;-18.90;-18.10;-19.92;14.60;4.50
08:23:15;-18.10;-30.00;-29.99;15.00;-18.90;-18.10;-19.94;14.60;4.50
08:23:17;-18.10;-30.00;-29.99;15.00;-18.90;-18.10;-19.94;14.60;4.60
08:23:19;-18.10;-30.00;-29.99;15.00;-18.90;-18.10;-19.94;14.60;4.50
08:23:21;-18.10;-30.00;-30.02;15.00;-18.90;-18.10;-19.95;14.70;4.60
08:23:23;-18.10;-30.00;-30.03;15.00;-18.90;-18.10;-19.94;14.70;4.60
08:23:25;-18.10;-30.00;-30.00;15.00;-18.90;-18.10;-19.95;14.70;4.60
08:23:27;-18.10;-30.00;-29.96;15.00;-18.90;-18.10;-19.95;14.70;4.60
08:23:29;-18.10;-30.00;-29.97;15.00;-18.90;-18.20;-19.95;14.70;4.60
08:23:31;-18.10;-30.00;-29.99;15.00;-18.90;-18.10;-19.95;14.60;4.60
08:23:33;-18.10;-30.00;-30.00;15.00;-18.90;-18.10;-19.95;14.60;4.60
08:23:35;-18.10;-30.00;-30.00;15.00;-18.90;-18.10;-19.96;14.70;4.60
08:23:37;-18.10;-30.00;-29.97;15.00;-18.90;-18.10;-19.97;14.70;4.60
08:23:39;-18.10;-30.00;-29.97;15.00;-18.90;-18.10;-19.98;14.70;4.60
08:23:41;-18.10;-30.00;-29.98;15.00;-18.90;-18.10;-19.98;14.70;4.50
08:23:43;-18.10;-30.00;-29.98;15.00;-18.90;-18.10;-19.98;14.80;4.60
08:23:45;-18.10;-30.00;-30.00;15.00;-18.90;-18.10;-19.97;14.80;4.60
08:23:47;-18.10;-30.00;-30.01;15.00;-18.90;-18.10;-19.97;14.80;4.60
08:23:49;-18.10;-30.00;-30.01;15.00;-18.90;-18.10;-19.99;14.80;4.60
08:23:51;-18.10;-30.00;-30.00;15.00;-19.00;-18.10;-19.98;14.80;4.60
08:23:53;-18.10;-30.00;-30.00;15.00;-18.90;-18.10;-19.98;14.80;4.60
08:23:55;-18.10;-30.00;-30.01;15.00;-18.90;-18.20;-19.98;14.80;4.60
08:23:57;-18.10;-30.00;-30.01;15.00;-18.90;-18.10;-19.98;14.80;4.60
08:23:59;-18.10;-30.00;-29.98;15.00;-18.90;-18.20;-19.98;14.80;4.60
08:24:01;-18.10;-30.00;-30.00;15.00;-18.90;-18.20;-19.99;14.70;4.60
08:24:03;-18.10;-30.00;-30.02;15.00;-19.00;-18.10;-19.98;14.80;4.60
08:24:05;-18.10;-30.00;-30.02;15.00;-18.90;-18.20;-19.99;14.80;4.60
08:24:07;-18.10;-30.00;-30.02;15.00;-18.90;-18.10;-19.99;14.80;4.60
08:24:09;-18.10;-30.00;-30.02;15.00;-19.00;-18.10;-19.99;14.90;4.60
08:24:11;-18.10;-30.00;-30.01;15.00;-18.90;-18.10;-19.98;14.90;4.60
08:24:13;-18.10;-30.00;-30.00;15.00;-19.00;-18.10;-19.99;14.90;4.60
08:24:15;-18.10;-30.00;-30.01;15.00;-19.00;-18.10;-19.98;14.90;4.60
08:24:17;-18.10;-30.00;-30.01;15.00;-19.00;-18.10;-19.97;15.00;4.60
08:24:19;-18.10;-30.00;-30.01;15.00;-18.90;-18.20;-19.98;15.00;4.60
08:24:21;-18.10;-30.00;-30.01;15.00;-19.00;-18.20;-19.98;14.90;4.60
08:24:23;-18.10;-30.00;-29.98;15.00;-18.90;-18.20;-19.99;14.90;4.60
08:24:25;-18.10;-30.00;-29.96;15.00;-18.90;-18.20;-20.00;14.90;4.60
08:24:27;-18.10;-30.00;-29.96;15.00;-18.90;-18.20;-20.00;15.00;4.60
08:24:29;-18.10;-30.00;-29.99;15.00;-19.00;-18.10;-20.02;15.00;4.60
08:24:31;-18.10;-30.00;-29.99;15.00;-19.00;-18.20;-20.02;15.10;4.60
08:24:33;-18.10;-30.00;-30.00;15.00;-19.00;-18.20;-20.02;15.10;4.60
08:24:35;-18.10;-30.00;-30.00;15.00;-19.00;-18.20;-20.01;15.10;4.60
08:24:37;-18.10;-30.00;-30.01;15.00;-19.00;-18.20;-20.01;15.10;4.60
08:24:39;-18.10;-30.00;-30.00;14.90;-18.90;-18.20;-20.01;15.10;4.60
08:24:41;-18.10;-30.00;-29.99;15.00;-19.00;-18.20;-20.00;15.10;4.60
08:24:43;-18.10;-30.00;-29.97;15.00;-19.00;-18.20;-19.99;15.10;4.50
08:24:45;-18.10;-30.00;-29.99;15.00;-19.00;-18.20;-19.98;15.10;4.60
08:24:47;-18.10;-30.00;-30.02;15.00;-19.00;-18.20;-19.97;15.10;4.60
08:24:49;-18.10;-30.00;-30.01;15.00;-19.00;-18.10;-19.97;15.10;4.60
08:24:51;-18.10;-30.00;-29.99;15.00;-19.00;-18.10;-19.96;15.10;4.60
08:24:55;-18.10;-30.00;-30.01;14.90;-19.00;-18.10;-19.93;15.20;4.60
08:24:57;-18.10;-30.00;-30.01;15.00;-19.00;-18.10;-19.92;15.20;4.60
08:24:59;-18.10;-30.00;-30.01;15.00;-18.90;-18.10;-19.92;15.20;4.60
08:25:01;-18.10;-30.00;-30.01;14.90;-19.00;-18.10;-19.92;15.20;4.60
08:25:03;-18.10;-30.00;-30.02;15.00;-19.00;-18.10;-19.92;15.20;4.60
08:25:05;-18.10;-30.00;-30.03;14.90;-18.90;-18.10;-19.93;15.20;4.60
08:25:07;-18.10;-30.00;-30.04;14.90;-19.00;-18.10;-19.93;15.30;4.60
08:25:09;-18.10;-30.00;-30.00;14.90;-18.90;-18.10;-19.93;15.30;4.50
08:25:11;-18.10;-30.00;-29.97;14.90;-18.90;-18.10;-19.94;15.30;4.60
08:25:13;-18.10;-30.00;-29.98;15.00;-19.00;-18.10;-19.94;15.30;4.60
08:25:15;-18.10;-30.00;-29.99;14.90;-18.90;-18.10;-19.95;15.30;4.60
08:25:17;-18.10;-30.00;-30.00;14.90;-19.00;-18.10;-19.95;15.30;4.60
08:25:19;-18.10;-30.00;-30.01;14.90;-19.00;-18.10;-19.95;15.30;4.60
08:25:21;-18.10;-30.00;-30.00;14.90;-19.00;-18.10;-19.96;15.30;4.60
08:25:23;-18.10;-30.00;-30.01;14.90;-19.00;-18.10;-19.96;15.40;4.60
08:25:25;-18.10;-30.00;-30.00;14.90;-19.00;-18.10;-19.97;15.30;4.60
08:25:27;-18.10;-30.00;-30.01;14.90;-19.00;-18.10;-19.97;15.30;4.60
08:25:29;-18.10;-30.00;-30.00;14.90;-18.90;-18.10;-19.97;15.40;4.60
08:25:31;-18.10;-30.00;-30.00;14.90;-18.90;-18.10;-19.98;15.40;4.50
08:25:33;-18.10;-30.00;-29.99;14.90;-19.00;-18.10;-19.98;15.30;4.60
08:25:35;-18.10;-30.00;-30.00;14.90;-19.00;-18.10;-19.98;15.40;4.60
08:25:37;-18.10;-30.00;-30.01;14.90;-19.00;-18.10;-19.98;15.40;4.60
08:25:39;-18.10;-30.00;-30.01;14.90;-19.00;-18.10;-19.97;15.50;4.60
08:25:41;-18.10;-30.00;-30.00;14.90;-19.00;-18.20;-19.98;15.50;4.60
08:25:43;-18.10;-30.00;-30.00;14.90;-19.00;-18.20;-19.97;15.60;4.60
08:25:45;-18.10;-30.00;-30.00;14.90;-19.00;-18.20;-19.97;15.50;4.60
08:25:47;-18.10;-30.00;-30.00;14.90;-19.00;-18.20;-19.97;15.60;4.60
08:25:49;-18.10;-30.00;-30.00;14.90;-19.00;-18.20;-19.97;15.60;4.60
08:25:51;-18.10;-30.00;-30.01;14.90;-19.00;-18.10;-19.97;15.60;4.60
08:25:53;-18.10;-30.00;-30.02;14.90;-19.00;-18.10;-19.96;15.70;4.60
08:25:56;-18.10;-30.00;-30.00;14.90;-19.00;-18.10;-19.95;15.70;4.60
08:25:57;-18.10;-30.00;-30.00;14.90;-19.00;-18.10;-19.93;15.60;4.60
08:26:00;-18.10;-30.00;-30.01;14.90;-19.00;-18.10;-19.93;15.60;4.60
08:26:01;-18.10;-30.00;-30.01;14.90;-19.00;-18.10;-19.93;15.70;4.60
08:26:03;-18.10;-30.00;-30.00;14.90;-18.90;-18.10;-19.94;15.80;4.60
08:26:05;-18.10;-30.00;-29.99;14.90;-19.00;-18.10;-19.94;15.80;4.50
08:26:07;-18.10;-30.00;-29.98;14.90;-19.00;-18.10;-19.94;15.80;4.60
08:26:09;-18.10;-30.00;-29.99;14.90;-19.00;-18.10;-19.93;15.80;4.60
08:26:12;-18.10;-30.00;-29.97;14.90;-19.00;-18.10;-19.93;15.80;4.60
08:26:13;-18.10;-30.00;-29.97;14.90;-19.00;-18.10;-19.93;15.80;4.60
08:26:16;-18.10;-30.00;-29.99;14.90;-19.00;-18.10;-19.93;15.80;4.60
08:26:17;-18.10;-30.00;-30.00;14.90;-19.00;-18.10;-19.94;15.70;4.60
08:26:19;-18.10;-30.00;-30.00;14.90;-18.90;-18.10;-19.95;15.70;4.70
08:26:21;-18.10;-30.00;-29.99;14.90;-18.90;-18.10;-19.95;15.70;4.50
08:26:23;-18.10;-30.00;-29.96;14.90;-19.00;-18.10;-19.96;15.70;4.60
08:26:26;-18.10;-30.00;-29.96;14.90;-19.00;-18.10;-19.95;15.70;4.60
08:26:28;-18.10;-30.00;-29.95;14.90;-19.00;-18.10;-19.95;15.70;4.60
08:26:29;-18.10;-30.00;-29.93;14.90;-19.00;-18.10;-19.94;15.80;4.60
08:26:31;-18.10;-30.00;-29.96;14.90;-19.00;-18.10;-19.94;15.80;4.60
08:26:33;-18.10;-30.00;-29.99;14.90;-18.90;-18.10;-19.94;15.90;4.60
08:26:36;-18.10;-30.00;-30.02;14.90;-19.00;-18.10;-19.95;15.90;4.60
08:26:38;-18.10;-30.00;-30.03;14.90;-18.90;-18.10;-19.95;16.00;4.60
08:26:42;-18.10;-30.00;-30.03;14.90;-19.00;-18.10;-19.94;16.00;4.70
08:26:45;-18.10;-30.00;-30.02;14.90;-19.00;-18.10;-19.94;16.00;4.60
08:26:47;-18.10;-30.00;-30.02;14.90;-19.00;-18.10;-19.94;16.00;4.60
08:26:49;-18.10;-30.00;-30.02;14.90;-19.00;-18.10;-19.94;15.90;4.70
08:26:51;-18.10;-30.00;-30.00;14.90;-19.00;-18.10;-19.94;15.90;4.60
08:26:54;-18.10;-30.00;-30.00;14.90;-18.90;-18.10;-19.93;16.00;4.70
08:26:56;-18.10;-30.00;-30.01;14.90;-18.90;-18.00;-19.92;16.00;4.70
08:26:58;-18.10;-30.00;-30.01;14.90;-19.00;-18.10;-19.90;16.00;4.60
08:27:00;-18.10;-30.00;-30.00;14.90;-18.90;-18.10;-19.90;15.90;4.60
08:27:02;-18.10;-30.00;-30.00;14.90;-19.00;-18.00;-19.89;16.00;4.70
08:27:04;-18.10;-30.00;-29.98;14.90;-19.00;-18.00;-19.89;16.00;4.60
08:27:06;-18.10;-30.00;-29.99;14.90;-19.00;-18.00;-19.88;16.20;4.60
08:27:08;-18.10;-30.00;-30.00;14.90;-18.90;-18.10;-19.89;16.20;4.60
08:27:10;-18.10;-30.00;-30.00;14.90;-18.90;-18.10;-19.90;16.20;4.60
08:27:12;-18.10;-30.00;-30.00;14.90;-18.90;-18.10;-19.90;16.20;4.60
08:27:14;-18.10;-30.00;-30.00;14.90;-18.90;-18.10;-19.90;16.10;4.60
08:27:16;-18.10;-30.00;-30.01;14.90;-18.90;-18.10;-19.91;16.10;4.60
08:27:18;-18.10;-30.00;-30.03;14.90;-18.90;-18.10;-19.90;16.10;4.60
08:27:20;-18.10;-30.00;-30.03;14.90;-18.90;-18.10;-19.92;16.10;4.60
08:27:22;-18.10;-30.00;-30.01;14.90;-18.90;-18.10;-19.92;16.20;4.70
08:27:24;-18.10;-30.00;-30.00;14.90;-18.90;-18.10;-19.92;16.20;4.60
08:27:26;-18.10;-30.00;-29.99;14.90;-19.00;-18.10;-19.92;16.20;4.70
08:27:28;-18.10;-30.00;-30.00;14.90;-19.00;-18.10;-19.92;16.20;4.70
08:27:30;-18.10;-30.00;-30.01;14.90;-18.90;-18.10;-19.91;16.20;4.60
08:27:32;-18.10;-30.00;-30.00;14.90;-18.90;-18.10;-19.92;16.20;4.60
08:27:34;-18.10;-30.00;-30.00;14.90;-18.90;-18.10;-19.92;16.20;4.60
08:27:36;-18.10;-30.00;-30.02;14.90;-18.90;-18.00;-19.93;16.20;4.60
08:27:38;-18.10;-30.00;-30.02;14.90;-18.90;-18.10;-19.93;16.30;4.60
08:27:40;-18.10;-30.00;-30.03;14.90;-18.90;-18.10;-19.92;16.20;4.70
08:27:42;-18.10;-30.00;-30.01;14.90;-18.90;-18.10;-19.91;16.30;4.60
08:27:44;-18.10;-30.00;-30.01;14.90;-18.90;-18.10;-19.91;16.20;4.60
08:27:46;-18.10;-30.00;-30.00;14.80;-18.90;-18.10;-19.91;16.20;4.60
08:27:48;-18.10;-30.00;-30.01;14.90;-18.90;-18.10;-19.91;16.20;4.60
08:27:50;-18.10;-30.00;-30.01;14.80;-18.90;-18.00;-19.90;16.20;4.60
08:27:52;-18.10;-30.00;-30.00;14.90;-18.90;-18.00;-19.90;16.30;4.60
08:27:54;-18.10;-30.00;-29.98;14.80;-18.90;-18.10;-19.89;16.20;4.70
08:27:56;-18.10;-30.00;-29.98;14.80;-18.90;-18.00;-19.89;16.20;4.70
08:27:58;-18.10;-30.00;-30.00;14.80;-18.90;-18.00;-19.89;16.30;4.60
08:28:00;-18.10;-30.00;-30.00;14.90;-18.90;-18.00;-19.89;16.30;4.60
08:28:02;-18.10;-30.00;-30.00;14.90;-18.90;-18.00;-19.90;16.30;4.60
08:28:04;-18.10;-30.00;-30.00;14.80;-18.90;-18.10;-19.91;16.30;4.60
08:28:06;-18.10;-30.00;-29.99;14.80;-18.90;-18.00;-19.91;16.30;4.60
08:28:08;-18.10;-30.00;-29.97;14.80;-18.90;-18.10;-19.92;16.40;4.60
08:28:10;-18.10;-30.00;-29.97;14.80;-18.90;-18.10;-19.92;16.40;4.60
08:28:12;-18.10;-30.00;-29.99;14.80;-18.90;-18.10;-19.92;16.50;4.60
08:28:14;-18.10;-30.00;-30.01;14.80;-18.90;-18.10;-19.93;16.50;4.60
08:28:16;-18.10;-30.00;-30.01;14.80;-18.90;-18.10;-19.93;16.50;4.60
08:28:18;-18.10;-30.00;-30.01;14.80;-18.90;-18.10;-19.93;16.50;4.60
08:28:20;-18.10;-30.00;-30.02;14.80;-18.90;-18.10;-19.94;16.50;4.60
08:28:22;-18.10;-30.00;-30.01;14.80;-18.90;-18.10;-19.93;16.50;4.60
08:28:24;-18.10;-30.00;-29.97;14.80;-18.90;-18.10;-19.92;16.50;4.60
08:28:26;-18.10;-30.00;-29.98;14.80;-18.90;-18.00;-19.92;16.50;4.60
08:28:31;-18.10;-30.00;-30.01;14.80;-18.90;-18.00;-19.91;16.50;4.60
08:28:32;-18.10;-30.00;-30.01;14.80;-18.90;-18.10;-19.91;16.70;4.60
08:28:34;-18.10;-30.00;-29.98;14.80;-18.90;-18.00;-19.92;16.70;4.60
08:28:36;-18.10;-30.00;-29.99;14.80;-18.90;-18.10;-19.91;16.70;4.60
08:28:38;-18.10;-30.00;-30.01;14.80;-18.90;-18.00;-19.91;16.70;4.60
08:28:40;-18.10;-30.00;-30.00;14.80;-18.90;-18.10;-19.92;16.60;4.60
08:28:42;-18.10;-30.00;-30.00;14.80;-18.90;-18.10;-19.93;16.70;4.60
08:28:44;-18.10;-30.00;-30.00;14.80;-18.90;-18.10;-19.93;16.70;4.60
08:28:46;-18.10;-30.00;-30.00;14.80;-18.90;-18.10;-19.93;16.70;4.60
08:28:48;-18.10;-30.00;-29.98;14.80;-18.90;-18.10;-19.93;16.80;4.70
08:28:50;-18.10;-30.00;-29.98;14.80;-18.90;-18.10;-19.94;16.70;4.60
08:28:52;-18.10;-30.00;-30.00;14.80;-18.90;-18.10;-19.94;16.70;4.60
08:28:54;-18.10;-30.00;-30.01;14.80;-18.90;-18.10;-19.92;16.80;4.70
08:28:56;-18.10;-30.00;-30.02;14.80;-18.90;-18.10;-19.92;16.80;4.60
08:28:58;-18.10;-30.00;-30.00;14.80;-18.90;-18.10;-19.92;16.80;4.60
08:29:00;-18.10;-30.00;-30.00;14.80;-18.90;-18.10;-19.93;16.70;4.60
08:29:02;-18.10;-30.00;-30.01;14.80;-18.90;-18.10;-19.91;16.80;4.60
08:29:04;-18.10;-30.00;-30.01;14.80;-18.90;-18.10;-19.92;16.80;4.60
08:29:06;-18.10;-30.00;-30.01;14.80;-18.90;-18.10;-19.92;16.80;4.70
08:29:08;-18.10;-30.00;-30.02;14.80;-18.90;-18.10;-19.93;16.90;4.60
08:29:10;-18.10;-30.00;-30.01;14.80;-18.90;-18.10;-19.93;16.90;4.60
08:29:12;-18.10;-30.00;-29.99;14.80;-18.90;-18.10;-19.93;16.90;4.60
08:29:14;-18.10;-30.00;-29.96;14.80;-18.90;-18.10;-19.93;16.90;4.60
08:29:16;-18.10;-30.00;-29.98;14.80;-18.90;-18.10;-19.93;16.90;4.60
08:29:18;-18.10;-30.00;-30.00;14.80;-18.90;-18.10;-19.91;16.90;4.60
08:29:20;-18.10;-30.00;-29.99;14.80;-18.90;-18.10;-19.92;17.00;4.60
08:29:22;-18.10;-30.00;-29.97;14.80;-18.90;-18.10;-19.93;17.00;4.60
08:29:24;-18.10;-30.00;-29.98;14.80;-18.90;-18.10;-19.93;17.00;4.60
08:29:26;-18.10;-30.00;-29.99;14.80;-18.90;-18.10;-19.92;17.00;4.60
08:29:28;-18.10;-30.00;-29.98;14.80;-18.90;-18.10;-19.91;17.00;4.70
08:29:30;-18.10;-30.00;-29.98;14.80;-18.90;-18.00;-19.90;17.00;4.60
08:29:32;-18.10;-30.00;-29.99;14.80;-18.90;-18.10;-19.91;17.00;4.60
08:29:34;-18.10;-30.00;-29.99;14.80;-18.90;-18.10;-19.91;17.10;4.60
08:29:36;-18.10;-30.00;-29.99;14.80;-19.00;-18.10;-19.90;17.10;4.70
08:29:38;-18.10;-30.00;-30.00;14.80;-18.90;-18.10;-19.90;17.10;4.60
08:29:40;-18.10;-30.00;-29.99;14.80;-18.90;-18.10;-19.91;17.10;4.60
08:29:42;-18.10;-30.00;-29.97;14.80;-18.90;-18.10;-19.93;17.10;4.60
08:29:44;-18.10;-30.00;-29.99;14.80;-18.90;-18.10;-19.93;17.10;4.60
08:29:46;-18.10;-30.00;-29.99;14.80;-18.90;-18.10;-19.93;17.20;4.60
08:29:48;-18.10;-30.00;-30.00;14.80;-18.90;-18.10;-19.93;17.20;4.70
08:29:50;-18.10;-30.00;-30.00;14.80;-18.90;-18.00;-19.93;17.10;4.60
08:29:52;-18.10;-30.00;-30.01;14.80;-18.90;-18.10;-19.92;17.10;4.60
08:29:54;-18.10;-30.00;-30.02;14.80;-18.90;-18.00;-19.92;17.10;4.60
08:29:56;-18.10;-30.00;-30.00;14.80;-18.90;-18.00;-19.91;17.10;4.60
08:29:58;-18.10;-30.00;-30.00;14.80;-18.90;-18.10;-19.92;17.10;4.60
08:30:00;-18.10;-30.00;-30.03;14.70;-18.90;-18.10;-19.92;17.10;4.60
08:30:02;-18.10;-30.00;-30.03;14.70;-18.90;-18.00;-19.92;17.20;4.60
08:30:04;-18.10;-30.00;-30.02;14.80;-18.90;-18.10;-19.92;17.20;4.60
08:30:06;-18.10;-30.00;-30.02;14.80;-18.90;-18.10;-19.91;17.10;4.60
08:30:08;-18.10;-30.00;-30.01;14.80;-18.90;-18.10;-19.90;17.10;4.70
08:30:10;-18.10;-30.00;-30.01;14.80;-18.90;-18.10;-19.91;17.10;4.60
08:30:12;-18.10;-30.00;-30.00;14.70;-18.90;-18.10;-19.91;17.00;4.60
08:30:14;-18.10;-30.00;-29.97;14.80;-18.90;-18.10;-19.92;17.00;4.60
08:30:19;-18.10;-30.00;-30.00;14.80;-18.90;-18.10;-19.92;17.00;4.60
08:30:20;-18.10;-30.00;-30.02;14.70;-18.90;-18.10;-19.93;17.00;4.60
08:30:22;-18.10;-30.00;-30.02;14.70;-18.90;-18.00;-19.94;17.00;4.60
08:30:24;-18.10;-30.00;-30.02;14.80;-18.90;-18.10;-19.93;17.10;4.60
08:30:26;-18.10;-30.00;-30.03;14.80;-18.90;-18.10;-19.93;17.10;4.60
08:30:28;-18.10;-30.00;-30.03;14.80;-18.90;-18.10;-19.93;17.10;4.60
08:30:30;-18.10;-30.00;-30.00;14.70;-18.90;-18.10;-19.93;17.20;4.70
08:30:32;-18.10;-30.00;-30.00;14.70;-18.90;-18.10;-19.94;17.20;4.60
08:30:34;-18.10;-30.00;-30.00;14.70;-18.90;-18.00;-19.93;17.20;4.60
08:30:36;-18.10;-30.00;-30.00;14.70;-18.90;-18.10;-19.93;17.30;4.60
08:30:38;-18.10;-30.00;-30.00;14.70;-18.90;-18.10;-19.93;17.30;4.60
08:30:40;-18.10;-30.00;-30.00;14.70;-18.90;-18.10;-19.94;17.40;4.60
08:30:42;-18.10;-30.00;-30.00;14.70;-18.90;-18.10;-19.94;17.50;4.60
08:30:44;-18.10;-30.00;-30.01;14.70;-18.90;-18.10;-19.94;17.50;4.60
08:30:46;-18.10;-30.00;-30.00;14.70;-18.90;-18.10;-19.93;17.60;4.60
08:30:48;-18.10;-30.00;-30.01;14.70;-18.90;-18.10;-19.92;17.60;4.60
08:30:50;-18.10;-30.00;-30.02;14.70;-18.90;-18.00;-19.92;17.60;4.60
08:30:52;-18.10;-30.00;-30.02;14.70;-18.90;-18.10;-19.92;17.60;4.60
08:30:54;-18.10;-30.00;-30.01;14.70;-18.90;-18.10;-19.91;17.60;4.60
08:30:56;-18.10;-30.00;-30.01;14.70;-18.90;-18.00;-19.91;17.60;4.60
08:30:58;-18.10;-30.00;-29.98;14.70;-18.90;-18.00;-19.91;17.60;4.60
08:31:00;-18.10;-30.00;-29.97;14.70;-18.90;-18.00;-19.91;17.60;4.60
08:31:02;-18.10;-30.00;-29.97;14.70;-18.90;-18.00;-19.90;17.60;4.60
08:31:04;-18.10;-30.00;-29.98;14.70;-18.90;-18.00;-19.90;17.60;4.60
08:31:06;-18.10;-30.00;-29.98;14.70;-18.90;-18.00;-19.91;17.60;4.60
08:31:08;-18.10;-30.00;-29.98;14.70;-18.90;-18.10;-19.92;17.70;4.60
08:31:10;-18.10;-30.00;-29.99;14.70;-18.90;-18.10;-19.93;17.60;4.60
08:31:12;-18.10;-30.00;-29.99;14.70;-18.90;-18.10;-19.93;17.60;4.60
08:31:14;-18.10;-30.00;-29.95;14.70;-18.90;-18.10;-19.94;17.60;4.60
08:31:16;-18.10;-30.00;-29.96;14.70;-18.90;-18.10;-19.94;17.60;4.60
08:31:18;-18.10;-30.00;-29.98;14.70;-18.90;-18.10;-19.93;17.70;4.60
08:31:20;-18.10;-30.00;-30.00;14.70;-18.90;-18.10;-19.93;17.70;4.70
08:31:22;-18.10;-30.00;-30.02;14.70;-18.90;-18.10;-19.93;17.70;4.60
08:31:24;-18.10;-30.00;-30.03;14.70;-18.90;-18.10;-19.93;17.70;4.60
08:31:26;-18.10;-30.00;-30.02;14.70;-18.90;-18.10;-19.93;17.70;4.60
08:31:28;-18.10;-30.00;-30.02;14.70;-18.90;-18.10;-19.94;17.70;4.60
08:31:30;-18.10;-30.00;-30.00;14.70;-18.90;-18.10;-19.94;17.60;4.60
08:31:32;-18.10;-30.00;-30.00;14.70;-18.90;-18.10;-19.93;17.60;4.60
08:31:34;-18.10;-30.00;-29.99;14.70;-18.90;-18.10;-19.94;17.50;4.60
08:31:36;-18.10;-30.00;-29.97;14.70;-18.90;-18.10;-19.95;17.50;4.60
08:31:38;-18.10;-30.00;-29.98;14.70;-18.90;-18.10;-19.95;17.50;4.60
08:31:40;-18.10;-30.00;-29.99;14.70;-18.90;-18.10;-19.94;17.50;4.60
08:31:42;-18.10;-30.00;-29.98;14.70;-18.90;-18.10;-19.94;17.50;4.60
08:31:44;-18.10;-30.00;-29.99;14.70;-18.90;-18.10;-19.94;17.50;4.60
08:31:46;-18.10;-30.00;-30.02;14.70;-18.90;-18.10;-19.93;17.50;4.60
08:31:48;-18.10;-30.00;-30.02;14.70;-18.90;-18.10;-19.93;17.50;4.60
08:31:50;-18.10;-30.00;-30.03;14.70;-18.90;-18.10;-19.93;17.50;4.60
08:31:52;-18.10;-30.00;-30.01;14.70;-18.90;-18.10;-19.93;17.50;4.70
08:31:54;-18.10;-30.00;-30.01;14.70;-18.90;-18.10;-19.94;17.50;4.60
08:31:56;-18.10;-30.00;-30.02;14.70;-18.90;-18.10;-19.94;17.50;4.60
08:31:58;-18.10;-30.00;-30.02;14.70;-18.90;-18.10;-19.94;17.50;4.60
08:32:00;-18.10;-30.00;-30.02;14.70;-18.90;-18.10;-19.95;17.60;4.60
08:32:02;-18.10;-30.00;-30.03;14.70;-18.90;-18.10;-19.96;17.50;4.60
08:32:04;-18.10;-30.00;-30.03;14.70;-18.90;-18.10;-19.96;17.60;4.60
08:32:06;-18.10;-30.00;-30.02;14.70;-18.90;-18.10;-19.94;17.60;4.70
08:32:08;-18.10;-30.00;-30.02;14.70;-18.90;-18.10;-19.94;17.70;4.60
08:32:10;-18.10;-30.00;-30.02;14.70;-18.90;-18.10;-19.93;17.70;4.60
08:32:12;-18.10;-30.00;-30.01;14.70;-18.90;-18.10;-19.93;17.70;4.60
08:32:14;-18.10;-30.00;-29.99;14.70;-18.90;-18.10;-19.94;17.70;4.60
08:32:16;-18.10;-30.00;-29.99;14.70;-18.90;-18.10;-19.94;17.70;4.60
08:32:18;-18.10;-30.00;-30.02;14.70;-18.90;-18.10;-19.94;17.70;4.70
08:32:20;-18.10;-30.00;-30.02;14.70;-18.90;-18.10;-19.94;17.80;4.60
08:32:22;-18.10;-30.00;-30.01;14.70;-18.90;-18.10;-19.94;17.80;4.60
08:32:24;-18.10;-30.00;-30.01;14.70;-18.90;-18.10;-19.94;17.80;4.60
08:32:26;-18.10;-30.00;-30.00;14.70;-18.90;-18.10;-19.93;17.80;4.60
08:32:28;-18.10;-30.00;-29.99;14.70;-18.90;-18.10;-19.93;17.90;4.70
08:32:30;-18.10;-30.00;-29.99;14.70;-18.90;-18.10;-19.92;17.80;4.60
08:32:32;-18.10;-30.00;-29.99;14.70;-18.90;-18.10;-19.93;17.80;4.60
08:32:34;-18.10;-30.00;-30.00;14.70;-18.90;-18.10;-19.94;17.80;4.70
08:32:36;-18.10;-30.00;-29.98;14.70;-18.90;-18.10;-19.94;17.80;4.60
08:32:39;-18.10;-30.00;-29.97;14.70;-18.90;-18.10;-19.95;17.90;4.60
08:32:40;-18.10;-30.00;-29.98;14.70;-18.90;-18.10;-19.95;17.90;4.60
08:32:42;-18.10;-30.00;-29.97;14.60;-18.90;-18.10;-19.95;17.90;4.70
08:32:44;-18.10;-30.00;-29.98;14.60;-18.90;-18.10;-19.95;17.90;4.70
08:32:46;-18.10;-30.00;-30.01;14.60;-18.90;-18.10;-19.95;17.90;4.70
08:32:48;-18.10;-30.00;-30.03;14.70;-18.90;-18.10;-19.95;17.90;4.60
08:32:51;-18.10;-30.00;-30.01;14.60;-18.90;-18.10;-19.95;17.90;4.60
08:32:52;-18.10;-30.00;-30.00;14.70;-18.90;-18.10;-19.96;17.80;4.60
08:32:55;-18.10;-30.00;-29.98;14.70;-18.90;-18.10;-19.95;17.80;4.60
08:32:56;-18.10;-30.00;-29.97;14.70;-18.90;-18.10;-19.95;17.80;4.60
08:32:59;-18.10;-30.00;-29.99;14.60;-18.90;-18.10;-19.93;17.80;4.60
08:33:01;-18.10;-30.00;-30.00;14.60;-18.90;-18.10;-19.93;17.80;4.60
08:33:02;-18.10;-30.00;-29.99;14.60;-18.90;-18.10;-19.93;17.70;4.60
08:33:04;-18.10;-30.00;-29.98;14.70;-18.90;-18.10;-19.94;17.70;4.60
08:33:07;-18.10;-30.00;-29.97;14.60;-19.00;-18.10;-19.94;17.70;4.60
08:33:08;-18.10;-30.00;-29.99;14.60;-18.90;-18.10;-19.95;17.70;4.60
08:33:11;-18.10;-30.00;-30.00;14.60;-18.90;-18.10;-19.94;17.70;4.70
08:33:13;-18.10;-30.00;-30.02;14.60;-18.90;-18.10;-19.93;17.70;4.60
