time (03.06.2024);target (PCB) temperature (C);chiller setpoint (C);chiller temperature (internal) (C);housing temperature (C);sensor box temperature (C);PCB temperature (C);Pt1000 temperature (C);housing humidity (%);sensor box humidity (%)
12:52:35;-18.10;-30.00;-30.01;12.90;-18.80;-18.10;-19.72;18.90;6.50
12:52:37;-18.10;-30.00;-30.01;12.90;-18.80;-18.10;-19.72;18.80;6.50
12:52:39;-18.10;-30.00;-30.02;12.80;-18.90;-18.10;-19.71;18.90;6.50
12:52:41;-18.10;-30.00;-30.02;12.80;-18.90;-18.10;-19.71;18.80;6.50
12:52:43;-18.10;-30.00;-30.01;12.80;-18.90;-18.10;-19.72;18.90;6.50
12:52:45;-18.10;-30.00;-29.98;12.80;-18.90;-18.10;-19.72;18.90;6.50
12:52:52;-18.10;-30.00;-29.97;12.80;-18.80;-18.10;-19.72;18.80;6.50
12:52:55;-18.10;-30.00;-29.97;12.80;-18.90;-18.10;-19.71;18.70;6.50
12:52:57;-18.10;-30.00;-29.98;12.80;-18.90;-18.10;-19.71;18.70;6.50
12:52:59;-18.10;-30.00;-29.97;12.80;-18.90;-18.10;-19.72;18.70;6.50
12:53:01;-18.10;-30.00;-29.98;12.80;-18.80;-18.10;-19.71;18.70;6.50
12:53:03;-18.10;-30.00;-29.98;12.80;-18.90;-18.10;-19.71;18.80;6.50
12:53:05;-18.10;-30.00;-29.98;12.80;-18.90;-18.10;-19.71;18.70;6.50
12:53:07;-18.10;-30.00;-29.97;12.80;-18.80;-18.10;-19.71;18.80;6.50
12:53:09;-18.10;-30.00;-29.99;12.80;-18.80;-18.10;-19.71;18.80;6.50
12:53:11;-18.10;-30.00;-30.00;12.80;-18.90;-18.10;-19.71;18.70;6.50
12:53:13;-18.10;-30.00;-30.00;12.80;-18.80;-18.10;-19.71;18.70;6.50
12:53:15;-18.10;-30.00;-30.01;12.80;-18.90;-18.10;-19.72;18.80;6.50
12:53:17;-18.10;-30.00;-30.01;12.80;-18.90;-18.10;-19.71;18.70;6.50
12:53:19;-18.10;-30.00;-30.00;12.80;-18.80;-18.10;-19.70;18.70;6.50
12:53:25;-18.10;-30.00;-30.01;12.80;-18.80;-18.10;-19.70;18.70;6.50
12:53:27;-18.10;-30.00;-30.02;12.80;-18.90;-18.10;-19.70;18.70;6.50
12:53:31;-18.10;-30.00;-30.00;12.80;-18.90;-18.10;-19.69;18.70;6.50
12:53:33;-18.10;-30.00;-30.00;12.80;-18.80;-18.10;-19.69;18.60;6.50
12:53:35;-18.10;-30.00;-30.00;12.80;-18.80;-18.10;-19.69;18.60;6.50
12:53:37;-18.10;-30.00;-30.00;12.80;-18.90;-18.10;-19.70;18.50;6.50
12:53:39;-18.10;-30.00;-30.00;12.80;-18.90;-18.10;-19.70;18.50;6.50
12:53:41;-18.10;-30.00;-29.97;12.80;-18.80;-18.10;-19.70;18.50;6.50
12:53:43;-18.10;-30.00;-29.98;12.80;-18.80;-18.10;-19.70;18.60;6.50
12:53:45;-18.10;-30.00;-29.99;12.80;-18.80;-18.10;-19.70;18.60;6.50
12:53:47;-18.10;-30.00;-29.99;12.80;-18.80;-18.10;-19.71;18.60;6.50
12:53:49;-18.10;-30.00;-29.99;12.80;-18.80;-18.10;-19.70;18.60;6.50
12:53:51;-18.10;-30.00;-29.97;12.80;-18.80;-18.20;-19.70;18.60;6.50
12:53:53;-18.10;-30.00;-29.95;12.80;-18.80;-18.20;-19.69;18.60;6.50
12:53:55;-18.10;-30.00;-29.97;12.80;-18.80;-18.10;-19.69;18.60;6.50
12:53:57;-18.10;-30.00;-30.00;12.80;-18.90;-18.10;-19.69;18.60;6.50
12:53:59;-18.10;-30.00;-30.01;12.80;-18.80;-18.10;-19.69;18.70;6.50
12:54:01;-18.10;-30.00;-30.02;12.80;-18.80;-18.10;-19.69;18.60;6.50
12:54:03;-18.10;-30.00;-30.02;12.80;-18.90;-18.10;-19.68;18.60;6.50
12:54:05;-18.10;-30.00;-30.02;12.80;-18.80;-18.10;-19.67;18.70;6.50
12:54:07;-18.10;-30.00;-30.01;12.80;-18.80;-18.10;-19.67;18.70;6.50
12:54:09;-18.10;-30.00;-30.00;12.80;-18.90;-18.10;-19.67;18.70;6.50
12:54:11;-18.10;-30.00;-30.00;12.80;-18.80;-18.10;-19.68;18.70;6.50
12:54:13;-18.10;-30.00;-30.02;12.80;-18.90;-18.10;-19.68;18.70;6.50
12:54:15;-18.10;-30.00;-30.02;12.80;-18.80;-18.10;-19.68;18.70;6.50
12:54:17;-18.10;-30.00;-30.03;12.80;-18.80;-18.10;-19.69;18.70;6.50
12:54:19;-18.10;-30.00;-30.03;12.80;-18.80;-18.10;-19.67;18.70;6.50
12:54:21;-18.10;-30.00;-30.02;12.80;-18.80;-18.10;-19.67;18.60;6.50
12:54:23;-18.10;-30.00;-30.02;12.80;-18.80;-18.10;-19.67;18.60;6.40
12:54:25;-18.10;-30.00;-30.01;12.80;-18.80;-18.10;-19.66;18.60;6.50
12:54:27;-18.10;-30.00;-30.00;12.80;-18.80;-18.10;-19.67;18.60;6.50
12:54:29;-18.10;-30.00;-30.01;12.80;-18.80;-18.10;-19.67;18.70;6.50
12:54:31;-18.10;-30.00;-30.01;12.80;-18.90;-18.10;-19.67;18.70;6.50
12:54:33;-18.10;-30.00;-30.01;12.80;-18.80;-18.10;-19.67;18.70;6.40
12:54:35;-18.10;-30.00;-30.01;12.80;-18.80;-18.10;-19.67;18.80;6.50
12:54:37;-18.10;-30.00;-30.01;12.80;-18.80;-18.10;-19.67;18.80;6.50
12:54:39;-18.10;-30.00;-30.00;12.80;-18.80;-18.10;-19.67;18.80;6.50
12:54:41;-18.10;-30.00;-30.00;12.80;-18.80;-18.10;-19.67;18.70;6.50
12:54:43;-18.10;-30.00;-29.97;12.80;-18.80;-18.10;-19.68;18.70;6.50
12:54:45;-18.10;-30.00;-29.94;12.80;-18.80;-18.10;-19.68;18.70;6.50
12:54:47;-18.10;-30.00;-29.95;12.80;-18.80;-18.10;-19.67;18.60;6.50
12:54:49;-18.10;-30.00;-29.99;12.80;-18.80;-18.10;-19.67;18.70;6.50
12:54:51;-18.10;-30.00;-30.00;12.80;-18.80;-18.10;-19.67;18.70;6.50
12:54:53;-18.10;-30.00;-30.00;12.80;-18.80;-18.10;-19.67;18.70;6.50
12:54:55;-18.10;-30.00;-30.00;12.80;-18.80;-18.10;-19.67;18.60;6.50
12:54:57;-18.10;-30.00;-30.00;12.80;-18.80;-18.10;-19.66;18.60;6.50
12:54:59;-18.10;-30.00;-30.01;12.80;-18.80;-18.10;-19.68;18.70;6.30
12:55:01;-18.10;-30.00;-30.01;12.80;-18.90;-18.10;-19.67;18.70;6.50
12:55:03;-18.10;-30.00;-30.02;12.80;-18.80;-18.10;-19.68;18.80;6.50
12:55:05;-18.10;-30.00;-30.01;12.80;-18.90;-18.10;-19.68;18.80;6.50
12:55:07;-18.10;-30.00;-30.01;12.80;-18.80;-18.10;-19.68;18.90;6.50
12:55:09;-18.10;-30.00;-29.99;12.80;-18.80;-18.10;-19.67;18.90;6.50
12:55:11;-18.10;-30.00;-29.98;12.80;-18.80;-18.10;-19.67;18.90;6.50
12:55:13;-18.10;-30.00;-29.95;12.80;-18.80;-18.10;-19.67;18.80;6.50
12:55:15;-18.10;-30.00;-29.94;12.80;-18.80;-18.10;-19.67;18.80;6.50
12:55:17;-18.10;-30.00;-29.96;12.80;-18.80;-18.10;-19.67;18.80;6.30
12:55:21;-18.10;-30.00;-30.00;12.80;-18.80;-18.10;-19.68;18.80;6.30
12:55:23;-18.10;-30.00;-30.01;12.80;-18.80;-18.10;-19.67;18.90;6.50
12:55:25;-18.10;-30.00;-30.02;12.80;-18.80;-18.10;-19.67;18.90;6.50
12:55:27;-18.10;-30.00;-30.00;12.80;-18.80;-18.10;-19.67;18.90;6.50
12:55:29;-18.10;-30.00;-30.00;12.80;-18.80;-18.10;-19.67;18.90;6.50
12:55:31;-18.10;-30.00;-30.01;12.80;-18.80;-18.10;-19.67;19.00;6.50
12:55:33;-18.10;-30.00;-30.01;12.80;-18.80;-18.10;-19.68;18.90;6.50
12:55:35;-18.10;-30.00;-30.01;12.80;-18.80;-18.10;-19.68;18.90;6.50
12:55:37;-18.10;-30.00;-30.01;12.80;-18.90;-18.10;-19.68;18.90;6.50
12:55:39;-18.10;-30.00;-30.01;12.70;-18.80;-18.10;-19.67;18.90;6.50
12:55:41;-18.10;-30.00;-30.03;12.80;-18.80;-18.10;-19.67;18.90;6.50
12:55:43;-18.10;-30.00;-30.02;12.80;-18.80;-18.10;-19.68;19.00;6.50
12:55:45;-18.10;-30.00;-30.01;12.80;-18.80;-18.10;-19.68;18.90;6.50
12:55:47;-18.10;-30.00;-30.01;12.80;-18.90;-18.10;-19.68;18.90;6.50
12:55:49;-18.10;-30.00;-30.00;12.80;-18.90;-18.10;-19.67;18.90;6.50
12:55:51;-18.10;-30.00;-30.00;12.80;-18.80;-18.10;-19.67;18.90;6.50
12:55:53;-18.10;-30.00;-29.99;12.80;-18.80;-18.10;-19.66;18.90;6.50
12:55:55;-18.10;-30.00;-30.00;12.70;-18.80;-18.10;-19.66;18.90;6.30
12:55:57;-18.10;-30.00;-30.01;12.80;-18.80;-18.10;-19.66;18.80;6.50
12:55:59;-18.10;-30.00;-30.00;12.80;-18.80;-18.10;-19.67;18.90;6.50
12:56:01;-18.10;-30.00;-30.00;12.80;-18.80;-18.10;-19.67;19.00;6.50
12:56:03;-18.10;-30.00;-30.00;12.80;-18.90;-18.10;-19.67;19.00;6.50
12:56:05;-18.10;-30.00;-30.00;12.80;-18.90;-18.10;-19.67;19.00;6.50
12:56:07;-18.10;-30.00;-30.00;12.80;-18.90;-18.10;-19.68;19.00;6.50
12:56:09;-18.10;-30.00;-30.00;12.80;-18.80;-18.10;-19.68;19.00;6.50
12:56:11;-18.10;-30.00;-29.98;12.80;-18.80;-18.10;-19.67;19.00;6.50
12:56:13;-18.10;-30.00;-29.99;12.70;-18.80;-18.10;-19.67;18.90;6.50
12:56:15;-18.10;-30.00;-30.00;12.80;-18.90;-18.10;-19.68;18.90;6.50
12:56:17;-18.10;-30.00;-30.00;12.80;-18.90;-18.10;-19.68;18.90;6.50
12:56:19;-18.10;-30.00;-30.01;12.70;-18.80;-18.10;-19.67;18.90;6.50
12:56:21;-18.10;-30.00;-30.01;12.80;-18.80;-18.10;-19.67;18.80;6.50
12:56:23;-18.10;-30.00;-30.01;12.80;-18.80;-18.10;-19.67;18.90;6.50
12:56:25;-18.10;-30.00;-30.01;12.70;-18.80;-18.10;-19.66;18.90;6.50
12:56:27;-18.10;-30.00;-30.00;12.70;-18.90;-18.10;-19.67;18.80;6.50
12:56:29;-18.10;-30.00;-29.99;12.70;-18.90;-18.10;-19.67;18.80;6.50
12:56:31;-18.10;-30.00;-29.99;12.70;-18.90;-18.10;-19.66;18.80;6.40
12:56:33;-18.10;-30.00;-29.98;12.70;-18.80;-18.10;-19.67;18.90;6.50
12:56:35;-18.10;-30.00;-29.99;12.80;-18.90;-18.10;-19.67;18.90;6.50
12:56:37;-18.10;-30.00;-30.00;12.70;-18.90;-18.10;-19.66;18.90;6.50
12:56:40;-18.10;-30.00;-30.00;12.70;-18.80;-18.10;-19.66;19.00;6.50
12:56:41;-18.10;-30.00;-30.01;12.70;-18.80;-18.10;-19.67;19.00;6.50
12:56:43;-18.10;-30.00;-30.01;12.70;-18.90;-18.10;-19.66;19.00;6.50
12:56:45;-18.10;-30.00;-30.01;12.70;-18.80;-18.10;-19.66;19.00;6.50
12:56:47;-18.10;-30.00;-30.00;12.70;-18.80;-18.10;-19.64;19.00;6.50
12:56:49;-18.10;-30.00;-30.00;12.70;-18.80;-18.10;-19.65;19.00;6.50
12:56:51;-18.10;-30.00;-30.00;12.70;-18.90;-18.10;-19.66;19.00;6.30
12:56:53;-18.10;-30.00;-30.00;12.70;-18.90;-18.10;-19.67;19.00;6.50
12:56:55;-18.10;-30.00;-30.00;12.70;-18.90;-18.10;-19.68;19.00;6.50
12:56:57;-18.10;-30.00;-30.00;12.70;-18.80;-18.10;-19.68;19.00;6.50
12:56:59;-18.10;-30.00;-30.01;12.70;-18.90;-18.10;-19.67;18.90;6.50
12:57:01;-18.10;-30.00;-30.01;12.70;-18.80;-18.10;-19.67;18.90;6.40
12:57:03;-18.10;-30.00;-30.02;12.70;-18.90;-18.10;-19.67;18.90;6.50
12:57:05;-18.10;-30.00;-30.01;12.70;-18.90;-18.10;-19.67;18.80;6.50
12:57:10;-18.10;-30.00;-30.00;12.70;-18.80;-18.10;-19.66;18.70;6.50
12:57:11;-18.10;-30.00;-30.02;12.70;-18.80;-18.10;-19.67;18.70;6.40
12:57:13;-18.10;-30.00;-30.01;12.70;-18.80;-18.10;-19.67;18.70;6.50
12:57:16;-18.10;-30.00;-29.99;12.70;-18.80;-18.10;-19.66;18.70;6.50
12:57:18;-18.10;-30.00;-29.99;12.70;-18.80;-18.10;-19.65;18.70;6.50
12:57:20;-18.10;-30.00;-29.99;12.70;-18.80;-18.10;-19.65;18.70;6.50
12:57:22;-18.10;-30.00;-30.00;12.70;-18.80;-18.10;-19.65;18.70;6.50
12:57:24;-18.10;-30.00;-30.00;12.70;-18.90;-18.10;-19.66;18.70;6.50
12:57:26;-18.10;-30.00;-30.00;12.70;-18.90;-18.10;-19.66;18.70;6.50
12:57:28;-18.10;-30.00;-30.00;12.70;-18.90;-18.10;-19.67;18.70;6.50
12:57:30;-18.10;-30.00;-30.00;12.70;-18.80;-18.10;-19.66;18.70;6.40
12:57:32;-18.10;-30.00;-30.00;12.70;-18.80;-18.10;-19.67;18.80;6.50
12:57:34;-18.10;-30.00;-30.00;12.70;-18.80;-18.10;-19.66;18.80;6.50
12:57:36;-18.10;-30.00;-30.00;12.70;-18.80;-18.10;-19.65;19.00;6.50
12:57:38;-18.10;-30.00;-30.00;12.70;-18.90;-18.10;-19.64;19.00;6.50
12:57:40;-18.10;-30.00;-30.00;12.70;-18.90;-18.10;-19.64;19.00;6.40
12:57:42;-18.10;-30.00;-29.98;12.70;-18.80;-18.10;-19.64;19.00;6.50
12:57:44;-18.10;-30.00;-29.98;12.70;-18.80;-18.10;-19.64;18.90;6.50
12:57:46;-18.10;-30.00;-29.97;12.70;-18.90;-18.10;-19.65;18.90;6.40
12:57:48;-18.10;-30.00;-29.98;12.70;-18.80;-18.10;-19.65;18.90;6.40
12:57:50;-18.10;-30.00;-29.98;12.70;-18.80;-18.10;-19.65;18.90;6.40
12:57:52;-18.10;-30.00;-29.98;12.70;-18.80;-18.10;-19.65;18.90;6.50
12:57:54;-18.10;-30.00;-29.99;12.70;-18.80;-18.10;-19.66;18.90;6.40
12:57:56;-18.10;-30.00;-30.00;12.70;-18.80;-18.10;-19.66;18.90;6.50
12:57:58;-18.10;-30.00;-30.00;12.70;-18.90;-18.10;-19.66;18.90;6.50
12:58:00;-18.10;-30.00;-30.00;12.70;-18.80;-18.10;-19.65;18.90;6.50
12:58:02;-18.10;-30.00;-29.99;12.70;-18.80;-18.10;-19.66;18.90;6.30
12:58:04;-18.10;-30.00;-29.99;12.70;-18.80;-18.10;-19.65;18.90;6.50
12:58:06;-18.10;-30.00;-30.00;12.70;-18.80;-18.10;-19.65;18.90;6.50
12:58:08;-18.10;-30.00;-30.01;12.70;-18.80;-18.10;-19.65;18.90;6.50
12:58:10;-18.10;-30.00;-30.01;12.70;-18.90;-18.10;-19.66;18.90;6.30
12:58:12;-18.10;-30.00;-30.00;12.70;-18.80;-18.10;-19.65;18.90;6.30
12:58:14;-18.10;-30.00;-30.00;12.70;-18.90;-18.10;-19.65;18.90;6.40
12:58:16;-18.10;-30.00;-29.99;12.70;-18.80;-18.10;-19.65;19.00;6.50
12:58:18;-18.10;-30.00;-29.98;12.70;-18.80;-18.10;-19.64;19.00;6.50
12:58:20;-18.10;-30.00;-29.98;12.70;-18.90;-18.10;-19.64;19.00;6.50
12:58:22;-18.10;-30.00;-29.99;12.70;-18.80;-18.10;-19.65;19.00;6.50
12:58:24;-18.10;-30.00;-30.00;12.70;-18.90;-18.10;-19.64;19.00;6.30
12:58:26;-18.10;-30.00;-29.98;12.70;-18.90;-18.10;-19.65;19.00;6.30
12:58:28;-18.10;-30.00;-29.98;12.70;-18.90;-18.10;-19.66;19.00;6.30
12:58:30;-18.10;-30.00;-29.99;12.70;-18.80;-18.10;-19.65;19.00;6.30
12:58:32;-18.10;-30.00;-29.99;12.70;-18.80;-18.10;-19.64;19.00;6.30
12:58:34;-18.10;-30.00;-29.98;12.70;-18.90;-18.10;-19.64;18.90;6.30
12:58:36;-18.10;-30.00;-29.98;12.70;-18.80;-18.10;-19.65;18.90;6.30
12:58:38;-18.10;-30.00;-29.99;12.70;-18.80;-18.10;-19.64;18.90;6.40
12:58:40;-18.10;-30.00;-29.99;12.70;-18.80;-18.10;-19.64;18.90;6.30
12:58:42;-18.10;-30.00;-30.00;12.70;-18.80;-18.10;-19.64;18.90;6.50
12:58:44;-18.10;-30.00;-30.00;12.70;-18.80;-18.10;-19.64;18.90;6.50
12:58:46;-18.10;-30.00;-29.99;12.70;-18.80;-18.10;-19.64;18.90;6.50
12:58:48;-18.10;-30.00;-29.98;12.70;-18.80;-18.10;-19.64;18.90;6.50
12:58:50;-18.10;-30.00;-29.98;12.70;-18.80;-18.10;-19.65;18.90;6.50
12:58:52;-18.10;-30.00;-29.97;12.70;-18.80;-18.10;-19.65;19.00;6.40
12:58:54;-18.10;-30.00;-29.97;12.70;-18.80;-18.10;-19.64;19.00;6.50
12:58:58;-18.10;-30.00;-29.99;12.70;-18.80;-18.10;-19.64;19.10;6.30
12:59:00;-18.10;-30.00;-30.00;12.70;-18.90;-18.10;-19.64;19.10;6.30
12:59:02;-18.10;-30.00;-30.00;12.70;-18.80;-18.10;-19.63;19.10;6.50
12:59:04;-18.10;-30.00;-30.01;12.70;-18.80;-18.10;-19.63;19.00;6.30
12:59:06;-18.10;-30.00;-30.02;12.70;-18.80;-18.10;-19.63;19.00;6.30
12:59:08;-18.10;-30.00;-30.00;12.70;-18.80;-18.10;-19.62;18.90;6.30
12:59:10;-18.10;-30.00;-30.00;12.70;-18.80;-18.10;-19.63;18.90;6.50
12:59:12;-18.10;-30.00;-30.01;12.70;-18.80;-18.10;-19.63;18.90;6.30
12:59:14;-18.10;-30.00;-30.00;12.60;-18.80;-18.10;-19.64;18.90;6.30
12:59:16;-18.10;-30.00;-30.00;12.70;-18.80;-18.10;-19.63;18.90;6.30
12:59:18;-18.10;-30.00;-30.00;12.70;-18.80;-18.10;-19.63;18.90;6.30
12:59:20;-18.10;-30.00;-30.01;12.60;-18.90;-18.10;-19.63;18.90;6.30
12:59:22;-18.10;-30.00;-30.00;12.60;-18.90;-18.10;-19.63;18.90;6.50
12:59:24;-18.10;-30.00;-30.01;12.60;-18.80;-18.10;-19.64;18.90;6.30
12:59:26;-18.10;-30.00;-30.00;12.60;-18.80;-18.10;-19.63;18.90;6.30
12:59:28;-18.10;-30.00;-29.98;12.60;-18.80;-18.10;-19.63;18.90;6.30
12:59:30;-18.10;-30.00;-29.99;12.60;-18.80;-18.10;-19.63;18.90;6.30
12:59:32;-18.10;-30.00;-30.00;12.60;-18.80;-18.10;-19.63;18.90;6.50
12:59:34;-18.10;-30.00;-30.00;12.60;-18.80;-18.10;-19.63;18.90;6.30
12:59:36;-18.10;-30.00;-30.00;12.60;-18.80;-18.10;-19.62;19.00;6.50
12:59:38;-18.10;-30.00;-30.00;12.70;-18.90;-18.10;-19.62;19.00;6.40
12:59:40;-18.10;-30.00;-30.00;12.60;-18.90;-18.10;-19.62;19.00;6.30
12:59:42;-18.10;-30.00;-29.98;12.60;-18.90;-18.10;-19.63;19.00;6.30
12:59:44;-18.10;-30.00;-29.95;12.60;-18.80;-18.10;-19.64;19.00;6.30
12:59:46;-18.10;-30.00;-29.98;12.60;-18.80;-18.10;-19.63;19.00;6.30
12:59:48;-18.10;-30.00;-30.00;12.60;-18.80;-18.10;-19.63;19.00;6.30
12:59:50;-18.10;-30.00;-30.02;12.60;-18.90;-18.10;-19.62;19.00;6.30
12:59:52;-18.10;-30.00;-30.00;12.60;-18.80;-18.10;-19.61;19.00;6.30
12:59:54;-18.10;-30.00;-30.00;12.60;-18.80;-18.10;-19.61;18.90;6.30
12:59:56;-18.10;-30.00;-30.01;12.60;-18.80;-18.10;-19.62;18.90;6.30
12:59:58;-18.10;-30.00;-30.01;12.60;-18.90;-18.10;-19.62;18.80;6.30
13:00:00;-18.10;-30.00;-30.00;12.60;-18.90;-18.10;-19.62;18.80;6.30
13:00:02;-18.10;-30.00;-30.00;12.60;-18.90;-18.10;-19.62;18.80;6.30
13:00:04;-18.10;-30.00;-30.02;12.60;-18.80;-18.10;-19.62;18.80;6.30
13:00:06;-18.10;-30.00;-30.02;12.60;-18.90;-18.10;-19.61;18.80;6.30
13:00:08;-18.10;-30.00;-30.03;12.60;-18.80;-18.10;-19.61;18.80;6.30
13:00:10;-18.10;-30.00;-30.03;12.60;-18.80;-18.10;-19.63;18.80;6.50
13:00:12;-18.10;-30.00;-30.03;12.60;-18.80;-18.10;-19.63;18.90;6.30
13:00:14;-18.10;-30.00;-30.02;12.60;-18.90;-18.10;-19.63;18.80;6.30
13:00:16;-18.10;-30.00;-29.98;12.60;-18.90;-18.10;-19.63;18.80;6.30
13:00:18;-18.10;-30.00;-29.98;12.60;-18.80;-18.10;-19.63;18.90;6.30
13:00:20;-18.10;-30.00;-29.99;12.60;-18.90;-18.10;-19.63;18.90;6.50
13:00:22;-18.10;-30.00;-29.99;12.60;-18.80;-18.10;-19.62;18.90;6.30
13:00:24;-18.10;-30.00;-30.00;12.60;-18.80;-18.10;-19.62;18.90;6.30
13:00:26;-18.10;-30.00;-30.00;12.60;-18.80;-18.10;-19.62;18.90;6.30
13:00:28;-18.10;-30.00;-30.01;12.60;-18.90;-18.10;-19.61;18.80;6.30
13:00:30;-18.10;-30.00;-30.01;12.60;-18.80;-18.10;-19.61;18.70;6.20
13:00:32;-18.10;-30.00;-30.01;12.60;-18.80;-18.10;-19.61;18.70;6.30
13:00:34;-18.10;-30.00;-30.00;12.60;-18.80;-18.10;-19.61;18.70;6.30
13:00:36;-18.10;-30.00;-30.00;12.60;-18.80;-18.10;-19.62;18.70;6.30
13:00:38;-18.10;-30.00;-29.99;12.50;-18.80;-18.10;-19.61;18.80;6.30
13:00:40;-18.10;-30.00;-30.00;12.60;-18.80;-18.10;-19.61;18.80;6.30
13:00:42;-18.10;-30.00;-30.01;12.50;-18.80;-18.10;-19.61;18.90;6.30
13:00:44;-18.10;-30.00;-30.02;12.50;-18.80;-18.10;-19.60;18.90;6.30
13:00:46;-18.10;-30.00;-30.01;12.50;-18.80;-18.10;-19.61;18.90;6.30
13:00:52;-18.10;-30.00;-29.99;12.60;-18.80;-18.10;-19.61;18.90;6.30
13:00:54;-18.10;-30.00;-29.98;12.50;-18.80;-18.10;-19.61;18.90;6.30
13:00:56;-18.10;-30.00;-29.99;12.50;-18.80;-18.10;-19.60;18.90;6.30
13:00:58;-18.10;-30.00;-30.00;12.60;-18.80;-18.10;-19.62;19.00;6.30
13:01:00;-18.10;-30.00;-30.00;12.60;-18.80;-18.10;-19.62;19.00;6.30
13:01:02;-18.10;-30.00;-29.98;12.50;-18.80;-18.10;-19.61;19.10;6.30
13:01:04;-18.10;-30.00;-29.99;12.50;-18.80;-18.10;-19.61;19.20;6.30
13:01:06;-18.10;-30.00;-30.01;12.50;-18.80;-18.10;-19.61;19.20;6.30
13:01:08;-18.10;-30.00;-30.01;12.50;-18.80;-18.10;-19.60;19.20;6.30
13:01:10;-18.10;-30.00;-30.01;12.50;-18.80;-18.10;-19.60;19.20;6.30
13:01:12;-18.10;-30.00;-30.01;12.50;-18.90;-18.00;-19.61;19.20;6.30
13:01:14;-18.10;-30.00;-30.01;12.50;-18.80;-18.10;-19.61;19.10;6.20
13:01:16;-18.10;-30.00;-30.02;12.50;-18.80;-18.10;-19.61;19.10;6.20
13:01:18;-18.10;-30.00;-30.00;12.60;-18.80;-18.10;-19.61;19.10;6.30
13:01:20;-18.10;-30.00;-30.00;12.50;-18.90;-18.10;-19.61;19.10;6.30
13:01:22;-18.10;-30.00;-30.00;12.50;-18.80;-18.10;-19.61;19.10;6.30
13:01:24;-18.10;-30.00;-30.01;12.50;-18.80;-18.10;-19.62;19.10;6.30
13:01:26;-18.10;-30.00;-30.03;12.50;-18.80;-18.10;-19.62;19.10;6.30
13:01:28;-18.10;-30.00;-30.02;12.50;-18.90;-18.10;-19.62;19.10;6.30
13:01:30;-18.10;-30.00;-30.02;12.50;-18.80;-18.10;-19.62;19.10;6.30
13:01:32;-18.10;-30.00;-30.02;12.50;-18.80;-18.10;-19.63;19.10;6.30
13:01:34;-18.10;-30.00;-30.02;12.50;-18.80;-18.10;-19.63;19.10;6.20
13:01:36;-18.10;-30.00;-30.01;12.50;-18.80;-18.10;-19.63;19.20;6.30
13:01:38;-18.10;-30.00;-29.97;12.50;-18.80;-18.10;-19.63;19.20;6.30
13:01:40;-18.10;-30.00;-29.95;12.50;-18.80;-18.10;-19.64;19.30;6.30
13:01:42;-18.10;-30.00;-29.98;12.50;-18.80;-18.10;-19.62;19.20;6.30
13:01:44;-18.10;-30.00;-30.00;12.50;-18.90;-18.10;-19.61;19.20;6.30
13:01:46;-18.10;-30.00;-30.00;12.50;-18.90;-18.10;-19.61;19.20;6.30
13:01:48;-18.10;-30.00;-30.01;12.50;-18.80;-18.10;-19.61;19.20;6.30
13:01:50;-18.10;-30.00;-30.01;12.50;-18.80;-18.10;-19.60;19.20;6.30
13:01:52;-18.10;-30.00;-30.02;12.50;-18.80;-18.10;-19.61;19.20;6.30
13:01:54;-18.10;-30.00;-30.01;12.50;-18.80;-18.10;-19.62;19.30;6.30
13:01:56;-18.10;-30.00;-30.01;12.50;-18.80;-18.10;-19.62;19.20;6.30
13:01:58;-18.10;-30.00;-30.01;12.50;-18.80;-18.10;-19.63;19.20;6.30
13:02:00;-18.10;-30.00;-30.02;12.60;-18.90;-18.10;-19.63;19.20;6.30
13:02:02;-18.10;-30.00;-30.01;12.50;-18.80;-18.10;-19.63;19.10;6.30
13:02:04;-18.10;-30.00;-29.99;12.50;-18.80;-18.10;-19.63;19.10;6.30
13:02:06;-18.10;-30.00;-29.99;12.50;-18.80;-18.10;-19.62;19.10;6.30
13:02:08;-18.10;-30.00;-29.99;12.50;-18.80;-18.10;-19.61;19.00;6.30
13:02:10;-18.10;-30.00;-30.00;12.50;-18.90;-18.10;-19.62;19.00;6.30
13:02:12;-18.10;-30.00;-30.01;12.50;-18.90;-18.10;-19.62;19.00;6.30
13:02:14;-18.10;-30.00;-30.02;12.50;-18.90;-18.10;-19.62;19.00;6.30
13:02:16;-18.10;-30.00;-30.02;12.50;-18.80;-18.10;-19.62;19.10;6.30
13:02:18;-18.10;-30.00;-30.02;12.50;-18.80;-18.10;-19.63;19.10;6.30
13:02:20;-18.10;-30.00;-30.00;12.50;-18.80;-18.10;-19.64;19.10;6.30
13:02:22;-18.10;-30.00;-29.98;12.50;-18.80;-18.10;-19.64;19.10;6.30
13:02:24;-18.10;-30.00;-29.97;12.50;-18.90;-18.10;-19.63;19.10;6.30
13:02:26;-18.10;-30.00;-29.99;12.50;-18.90;-18.10;-19.63;19.20;6.30
13:02:28;-18.10;-30.00;-29.99;12.50;-18.80;-18.10;-19.63;19.10;6.30
13:02:30;-18.10;-30.00;-29.99;12.50;-18.80;-18.10;-19.63;19.20;6.30
13:02:32;-18.10;-30.00;-30.02;12.50;-18.90;-18.10;-19.63;19.20;6.30
13:02:34;-18.10;-30.00;-30.04;12.50;-18.80;-18.10;-19.63;19.10;6.30
13:02:36;-18.10;-30.00;-30.03;12.50;-18.90;-18.10;-19.63;19.00;6.30
13:02:40;-18.10;-30.00;-30.02;12.50;-18.80;-18.10;-19.63;19.00;6.30
13:02:42;-18.10;-30.00;-30.01;12.50;-18.80;-18.10;-19.63;19.00;6.30
13:02:44;-18.10;-30.00;-30.02;12.50;-18.80;-18.10;-19.64;19.00;6.30
13:02:46;-18.10;-30.00;-30.02;12.50;-18.90;-18.10;-19.64;19.00;6.30
13:02:48;-18.10;-30.00;-30.01;12.50;-18.80;-18.10;-19.63;19.00;6.30
13:02:50;-18.10;-30.00;-30.00;12.50;-18.90;-18.10;-19.63;19.00;6.30
13:02:52;-18.10;-30.00;-29.99;12.50;-18.80;-18.10;-19.63;19.00;6.30
13:02:54;-18.10;-30.00;-30.00;12.50;-18.80;-18.10;-19.63;18.90;6.30
13:02:56;-18.10;-30.00;-30.00;12.50;-18.80;-18.10;-19.63;18.90;6.30
13:02:58;-18.10;-30.00;-30.00;12.50;-18.80;-18.10;-19.63;18.90;6.30
13:03:00;-18.10;-30.00;-29.98;12.50;-18.80;-18.10;-19.63;18.90;6.30
13:03:02;-18.10;-30.00;-29.94;12.50;-18.90;-18.10;-19.63;19.00;6.30
13:03:04;-18.10;-30.00;-29.95;12.50;-18.80;-18.10;-19.63;19.00;6.30
13:03:06;-18.10;-30.00;-29.98;12.50;-18.80;-18.10;-19.63;19.00;6.30
13:03:08;-18.10;-30.00;-29.98;12.50;-18.80;-18.10;-19.64;18.90;6.30
13:03:10;-18.10;-30.00;-29.99;12.50;-18.80;-18.10;-19.63;18.80;6.30
13:03:12;-18.10;-30.00;-30.00;12.50;-18.80;-18.10;-19.63;18.70;6.30
13:03:14;-18.10;-30.00;-30.00;12.50;-18.80;-18.10;-19.63;18.70;6.30
13:03:16;-18.10;-30.00;-30.00;12.50;-18.80;-18.10;-19.63;18.70;6.30
13:03:18;-18.10;-30.00;-30.00;12.50;-18.80;-18.10;-19.63;18.80;6.20
13:03:20;-18.10;-30.00;-30.00;12.50;-18.80;-18.10;-19.63;18.80;6.30
13:03:22;-18.10;-30.00;-30.02;12.50;-18.80;-18.10;-19.63;18.80;6.30
13:03:24;-18.10;-30.00;-30.02;12.50;-18.90;-18.10;-19.64;18.80;6.30
13:03:26;-18.10;-30.00;-30.02;12.50;-18.80;-18.10;-19.64;18.90;6.30
13:03:28;-18.10;-30.00;-29.99;12.50;-18.80;-18.10;-19.64;18.90;6.20
13:03:30;-18.10;-30.00;-30.00;12.50;-18.80;-18.10;-19.63;18.90;6.30
13:03:32;-18.10;-30.00;-30.01;12.50;-18.80;-18.10;-19.64;18.90;6.20
13:03:34;-18.10;-30.00;-30.01;12.50;-18.90;-18.10;-19.63;18.90;6.30
13:03:36;-18.10;-30.00;-30.01;12.50;-18.90;-18.10;-19.63;19.00;6.30
13:03:38;-18.10;-30.00;-30.01;12.50;-18.90;-18.10;-19.63;19.00;6.30
13:03:40;-18.10;-30.00;-30.02;12.50;-18.80;-18.10;-19.63;19.00;6.30
13:03:42;-18.10;-30.00;-30.01;12.50;-18.80;-18.10;-19.63;19.00;6.30
13:03:44;-18.10;-30.00;-30.02;12.50;-18.90;-18.10;-19.63;19.10;6.30
13:03:46;-18.10;-30.00;-30.03;12.50;-18.90;-18.10;-19.62;19.10;6.30
13:03:48;-18.10;-30.00;-30.02;12.50;-18.90;-18.10;-19.62;19.00;6.40
13:03:50;-18.10;-30.00;-30.02;12.50;-18.80;-18.10;-19.62;19.10;6.30
13:03:52;-18.10;-30.00;-30.01;12.50;-18.90;-18.10;-19.62;19.10;6.30
13:03:54;-18.10;-30.00;-30.01;12.50;-18.90;-18.10;-19.63;19.10;6.30
13:03:56;-18.10;-30.00;-29.99;12.50;-18.80;-18.10;-19.63;19.10;6.30
13:03:58;-18.10;-30.00;-30.00;12.50;-18.90;-18.10;-19.63;19.10;6.30
13:04:00;-18.10;-30.00;-30.00;12.50;-18.90;-18.10;-19.63;19.10;6.30
13:04:02;-18.10;-30.00;-30.00;12.50;-18.90;-18.10;-19.63;19.20;6.30
13:04:04;-18.10;-30.00;-30.00;12.50;-18.80;-18.10;-19.63;19.10;6.30
13:04:06;-18.10;-30.00;-29.99;12.50;-18.80;-18.10;-19.62;19.10;6.30
13:04:08;-18.10;-30.00;-29.99;12.50;-18.80;-18.10;-19.62;19.10;6.30
13:04:10;-18.10;-30.00;-30.00;12.50;-18.90;-18.10;-19.63;19.00;6.30
13:04:12;-18.10;-30.00;-30.01;12.50;-18.90;-18.10;-19.63;19.00;6.30
13:04:14;-18.10;-30.00;-30.00;12.50;-18.80;-18.10;-19.63;19.00;6.20
13:04:16;-18.10;-30.00;-30.00;12.50;-18.90;-18.10;-19.62;19.00;6.30
13:04:18;-18.10;-30.00;-30.00;12.50;-18.90;-18.10;-19.62;18.90;6.30
13:04:20;-18.10;-30.00;-30.00;12.50;-18.90;-18.10;-19.62;18.90;6.30
13:04:22;-18.10;-30.00;-29.96;12.50;-18.80;-18.10;-19.62;18.90;6.30
13:04:24;-18.10;-30.00;-29.95;12.50;-18.90;-18.10;-19.63;18.90;6.30
13:04:26;-18.10;-30.00;-29.99;12.50;-18.90;-18.10;-19.61;18.90;6.30
13:04:30;-18.10;-30.00;-30.00;12.50;-18.80;-18.10;-19.61;18.90;6.20
13:04:32;-18.10;-30.00;-30.00;12.50;-18.90;-18.10;-19.61;18.90;6.30
13:04:34;-18.10;-30.00;-30.00;12.50;-18.80;-18.10;-19.62;18.90;6.30
13:04:36;-18.10;-30.00;-30.00;12.50;-18.90;-18.10;-19.62;18.90;6.30
13:04:38;-18.10;-30.00;-30.00;12.50;-18.80;-18.10;-19.61;18.90;6.30
13:04:40;-18.10;-30.00;-30.01;12.50;-18.90;-18.10;-19.61;19.00;6.20
13:04:42;-18.10;-30.00;-30.01;12.50;-18.90;-18.10;-19.63;19.00;6.20
13:04:44;-18.10;-30.00;-30.01;12.50;-18.90;-18.10;-19.62;19.00;6.30
13:04:46;-18.10;-30.00;-30.00;12.50;-18.80;-18.10;-19.62;19.00;6.20
13:04:48;-18.10;-30.00;-29.98;12.50;-18.90;-18.10;-19.63;19.00;6.30
13:04:50;-18.10;-30.00;-29.99;12.50;-18.80;-18.10;-19.62;19.00;6.30
13:04:52;-18.10;-30.00;-30.00;12.50;-18.80;-18.10;-19.63;19.00;6.30
13:04:54;-18.10;-30.00;-30.01;12.50;-18.80;-18.10;-19.64;19.00;6.30
13:04:56;-18.10;-30.00;-30.01;12.50;-18.80;-18.10;-19.64;19.00;6.30
13:04:58;-18.10;-30.00;-30.01;12.50;-18.90;-18.10;-19.64;19.00;6.30
13:05:00;-18.10;-30.00;-30.02;12.50;-18.90;-18.10;-19.64;19.00;6.30
13:05:02;-18.10;-30.00;-30.03;12.50;-18.90;-18.10;-19.63;19.00;6.30
13:05:04;-18.10;-30.00;-29.99;12.50;-18.80;-18.10;-19.63;19.00;6.30
13:05:06;-18.10;-30.00;-29.99;12.50;-18.90;-18.10;-19.63;19.00;6.30
13:05:08;-18.10;-30.00;-30.00;12.50;-18.90;-18.10;-19.63;18.90;6.30
13:05:11;-18.10;-30.00;-30.00;12.50;-18.90;-18.20;-19.63;19.00;6.30
13:05:12;-18.10;-30.00;-30.00;12.50;-18.90;-18.10;-19.63;19.00;6.30
13:05:14;-18.10;-30.00;-30.01;12.50;-18.90;-18.10;-19.63;19.00;6.30
13:05:16;-18.10;-30.00;-30.01;12.50;-18.80;-18.10;-19.63;19.10;6.30
13:05:18;-18.10;-30.00;-30.00;12.50;-18.90;-18.10;-19.64;19.10;6.30
13:05:20;-18.10;-30.00;-30.00;12.50;-18.90;-18.10;-19.63;19.10;6.30
13:05:22;-18.10;-30.00;-30.00;12.50;-18.90;-18.10;-19.63;19.10;6.30
13:05:24;-18.10;-30.00;-30.01;12.50;-18.90;-18.10;-19.63;19.10;6.30
13:05:27;-18.10;-30.00;-30.00;12.50;-18.90;-18.10;-19.63;19.10;6.30
13:05:28;-18.10;-30.00;-29.99;12.50;-18.90;-18.10;-19.63;19.10;6.30
13:05:30;-18.10;-30.00;-30.01;12.50;-18.90;-18.10;-19.62;19.00;6.30
13:05:33;-18.10;-30.00;-30.01;12.50;-18.90;-18.10;-19.62;19.00;6.30
13:05:35;-18.10;-30.00;-30.01;12.50;-18.90;-18.10;-19.62;19.00;6.30
13:05:37;-18.10;-30.00;-30.02;12.50;-18.90;-18.10;-19.62;19.00;6.30
13:05:39;-18.10;-30.00;-30.02;12.50;-18.90;-18.10;-19.63;19.00;6.30
13:05:41;-18.10;-30.00;-30.02;12.50;-18.90;-18.10;-19.63;19.00;6.30
13:05:43;-18.10;-30.00;-30.02;12.50;-18.90;-18.10;-19.63;19.00;6.30
13:05:45;-18.10;-30.00;-30.02;12.50;-18.80;-18.20;-19.63;19.00;6.30
13:05:47;-18.10;-30.00;-30.01;12.50;-18.80;-18.20;-19.63;18.90;6.30
13:05:49;-18.10;-30.00;-30.01;12.50;-18.90;-18.10;-19.62;19.00;6.40
13:05:51;-18.10;-30.00;-30.00;12.50;-18.90;-18.10;-19.62;18.90;6.30
13:05:53;-18.10;-30.00;-30.00;12.50;-18.90;-18.10;-19.62;18.90;6.30
13:05:55;-18.10;-30.00;-30.00;12.50;-18.90;-18.10;-19.61;18.90;6.30
13:05:57;-18.10;-30.00;-30.00;12.50;-18.90;-18.10;-19.61;18.90;6.30
13:05:59;-18.10;-30.00;-30.01;12.50;-18.90;-18.10;-19.61;18.90;6.30
13:06:01;-18.10;-30.00;-30.02;12.50;-18.90;-18.10;-19.61;18.80;6.30
13:06:03;-18.10;-30.00;-30.01;12.50;-18.90;-18.10;-19.61;18.80;6.30
13:06:05;-18.10;-30.00;-30.01;12.50;-18.80;-18.10;-19.61;18.70;6.30
13:06:07;-18.10;-30.00;-30.01;12.50;-18.90;-18.10;-19.61;18.80;6.30
13:06:09;-18.10;-30.00;-30.02;12.50;-18.80;-18.10;-19.60;18.80;6.30
13:06:11;-18.10;-30.00;-30.01;12.50;-18.90;-18.10;-19.60;18.70;6.30
13:06:13;-18.10;-30.00;-30.00;12.50;-18.90;-18.10;-19.60;18.70;6.30
13:06:15;-18.10;-30.00;-30.00;12.50;-18.80;-18.10;-19.60;18.70;6.30
13:06:17;-18.10;-30.00;-30.01;12.50;-18.80;-18.10;-19.60;18.80;6.30
13:06:21;-18.10;-30.00;-29.98;12.50;-18.90;-18.10;-19.60;18.80;6.30
13:06:23;-18.10;-30.00;-29.98;12.50;-18.80;-18.20;-19.60;18.80;6.30
13:06:25;-18.10;-30.00;-29.99;12.50;-18.90;-18.10;-19.61;18.70;6.30
13:06:27;-18.10;-30.00;-30.01;12.50;-18.90;-18.10;-19.61;18.70;6.30
13:06:29;-18.10;-30.00;-30.01;12.50;-18.80;-18.10;-19.60;18.70;6.20
13:06:31;-18.10;-30.00;-29.98;12.50;-18.90;-18.10;-19.60;18.70;6.30
13:06:33;-18.10;-30.00;-29.97;12.50;-18.90;-18.10;-19.60;18.60;6.30
13:06:35;-18.10;-30.00;-29.98;12.50;-18.80;-18.10;-19.60;18.70;6.30
13:06:37;-18.10;-30.00;-30.00;12.50;-18.80;-18.10;-19.59;18.70;6.30
13:06:39;-18.10;-30.00;-30.01;12.50;-18.90;-18.10;-19.60;18.70;6.30
13:06:41;-18.10;-30.00;-30.01;12.50;-18.90;-18.10;-19.60;18.70;6.30
13:06:43;-18.10;-30.00;-30.02;12.50;-18.90;-18.20;-19.60;18.70;6.30
13:06:45;-18.10;-30.00;-30.01;12.50;-18.80;-18.10;-19.60;18.70;6.30
13:06:47;-18.10;-30.00;-30.00;12.50;-18.90;-18.20;-19.60;18.80;6.30
13:06:49;-18.10;-30.00;-30.01;12.50;-18.90;-18.10;-19.59;18.80;6.30
13:06:51;-18.10;-30.00;-30.02;12.50;-18.80;-18.10;-19.58;18.80;6.30
13:06:53;-18.10;-30.00;-30.00;12.50;-18.90;-18.10;-19.58;18.80;6.30
13:06:55;-18.10;-30.00;-30.01;12.50;-18.90;-18.10;-19.58;18.80;6.30
13:06:57;-18.10;-30.00;-30.00;12.50;-18.80;-18.10;-19.58;18.80;6.30
13:06:59;-18.10;-30.00;-29.99;12.50;-18.90;-18.10;-19.58;18.80;6.30
13:07:01;-18.10;-30.00;-29.98;12.50;-18.90;-18.10;-19.58;18.80;6.30
13:07:03;-18.10;-30.00;-30.00;12.50;-18.90;-18.10;-19.57;18.70;6.30
13:07:05;-18.10;-30.00;-30.00;12.50;-18.80;-18.10;-19.58;18.70;6.30
13:07:07;-18.10;-30.00;-30.00;12.50;-18.90;-18.20;-19.58;18.70;6.30
13:07:09;-18.10;-30.00;-30.00;12.50;-18.90;-18.10;-19.58;18.70;6.30
13:07:11;-18.10;-30.00;-29.98;12.50;-18.90;-18.20;-19.58;18.70;6.30
13:07:13;-18.10;-30.00;-29.95;12.50;-18.90;-18.10;-19.58;18.70;6.30
13:07:15;-18.10;-30.00;-29.98;12.50;-18.80;-18.10;-19.57;18.70;6.30
13:07:17;-18.10;-30.00;-29.98;12.50;-18.90;-18.10;-19.57;18.70;6.30
13:07:19;-18.10;-30.00;-30.00;12.50;-18.80;-18.10;-19.57;18.70;6.30
13:07:21;-18.10;-30.00;-29.98;12.50;-18.90;-18.20;-19.58;18.80;6.30
13:07:23;-18.10;-30.00;-29.97;12.50;-18.80;-18.20;-19.57;18.80;6.30
13:07:25;-18.10;-30.00;-29.99;12.50;-18.90;-18.20;-19.57;18.80;6.30
13:07:27;-18.10;-30.00;-30.00;12.50;-18.90;-18.20;-19.57;18.70;6.30
13:07:29;-18.10;-30.00;-30.01;12.50;-18.80;-18.20;-19.56;18.70;6.30
13:07:31;-18.10;-30.00;-30.02;12.50;-18.90;-18.20;-19.57;18.80;6.30
13:07:33;-18.10;-30.00;-30.00;12.50;-18.80;-18.20;-19.57;18.80;6.30
13:07:35;-18.10;-30.00;-30.02;12.50;-18.80;-18.10;-19.56;18.80;6.30
13:07:37;-18.10;-30.00;-30.02;12.50;-18.90;-18.10;-19.56;18.80;6.30
13:07:39;-18.10;-30.00;-30.01;12.50;-18.80;-18.10;-19.55;18.80;6.30
13:07:41;-18.10;-30.00;-30.01;12.50;-18.80;-18.10;-19.54;18.70;6.30
13:07:43;-18.10;-30.00;-30.03;12.50;-18.80;-18.10;-19.53;18.70;6.30
13:07:45;-18.10;-30.00;-30.03;12.50;-18.80;-18.10;-19.54;18.70;6.30
13:07:47;-18.10;-30.00;-30.03;12.50;-18.90;-18.10;-19.54;18.70;6.30
13:07:49;-18.10;-30.00;-30.02;12.50;-18.90;-18.10;-19.55;18.60;6.30
13:07:51;-18.10;-30.00;-30.02;12.50;-18.90;-18.10;-19.53;18.60;6.30
13:07:53;-18.10;-30.00;-30.02;12.50;-18.90;-18.10;-19.54;18.50;6.30
13:07:55;-18.10;-30.00;-30.02;12.50;-18.80;-18.10;-19.55;18.50;6.30
13:07:57;-18.10;-30.00;-30.02;12.50;-18.80;-18.10;-19.55;18.50;6.40
13:07:59;-18.10;-30.00;-30.02;12.50;-18.80;-18.10;-19.55;18.50;6.30
13:08:01;-18.10;-30.00;-30.01;12.50;-18.80;-18.10;-19.55;18.60;6.30
13:08:03;-18.10;-30.00;-30.00;12.50;-18.80;-18.10;-19.55;18.50;6.40
13:08:05;-18.10;-30.00;-29.99;12.50;-18.80;-18.10;-19.54;18.50;6.30
13:08:10;-18.10;-30.00;-29.99;12.50;-18.90;-18.10;-19.54;18.60;6.30
13:08:11;-18.10;-30.00;-30.00;12.40;-18.80;-18.10;-19.55;18.60;6.30
13:08:13;-18.10;-30.00;-30.02;12.40;-18.80;-18.10;-19.55;18.60;6.30
13:08:15;-18.10;-30.00;-30.01;12.50;-18.90;-18.10;-19.55;18.70;6.30
13:08:17;-18.10;-30.00;-30.00;12.50;-18.90;-18.10;-19.56;18.70;6.30
13:08:19;-18.10;-30.00;-29.99;12.50;-18.80;-18.10;-19.56;18.80;6.30
13:08:21;-18.10;-30.00;-30.00;12.50;-18.90;-18.10;-19.56;18.90;6.30
13:08:23;-18.10;-30.00;-30.01;12.50;-18.80;-18.10;-19.55;18.80;6.30
13:08:25;-18.10;-30.00;-30.01;12.50;-18.80;-18.10;-19.55;18.80;6.30
13:08:27;-18.10;-30.00;-30.01;12.50;-18.90;-18.10;-19.55;18.70;6.20
13:08:29;-18.10;-30.00;-30.01;12.50;-18.90;-18.10;-19.55;18.70;6.30
13:08:31;-18.10;-30.00;-30.00;12.50;-18.90;-18.10;-19.54;18.70;6.40
13:08:33;-18.10;-30.00;-30.01;12.50;-18.90;-18.10;-19.54;18.60;6.30
13:08:35;-18.10;-30.00;-30.01;12.50;-18.90;-18.10;-19.55;18.60;6.30
13:08:37;-18.10;-30.00;-30.02;12.50;-18.80;-18.10;-19.55;18.60;6.30
13:08:39;-18.10;-30.00;-30.01;12.50;-18.90;-18.10;-19.55;18.60;6.30
13:08:41;-18.10;-30.00;-30.00;12.50;-18.90;-18.10;-19.55;18.60;6.30
13:08:43;-18.10;-30.00;-30.00;12.40;-18.80;-18.10;-19.54;18.60;6.20
13:08:45;-18.10;-30.00;-30.00;12.40;-18.90;-18.10;-19.55;18.60;6.30
13:08:47;-18.10;-30.00;-30.00;12.50;-18.80;-18.20;-19.55;18.50;6.30
13:08:49;-18.10;-30.00;-30.01;12.40;-18.90;-18.10;-19.55;18.50;6.30
13:08:51;-18.10;-30.00;-30.02;12.40;-18.80;-18.10;-19.56;18.50;6.30
13:08:53;-18.10;-30.00;-30.01;12.40;-18.90;-18.10;-19.56;18.50;6.40
13:08:55;-18.10;-30.00;-30.01;12.40;-18.80;-18.10;-19.55;18.50;6.30
13:08:57;-18.10;-30.00;-30.01;12.40;-18.90;-18.10;-19.54;18.60;6.40
13:08:59;-18.10;-30.00;-30.01;12.40;-18.90;-18.10;-19.54;18.60;6.30
13:09:01;-18.10;-30.00;-29.98;12.40;-18.90;-18.10;-19.54;18.60;6.40
13:09:03;-18.10;-30.00;-29.96;12.40;-18.90;-18.10;-19.54;18.60;6.30
13:09:05;-18.10;-30.00;-29.99;12.40;-18.90;-18.10;-19.54;18.60;6.30
13:09:07;-18.10;-30.00;-30.01;12.40;-18.90;-18.10;-19.54;18.60;6.30
13:09:09;-18.10;-30.00;-30.00;12.40;-18.80;-18.10;-19.55;18.50;6.30
13:09:11;-18.10;-30.00;-30.00;12.40;-18.80;-18.10;-19.55;18.50;6.30
13:09:13;-18.10;-30.00;-30.00;12.40;-18.80;-18.10;-19.55;18.50;6.40
13:09:15;-18.10;-30.00;-30.00;12.40;-18.90;-18.10;-19.54;18.50;6.30
13:09:17;-18.10;-30.00;-30.01;12.40;-18.80;-18.10;-19.54;18.40;6.30
13:09:19;-18.10;-30.00;-30.02;12.40;-18.80;-18.10;-19.55;18.40;6.30
13:09:21;-18.10;-30.00;-30.01;12.50;-18.80;-18.10;-19.55;18.40;6.30
13:09:23;-18.10;-30.00;-30.01;12.50;-18.80;-18.10;-19.55;18.40;6.30
13:09:25;-18.10;-30.00;-30.01;12.40;-18.80;-18.10;-19.55;18.50;6.30
13:09:27;-18.10;-30.00;-30.01;12.40;-18.80;-18.10;-19.55;18.40;6.30
13:09:29;-18.10;-30.00;-30.00;12.40;-18.80;-18.10;-19.54;18.40;6.30
13:09:31;-18.10;-30.00;-29.99;12.40;-18.80;-18.10;-19.53;18.40;6.30
13:09:33;-18.10;-30.00;-29.99;12.40;-18.80;-18.10;-19.53;18.50;6.30
13:09:35;-18.10;-30.00;-30.00;12.40;-18.80;-18.10;-19.53;18.40;6.20
13:09:37;-18.10;-30.00;-30.00;12.40;-18.90;-18.10;-19.53;18.40;6.30
13:09:39;-18.10;-30.00;-30.01;12.40;-18.90;-18.10;-19.54;18.40;6.30
13:09:41;-18.10;-30.00;-30.01;12.40;-18.90;-18.10;-19.54;18.40;6.30
13:09:43;-18.10;-30.00;-30.01;12.40;-18.80;-18.10;-19.54;18.30;6.30
13:09:45;-18.10;-30.00;-30.02;12.40;-18.90;-18.10;-19.54;18.30;6.30
13:09:47;-18.10;-30.00;-30.02;12.40;-18.80;-18.10;-19.54;18.30;6.30
13:09:49;-18.10;-30.00;-30.00;12.40;-18.90;-18.10;-19.53;18.30;6.30
13:09:51;-18.10;-30.00;-29.98;12.40;-18.80;-18.10;-19.53;18.30;6.30
13:09:53;-18.10;-30.00;-29.97;12.40;-18.80;-18.10;-19.52;18.30;6.20
13:09:55;-18.10;-30.00;-30.00;12.40;-18.90;-18.10;-19.53;18.30;6.40
13:09:59;-18.10;-30.00;-30.01;12.40;-18.80;-18.10;-19.53;18.30;6.30
13:10:01;-18.10;-30.00;-30.00;12.40;-18.90;-18.10;-19.53;18.30;6.30
13:10:03;-18.10;-30.00;-30.00;12.40;-18.90;-18.10;-19.53;18.30;6.30
13:10:05;-18.10;-30.00;-30.00;12.40;-18.80;-18.10;-19.53;18.30;6.30
13:10:07;-18.10;-30.00;-30.00;12.40;-18.80;-18.10;-19.53;18.30;6.30
13:10:09;-18.10;-30.00;-29.98;12.40;-18.80;-18.10;-19.54;18.30;6.30
13:10:11;-18.10;-30.00;-29.96;12.40;-18.80;-18.10;-19.54;18.20;6.40
13:10:13;-18.10;-30.00;-29.97;12.40;-18.80;-18.10;-19.53;18.20;6.30
13:10:15;-18.10;-30.00;-29.99;12.40;-18.80;-18.10;-19.53;18.30;6.30
13:10:17;-18.10;-30.00;-29.99;12.40;-18.90;-18.10;-19.54;18.30;6.30
13:10:19;-18.10;-30.00;-29.99;12.40;-18.80;-18.10;-19.54;18.30;6.30
13:10:21;-18.10;-30.00;-29.99;12.40;-18.80;-18.10;-19.53;18.30;6.30
13:10:23;-18.10;-30.00;-30.00;12.40;-18.80;-18.10;-19.54;18.30;6.10
13:10:25;-18.10;-30.00;-30.00;12.40;-18.80;-18.10;-19.54;18.30;6.30
13:10:27;-18.10;-30.00;-30.01;12.40;-18.90;-18.10;-19.53;18.30;6.30
13:10:29;-18.10;-30.00;-30.02;12.40;-18.80;-18.10;-19.52;18.20;6.30
13:10:31;-18.10;-30.00;-30.02;12.40;-18.80;-18.10;-19.52;18.20;6.30
13:10:33;-18.10;-30.00;-30.02;12.40;-18.80;-18.10;-19.52;18.10;6.30
13:10:35;-18.10;-30.00;-30.02;12.40;-18.80;-18.10;-19.52;18.10;6.30
13:10:37;-18.10;-30.00;-30.03;12.40;-18.90;-18.10;-19.52;18.10;6.30
13:10:39;-18.10;-30.00;-30.02;12.40;-18.80;-18.10;-19.51;18.10;6.10
13:10:41;-18.10;-30.00;-30.01;12.40;-18.80;-18.10;-19.52;18.10;6.10
13:10:43;-18.10;-30.00;-30.00;12.40;-18.80;-18.10;-19.52;18.10;6.30
13:10:45;-18.10;-30.00;-30.01;12.40;-18.90;-18.10;-19.52;18.10;6.30
13:10:47;-18.10;-30.00;-29.97;12.40;-18.80;-18.10;-19.51;18.10;6.40
13:10:49;-18.10;-30.00;-29.96;12.40;-18.80;-18.10;-19.51;18.20;6.30
13:10:51;-18.10;-30.00;-29.98;12.40;-18.80;-18.10;-19.51;18.10;6.30
13:10:53;-18.10;-30.00;-29.95;12.40;-18.80;-18.10;-19.51;18.10;6.30
13:10:55;-18.10;-30.00;-29.97;12.40;-18.80;-18.10;-19.51;18.10;6.10
13:10:57;-18.10;-30.00;-29.99;12.40;-18.80;-18.10;-19.50;18.10;6.10
13:10:59;-18.10;-30.00;-30.00;12.40;-18.80;-18.10;-19.50;18.10;6.10
13:11:01;-18.10;-30.00;-30.00;12.40;-18.80;-18.10;-19.50;18.10;6.30
13:11:03;-18.10;-30.00;-30.01;12.40;-18.80;-18.10;-19.51;18.10;6.20
13:11:05;-18.10;-30.00;-30.01;12.40;-18.80;-18.10;-19.51;18.10;6.10
13:11:07;-18.10;-30.00;-30.01;12.40;-18.80;-18.10;-19.51;18.00;6.30
13:11:09;-18.10;-30.00;-30.00;12.40;-18.80;-18.10;-19.50;18.00;6.30
13:11:11;-18.10;-30.00;-30.02;12.40;-18.80;-18.00;-19.50;18.00;6.30
13:11:13;-18.10;-30.00;-30.01;12.40;-18.80;-18.10;-19.50;18.10;6.10
13:11:15;-18.10;-30.00;-30.01;12.40;-18.80;-18.10;-19.50;18.10;6.30
13:11:17;-18.10;-30.00;-30.02;12.40;-18.80;-18.10;-19.50;18.20;6.10
13:11:19;-18.10;-30.00;-30.02;12.40;-18.80;-18.10;-19.49;18.20;6.30
13:11:21;-18.10;-30.00;-30.02;12.40;-18.80;-18.10;-19.49;18.10;6.30
13:11:23;-18.10;-30.00;-30.02;12.40;-18.80;-18.10;-19.50;18.10;6.20
13:11:25;-18.10;-30.00;-30.01;12.40;-18.80;-18.10;-19.50;18.00;6.20
13:11:27;-18.10;-30.00;-30.00;12.40;-18.80;-18.10;-19.50;18.00;6.10
13:11:29;-18.10;-30.00;-30.00;12.30;-18.80;-18.10;-19.50;18.00;6.30
13:11:31;-18.10;-30.00;-30.00;12.40;-18.80;-18.10;-19.49;17.90;6.10
13:11:33;-18.10;-30.00;-29.98;12.30;-18.80;-18.10;-19.51;17.90;6.10
13:11:35;-18.10;-30.00;-30.00;12.30;-18.80;-18.10;-19.51;18.00;6.30
13:11:37;-18.10;-30.00;-30.00;12.30;-18.80;-18.10;-19.51;18.00;6.30
13:11:39;-18.10;-30.00;-30.00;12.40;-18.80;-18.10;-19.51;18.00;6.30
13:11:41;-18.10;-30.00;-30.03;12.40;-18.80;-18.10;-19.50;18.00;6.10
13:11:43;-18.10;-30.00;-30.03;12.40;-18.80;-18.10;-19.49;18.00;6.10
13:11:48;-18.10;-30.00;-30.02;12.30;-18.80;-18.10;-19.49;18.10;6.30
13:11:49;-18.10;-30.00;-30.02;12.40;-18.80;-18.10;-19.49;18.20;6.30
13:11:51;-18.10;-30.00;-30.01;12.30;-18.80;-18.10;-19.50;18.10;6.20
13:11:53;-18.10;-30.00;-29.99;12.30;-18.80;-18.10;-19.49;18.00;6.20
13:11:55;-18.10;-30.00;-29.99;12.30;-18.80;-18.10;-19.49;18.00;6.10
13:11:57;-18.10;-30.00;-29.98;12.30;-18.80;-18.10;-19.49;18.00;6.30
13:11:59;-18.10;-30.00;-29.96;12.30;-18.80;-18.10;-19.49;18.00;6.30
13:12:01;-18.10;-30.00;-29.97;12.30;-18.80;-18.10;-19.50;18.00;6.30
13:12:03;-18.10;-30.00;-29.98;12.30;-18.80;-18.10;-19.49;18.00;6.10
13:12:05;-18.10;-30.00;-29.98;12.30;-18.80;-18.10;-19.49;18.00;6.10
13:12:07;-18.10;-30.00;-29.98;12.30;-18.80;-18.10;-19.50;18.00;6.10
13:12:09;-18.10;-30.00;-29.97;12.30;-18.80;-18.10;-19.50;18.00;6.20
13:12:11;-18.10;-30.00;-29.98;12.40;-18.80;-18.10;-19.50;18.00;6.30
13:12:13;-18.10;-30.00;-30.00;12.40;-18.80;-18.10;-19.50;18.00;6.30
13:12:15;-18.10;-30.00;-30.01;12.30;-18.80;-18.10;-19.50;18.00;6.30
13:12:17;-18.10;-30.00;-30.00;12.30;-18.80;-18.10;-19.49;18.00;6.10
13:12:19;-18.10;-30.00;-30.00;12.30;-18.80;-18.10;-19.49;17.90;6.10
13:12:21;-18.10;-30.00;-30.00;12.30;-18.80;-18.10;-19.48;17.90;6.20
13:12:23;-18.10;-30.00;-30.02;12.30;-18.80;-18.10;-19.48;18.00;6.30
13:12:25;-18.10;-30.00;-30.02;12.30;-18.80;-18.10;-19.48;18.00;6.10
13:12:27;-18.10;-30.00;-30.01;12.30;-18.80;-18.10;-19.49;18.00;6.10
13:12:29;-18.10;-30.00;-30.01;12.30;-18.80;-18.10;-19.48;18.00;6.10
13:12:31;-18.10;-30.00;-30.01;12.30;-18.80;-18.10;-19.48;17.90;6.20
13:12:34;-18.10;-30.00;-30.02;12.30;-18.80;-18.10;-19.48;17.90;6.20
13:12:35;-18.10;-30.00;-30.02;12.30;-18.80;-18.10;-19.47;17.90;6.30
13:12:37;-18.10;-30.00;-30.02;12.30;-18.80;-18.10;-19.47;17.90;6.30
13:12:40;-18.10;-30.00;-30.01;12.30;-18.80;-18.10;-19.47;17.90;6.10
13:12:41;-18.10;-30.00;-30.01;12.30;-18.80;-18.10;-19.48;17.90;6.10
13:12:43;-18.10;-30.00;-30.02;12.30;-18.80;-18.10;-19.49;17.90;6.10
13:12:46;-18.10;-30.00;-30.01;12.30;-18.80;-18.10;-19.49;17.90;6.10
13:12:48;-18.10;-30.00;-30.01;12.30;-18.80;-18.10;-19.49;17.90;6.20
13:12:50;-18.10;-30.00;-30.00;12.30;-18.80;-18.10;-19.49;18.00;6.30
13:12:52;-18.10;-30.00;-30.00;12.30;-18.80;-18.10;-19.50;18.00;6.30
13:12:54;-18.10;-30.00;-30.00;12.30;-18.80;-18.10;-19.49;18.00;6.20
13:12:56;-18.10;-30.00;-30.00;12.30;-18.80;-18.10;-19.49;18.10;6.30
13:12:58;-18.10;-30.00;-29.98;12.30;-18.80;-18.10;-19.49;18.10;6.30
13:13:00;-18.10;-30.00;-29.95;12.30;-18.80;-18.10;-19.49;18.20;6.10
13:13:02;-18.10;-30.00;-29.94;12.30;-18.80;-18.10;-19.50;18.20;6.10
13:13:04;-18.10;-30.00;-29.98;12.30;-18.80;-18.10;-19.50;18.20;6.10
13:13:06;-18.10;-30.00;-29.99;12.30;-18.80;-18.10;-19.50;18.00;6.10
13:13:08;-18.10;-30.00;-30.00;12.30;-18.80;-18.10;-19.50;18.10;6.20
13:13:10;-18.10;-30.00;-30.01;12.30;-18.80;-18.10;-19.50;18.10;6.20
13:13:12;-18.10;-30.00;-30.00;12.30;-18.80;-18.10;-19.50;18.20;6.10
13:13:14;-18.10;-30.00;-30.01;12.30;-18.80;-18.10;-19.49;18.10;6.10
13:13:16;-18.10;-30.00;-30.02;12.30;-18.80;-18.10;-19.48;18.10;6.30
13:13:18;-18.10;-30.00;-30.02;12.30;-18.80;-18.10;-19.49;18.00;6.10
13:13:20;-18.10;-30.00;-30.01;12.30;-18.80;-18.10;-19.49;18.00;6.10
13:13:22;-18.10;-30.00;-30.01;12.30;-18.80;-18.10;-19.49;18.00;6.20
13:13:24;-18.10;-30.00;-30.00;12.30;-18.80;-18.10;-19.49;18.00;6.10
13:13:26;-18.10;-30.00;-30.01;12.30;-18.80;-18.10;-19.48;18.00;6.10
13:13:28;-18.10;-30.00;-30.01;12.30;-18.80;-18.10;-19.48;18.00;6.30
13:13:30;-18.10;-30.00;-30.00;12.30;-18.80;-18.10;-19.48;18.00;6.10
13:13:32;-18.10;-30.00;-30.00;12.30;-18.80;-18.10;-19.49;18.00;6.10
13:13:36;-18.10;-30.00;-30.01;12.30;-18.80;-18.00;-19.49;18.00;6.10
13:13:38;-18.10;-30.00;-30.00;12.30;-18.80;-18.00;-19.49;18.00;6.10
13:13:40;-18.10;-30.00;-30.00;12.30;-18.80;-18.10;-19.49;18.00;6.10
13:13:42;-18.10;-30.00;-30.00;12.30;-18.80;-18.10;-19.49;17.90;6.20
13:13:44;-18.10;-30.00;-29.99;12.30;-18.80;-18.10;-19.49;17.90;6.10
13:13:46;-18.10;-30.00;-30.00;12.30;-18.80;-18.10;-19.49;17.90;6.20
13:13:48;-18.10;-30.00;-30.02;12.30;-18.80;-18.10;-19.49;18.00;6.30
13:13:50;-18.10;-30.00;-30.01;12.30;-18.80;-18.10;-19.50;18.00;6.10
13:13:52;-18.10;-30.00;-30.01;12.30;-18.80;-18.10;-19.50;18.00;6.10
13:13:54;-18.10;-30.00;-30.02;12.30;-18.80;-18.10;-19.50;18.00;6.10
13:13:56;-18.10;-30.00;-30.02;12.30;-18.80;-18.10;-19.50;18.00;6.10
13:13:58;-18.10;-30.00;-30.02;12.30;-18.80;-18.10;-19.51;18.00;6.10
13:14:00;-18.10;-30.00;-30.03;12.30;-18.80;-18.10;-19.51;18.00;6.10
13:14:02;-18.10;-30.00;-30.02;12.30;-18.80;-18.10;-19.50;18.00;6.30
13:14:04;-18.10;-30.00;-29.99;12.30;-18.80;-18.10;-19.50;18.00;6.10
13:14:06;-18.10;-30.00;-29.98;12.30;-18.80;-18.10;-19.50;18.00;6.30
13:14:08;-18.10;-30.00;-29.98;12.30;-18.80;-18.10;-19.50;18.00;6.10
13:14:10;-18.10;-30.00;-30.00;12.30;-18.80;-18.10;-19.50;18.00;6.10
13:14:12;-18.10;-30.00;-30.01;12.30;-18.80;-18.10;-19.50;18.00;6.10
13:14:14;-18.10;-30.00;-30.00;12.30;-18.80;-18.10;-19.50;18.00;6.10
13:14:16;-18.10;-30.00;-30.00;12.30;-18.80;-18.10;-19.50;18.00;6.10
13:14:18;-18.10;-30.00;-30.01;12.30;-18.80;-18.10;-19.50;18.00;6.10
13:14:20;-18.10;-30.00;-30.00;12.30;-18.80;-18.10;-19.48;17.90;6.20
13:14:22;-18.10;-30.00;-29.99;12.30;-18.80;-18.10;-19.49;17.90;6.20
13:14:24;-18.10;-30.00;-29.99;12.30;-18.80;-18.10;-19.48;17.90;6.10
13:14:26;-18.10;-30.00;-29.99;12.30;-18.80;-18.10;-19.48;18.00;6.10
13:14:28;-18.10;-30.00;-30.01;12.30;-18.80;-18.10;-19.48;18.00;6.10
13:14:30;-18.10;-30.00;-30.00;12.30;-18.80;-18.10;-19.48;17.90;6.30
13:14:32;-18.10;-30.00;-30.00;12.30;-18.80;-18.10;-19.48;17.90;6.10
13:14:34;-18.10;-30.00;-30.00;12.30;-18.80;-18.10;-19.49;17.80;6.10
13:14:36;-18.10;-30.00;-30.01;12.30;-18.80;-18.10;-19.49;17.80;6.10
13:14:38;-18.10;-30.00;-30.01;12.30;-18.80;-18.10;-19.49;17.80;6.10
13:14:40;-18.10;-30.00;-30.01;12.30;-18.80;-18.10;-19.48;17.80;6.10
13:14:42;-18.10;-30.00;-30.02;12.30;-18.80;-18.10;-19.49;17.80;6.10
13:14:44;-18.10;-30.00;-29.98;12.30;-18.80;-18.10;-19.49;17.80;6.30
13:14:46;-18.10;-30.00;-29.99;12.30;-18.80;-18.10;-19.48;17.90;6.30
13:14:48;-18.10;-30.00;-29.97;12.30;-18.80;-18.10;-19.48;18.00;6.30
13:14:50;-18.10;-30.00;-29.98;12.30;-18.80;-18.10;-19.49;17.90;6.10
13:14:52;-18.10;-30.00;-30.00;12.30;-18.80;-18.10;-19.49;17.90;6.30
13:14:54;-18.10;-30.00;-29.99;12.30;-18.80;-18.10;-19.50;17.80;6.10
13:14:56;-18.10;-30.00;-29.99;12.30;-18.80;-18.10;-19.50;17.80;6.10
13:14:58;-18.10;-30.00;-30.01;12.30;-18.80;-18.10;-19.49;17.90;6.10
13:15:00;-18.10;-30.00;-30.01;12.30;-18.80;-18.10;-19.50;17.80;6.10
13:15:02;-18.10;-30.00;-30.00;12.30;-18.80;-18.10;-19.49;17.80;6.10
13:15:04;-18.10;-30.00;-29.99;12.30;-18.80;-18.00;-19.49;17.80;6.10
13:15:06;-18.10;-30.00;-29.98;12.30;-18.80;-18.10;-19.49;17.80;6.10
13:15:08;-18.10;-30.00;-30.00;12.30;-18.80;-18.10;-19.49;17.80;6.10
13:15:10;-18.10;-30.00;-30.01;12.30;-18.80;-18.10;-19.49;17.80;6.30
13:15:12;-18.10;-30.00;-30.02;12.30;-18.80;-18.10;-19.49;17.80;6.10
13:15:14;-18.10;-30.00;-30.02;12.30;-18.80;-18.10;-19.49;17.80;6.30
13:15:16;-18.10;-30.00;-30.02;12.30;-18.80;-18.10;-19.49;17.70;6.10
13:15:18;-18.10;-30.00;-30.01;12.30;-18.80;-18.10;-19.50;17.70;6.10
13:15:20;-18.10;-30.00;-29.98;12.30;-18.80;-18.10;-19.49;17.70;6.10
13:15:24;-18.10;-30.00;-30.00;12.30;-18.80;-18.10;-19.49;17.60;6.10
13:15:26;-18.10;-30.00;-29.99;12.30;-18.80;-18.10;-19.49;17.50;6.10
13:15:28;-18.10;-30.00;-30.00;12.30;-18.80;-18.10;-19.49;17.50;6.10
13:15:30;-18.10;-30.00;-30.02;12.30;-18.80;-18.10;-19.49;17.60;6.10
13:15:32;-18.10;-30.00;-30.01;12.30;-18.80;-18.10;-19.49;17.60;6.10
13:15:34;-18.10;-30.00;-30.01;12.30;-18.80;-18.10;-19.49;17.60;6.10
13:15:36;-18.10;-30.00;-30.01;12.30;-18.80;-18.10;-19.49;17.60;6.10
13:15:38;-18.10;-30.00;-30.01;12.30;-18.80;-18.10;-19.49;17.60;6.10
13:15:40;-18.10;-30.00;-30.00;12.30;-18.80;-18.10;-19.49;17.60;6.10
13:15:42;-18.10;-30.00;-30.00;12.30;-18.80;-18.10;-19.49;17.60;6.10
13:15:44;-18.10;-30.00;-30.00;12.30;-18.80;-18.10;-19.47;17.60;6.10
13:15:46;-18.10;-30.00;-30.00;12.30;-18.80;-18.10;-19.47;17.60;6.10
13:15:48;-18.10;-30.00;-30.01;12.30;-18.80;-18.10;-19.47;17.70;6.20
13:15:50;-18.10;-30.00;-30.00;12.30;-18.80;-18.10;-19.48;17.70;6.10
13:15:52;-18.10;-30.00;-29.99;12.30;-18.80;-18.10;-19.49;17.80;6.10
13:15:54;-18.10;-30.00;-30.00;12.30;-18.80;-18.10;-19.50;17.90;6.10
13:15:56;-18.10;-30.00;-30.01;12.30;-18.80;-18.10;-19.49;17.90;6.10
13:15:58;-18.10;-30.00;-30.01;12.30;-18.80;-18.10;-19.49;17.90;6.10
13:16:00;-18.10;-30.00;-30.01;12.30;-18.80;-18.10;-19.49;17.90;6.10
13:16:02;-18.10;-30.00;-30.00;12.30;-18.80;-18.10;-19.49;17.90;6.10
13:16:04;-18.10;-30.00;-30.01;12.30;-18.80;-18.10;-19.50;17.90;6.10
13:16:06;-18.10;-30.00;-30.00;12.30;-18.80;-18.10;-19.49;17.90;6.10
13:16:08;-18.10;-30.00;-30.00;12.30;-18.80;-18.10;-19.50;17.90;6.10
13:16:10;-18.10;-30.00;-30.01;12.30;-18.80;-18.10;-19.50;17.90;6.10
13:16:12;-18.10;-30.00;-30.00;12.30;-18.80;-18.10;-19.50;17.90;6.10
13:16:14;-18.10;-30.00;-30.00;12.30;-18.80;-18.10;-19.49;17.90;6.10
13:16:16;-18.10;-30.00;-30.00;12.30;-18.80;-18.10;-19.49;18.00;6.10
13:16:18;-18.10;-30.00;-30.00;12.30;-18.80;-18.10;-19.49;18.00;6.20
13:16:20;-18.10;-30.00;-30.00;12.30;-18.80;-18.10;-19.49;18.00;6.10
13:16:22;-18.10;-30.00;-30.00;12.30;-18.80;-18.10;-19.49;18.00;6.10
13:16:24;-18.10;-30.00;-30.00;12.30;-18.80;-18.10;-19.49;18.00;6.10
13:16:26;-18.10;-30.00;-29.99;12.30;-18.80;-18.10;-19.48;17.90;6.10
13:16:28;-18.10;-30.00;-29.98;12.30;-18.80;-18.10;-19.47;18.00;6.10
13:16:30;-18.10;-30.00;-29.95;12.30;-18.80;-18.10;-19.47;17.90;6.10
13:16:32;-18.10;-30.00;-29.97;12.30;-18.80;-18.10;-19.48;17.90;6.10
13:16:34;-18.10;-30.00;-29.98;12.30;-18.80;-18.10;-19.48;17.80;6.10
13:16:36;-18.10;-30.00;-29.98;12.30;-18.80;-18.10;-19.49;17.80;6.10
13:16:38;-18.10;-30.00;-29.99;12.30;-18.80;-18.10;-19.48;17.80;6.10
13:16:40;-18.10;-30.00;-29.99;12.30;-18.80;-18.10;-19.48;17.80;6.10
13:16:42;-18.10;-30.00;-29.99;12.30;-18.80;-18.10;-19.49;17.70;6.10
13:16:44;-18.10;-30.00;-30.00;12.30;-18.80;-18.10;-19.49;17.70;6.10
13:16:46;-18.10;-30.00;-30.00;12.30;-18.80;-18.10;-19.50;17.70;6.10
13:16:48;-18.10;-30.00;-30.00;12.30;-18.80;-18.10;-19.50;17.80;6.10
13:16:50;-18.10;-30.00;-30.01;12.30;-18.80;-18.10;-19.49;17.80;6.10
13:16:52;-18.10;-30.00;-30.00;12.30;-18.80;-18.10;-19.48;17.90;6.10
13:16:54;-18.10;-30.00;-30.02;12.30;-18.80;-18.10;-19.48;17.90;6.10
13:16:56;-18.10;-30.00;-30.02;12.30;-18.80;-18.10;-19.49;17.90;6.10
13:16:58;-18.10;-30.00;-30.02;12.20;-18.80;-18.10;-19.49;17.90;6.10
13:17:00;-18.10;-30.00;-30.00;12.30;-18.80;-18.10;-19.49;17.90;6.10
13:17:02;-18.10;-30.00;-30.00;12.30;-18.80;-18.20;-19.49;17.90;6.10
13:17:04;-18.10;-30.00;-30.00;12.30;-18.80;-18.10;-19.49;17.90;6.10
13:17:06;-18.10;-30.00;-29.99;12.30;-18.80;-18.10;-19.49;17.90;6.10
13:17:08;-18.10;-30.00;-29.99;12.30;-18.80;-18.10;-19.50;17.90;6.10
13:17:13;-18.10;-30.00;-29.99;12.30;-18.80;-18.10;-19.49;18.00;6.10
13:17:14;-18.10;-30.00;-29.99;12.30;-18.80;-18.10;-19.49;17.90;6.10
13:17:16;-18.10;-30.00;-30.00;12.30;-18.80;-18.10;-19.49;17.90;6.10
13:17:18;-18.10;-30.00;-30.00;12.30;-18.80;-18.10;-19.48;17.90;6.10
13:17:20;-18.10;-30.00;-30.00;12.30;-18.80;-18.10;-19.49;17.90;6.10
13:17:22;-18.10;-30.00;-30.00;12.30;-18.80;-18.10;-19.49;17.90;6.10
13:17:24;-18.10;-30.00;-30.00;12.30;-18.80;-18.10;-19.50;17.90;6.20
13:17:26;-18.10;-30.00;-30.01;12.30;-18.80;-18.10;-19.50;17.90;6.10
13:17:28;-18.10;-30.00;-30.01;12.30;-18.80;-18.10;-19.50;17.90;6.10
13:17:30;-18.10;-30.00;-30.00;12.30;-18.80;-18.10;-19.51;17.90;6.10
13:17:32;-18.10;-30.00;-30.00;12.30;-18.80;-18.10;-19.51;18.00;6.10
13:17:34;-18.10;-30.00;-29.99;12.30;-18.80;-18.10;-19.50;18.00;6.10
13:17:36;-18.10;-30.00;-29.99;12.30;-18.80;-18.10;-19.50;18.00;6.10
13:17:38;-18.10;-30.00;-30.00;12.30;-18.80;-18.10;-19.50;18.00;6.10
13:17:40;-18.10;-30.00;-30.00;12.30;-18.80;-18.10;-19.50;18.00;6.10
13:17:42;-18.10;-30.00;-30.00;12.30;-18.80;-18.10;-19.51;18.00;6.10
13:17:44;-18.10;-30.00;-30.00;12.30;-18.80;-18.10;-19.51;18.00;6.10
13:17:46;-18.10;-30.00;-30.01;12.20;-18.80;-18.10;-19.52;18.00;6.10
13:17:48;-18.10;-30.00;-30.02;12.30;-18.80;-18.10;-19.50;18.00;6.10
13:17:50;-18.10;-30.00;-30.02;12.30;-18.80;-18.10;-19.50;18.00;6.10
13:17:53;-18.10;-30.00;-30.01;12.20;-18.80;-18.10;-19.50;18.00;6.10
13:17:54;-18.10;-30.00;-30.01;12.30;-18.80;-18.10;-19.50;18.00;6.10
13:17:56;-18.10;-30.00;-30.00;12.30;-18.80;-18.10;-19.51;18.00;6.10
13:17:58;-18.10;-30.00;-30.01;12.30;-18.80;-18.10;-19.51;18.10;6.10
13:18:00;-18.10;-30.00;-30.00;12.30;-18.80;-18.10;-19.52;18.10;6.10
13:18:02;-18.10;-30.00;-29.98;12.30;-18.80;-18.10;-19.52;18.20;6.10
13:18:04;-18.10;-30.00;-29.99;12.30;-18.80;-18.10;-19.52;18.20;6.20
13:18:06;-18.10;-30.00;-30.00;12.30;-18.80;-18.10;-19.53;18.30;6.10
13:18:09;-18.10;-30.00;-30.00;12.30;-18.80;-18.10;-19.52;18.30;6.10
13:18:10;-18.10;-30.00;-30.00;12.30;-18.80;-18.10;-19.51;18.30;6.10
13:18:13;-18.10;-30.00;-30.01;12.30;-18.80;-18.10;-19.51;18.30;6.10
13:18:14;-18.10;-30.00;-30.02;12.30;-18.80;-18.10;-19.52;18.30;6.20
13:18:16;-18.10;-30.00;-30.00;12.30;-18.80;-18.20;-19.52;18.20;6.10
13:18:19;-18.10;-30.00;-29.98;12.30;-18.80;-18.10;-19.51;18.20;6.10
13:18:20;-18.10;-30.00;-29.98;12.30;-18.80;-18.10;-19.52;18.20;6.10
13:18:22;-18.10;-30.00;-29.98;12.20;-18.80;-18.10;-19.52;18.20;6.10
13:18:25;-18.10;-30.00;-29.99;12.20;-18.80;-18.10;-19.51;18.10;6.10
13:18:26;-18.10;-30.00;-30.00;12.30;-18.80;-18.10;-19.51;18.10;6.10
13:18:28;-18.10;-30.00;-29.99;12.30;-18.80;-18.10;-19.50;18.10;6.10
13:18:30;-18.10;-30.00;-30.00;12.30;-18.80;-18.10;-19.51;18.10;6.10
13:18:33;-18.10;-30.00;-30.00;12.30;-18.80;-18.10;-19.51;18.20;6.10
13:18:35;-18.10;-30.00;-29.99;12.30;-18.80;-18.10;-19.51;18.20;6.10
13:18:37;-18.10;-30.00;-29.99;12.20;-18.80;-18.10;-19.50;18.20;6.10
13:18:39;-18.10;-30.00;-30.00;12.20;-18.80;-18.10;-19.50;18.20;6.10
13:18:41;-18.10;-30.00;-30.00;12.30;-18.80;-18.10;-19.51;18.30;6.20
13:18:43;-18.10;-30.00;-30.00;12.20;-18.80;-18.10;-19.51;18.30;6.10
13:18:45;-18.10;-30.00;-30.00;12.30;-18.80;-18.10;-19.52;18.20;6.10
13:18:47;-18.10;-30.00;-30.00;12.20;-18.80;-18.10;-19.51;18.20;6.10
13:18:49;-18.10;-30.00;-30.01;12.30;-18.80;-18.10;-19.51;18.20;6.10
13:18:51;-18.10;-30.00;-30.00;12.30;-18.80;-18.10;-19.51;18.20;6.10
13:18:53;-18.10;-30.00;-30.00;12.20;-18.80;-18.10;-19.51;18.30;6.10
13:18:55;-18.10;-30.00;-29.98;12.30;-18.80;-18.10;-19.51;18.30;6.10
13:18:57;-18.10;-30.00;-29.99;12.20;-18.80;-18.10;-19.51;18.20;6.10
13:19:01;-18.10;-30.00;-29.99;12.20;-18.80;-18.10;-19.50;18.20;6.10
13:19:03;-18.10;-30.00;-30.01;12.20;-18.80;-18.10;-19.51;18.20;6.10
13:19:05;-18.10;-30.00;-29.99;12.20;-18.80;-18.10;-19.51;18.20;6.10
13:19:07;-18.10;-30.00;-30.00;12.20;-18.80;-18.10;-19.52;18.20;6.10
13:19:09;-18.10;-30.00;-30.00;12.20;-18.80;-18.10;-19.53;18.20;6.10
13:19:11;-18.10;-30.00;-29.97;12.20;-18.80;-18.10;-19.54;18.20;6.10
13:19:13;-18.10;-30.00;-29.98;12.20;-18.80;-18.10;-19.53;18.30;6.10
13:19:15;-18.10;-30.00;-29.98;12.30;-18.80;-18.10;-19.52;18.30;6.10
13:19:17;-18.10;-30.00;-29.99;12.20;-18.80;-18.10;-19.52;18.30;6.10
13:19:19;-18.10;-30.00;-29.97;12.30;-18.80;-18.10;-19.52;18.40;6.10
13:19:21;-18.10;-30.00;-29.97;12.20;-18.80;-18.10;-19.52;18.40;6.10
13:19:23;-18.10;-30.00;-29.99;12.20;-18.80;-18.10;-19.52;18.40;6.10
13:19:25;-18.10;-30.00;-30.01;12.20;-18.80;-18.10;-19.51;18.50;6.10
13:19:27;-18.10;-30.00;-30.01;12.20;-18.80;-18.10;-19.51;18.50;6.10
13:19:29;-18.10;-30.00;-30.02;12.20;-18.80;-18.10;-19.51;18.50;6.10
13:19:31;-18.10;-30.00;-30.02;12.20;-18.80;-18.10;-19.51;18.60;6.10
13:19:33;-18.10;-30.00;-30.02;12.20;-18.80;-18.10;-19.50;18.60;6.10
13:19:35;-18.10;-30.00;-30.02;12.20;-18.80;-18.10;-19.50;18.60;6.10
13:19:37;-18.10;-30.00;-30.03;12.20;-18.80;-18.10;-19.50;18.70;6.10
13:19:39;-18.10;-30.00;-30.03;12.20;-18.80;-18.10;-19.51;18.70;6.10
13:19:41;-18.10;-30.00;-30.00;12.20;-18.80;-18.10;-19.51;18.70;6.10
13:19:43;-18.10;-30.00;-29.98;12.20;-18.90;-18.10;-19.51;18.60;6.10
13:19:45;-18.10;-30.00;-29.99;12.30;-18.80;-18.10;-19.51;18.60;6.10
13:19:47;-18.10;-30.00;-30.00;12.20;-18.80;-18.10;-19.51;18.70;6.10
13:19:49;-18.10;-30.00;-30.01;12.20;-18.80;-18.10;-19.51;18.70;6.10
13:19:51;-18.10;-30.00;-29.99;12.20;-18.90;-18.10;-19.51;18.60;6.10
13:19:53;-18.10;-30.00;-29.99;12.20;-18.80;-18.10;-19.52;18.60;6.10
13:19:55;-18.10;-30.00;-29.98;12.20;-18.80;-18.10;-19.52;18.60;6.10
13:19:57;-18.10;-30.00;-29.98;12.20;-18.80;-18.10;-19.51;18.60;6.10
13:19:59;-18.10;-30.00;-29.99;12.20;-18.90;-18.10;-19.51;18.50;6.10
13:20:01;-18.10;-30.00;-29.99;12.20;-18.80;-18.10;-19.51;18.50;6.10
13:20:03;-18.10;-30.00;-30.00;12.20;-18.90;-18.20;-19.50;18.50;6.20
13:20:05;-18.10;-30.00;-30.00;12.20;-18.80;-18.10;-19.50;18.50;6.20
13:20:07;-18.10;-30.00;-30.00;12.20;-18.90;-18.10;-19.50;18.50;6.10
13:20:09;-18.10;-30.00;-30.00;12.20;-18.90;-18.10;-19.50;18.50;6.10
13:20:11;-18.10;-30.00;-30.00;12.20;-18.80;-18.10;-19.50;18.60;6.10
13:20:13;-18.10;-30.00;-30.00;12.20;-18.80;-18.10;-19.51;18.60;6.10
13:20:15;-18.10;-30.00;-29.99;12.20;-18.80;-18.10;-19.51;18.60;6.10
13:20:17;-18.10;-30.00;-29.99;12.20;-18.90;-18.10;-19.51;18.60;6.20
13:20:19;-18.10;-30.00;-29.99;12.20;-18.90;-18.10;-19.52;18.60;6.10
13:20:21;-18.10;-30.00;-29.99;12.20;-18.80;-18.10;-19.52;18.60;6.10
13:20:23;-18.10;-30.00;-29.99;12.20;-18.90;-18.10;-19.51;18.50;6.20
13:20:25;-18.10;-30.00;-29.99;12.20;-18.90;-18.10;-19.52;18.50;6.10
13:20:27;-18.10;-30.00;-29.99;12.20;-18.80;-18.10;-19.51;18.60;6.10
13:20:29;-18.10;-30.00;-30.00;12.20;-18.90;-18.10;-19.51;18.50;6.10
13:20:31;-18.10;-30.00;-30.01;12.20;-18.90;-18.10;-19.52;18.60;6.20
13:20:33;-18.10;-30.00;-30.02;12.20;-18.80;-18.10;-19.52;18.60;6.10
13:20:35;-18.10;-30.00;-30.02;12.20;-18.90;-18.10;-19.52;18.70;6.10
13:20:37;-18.10;-30.00;-30.02;12.20;-18.90;-18.10;-19.53;18.60;6.20
13:20:39;-18.10;-30.00;-30.02;12.20;-18.90;-18.20;-19.53;18.60;6.20
13:20:41;-18.10;-30.00;-30.01;12.20;-18.90;-18.10;-19.53;18.70;6.10
13:20:43;-18.10;-30.00;-30.00;12.20;-18.90;-18.10;-19.53;18.70;6.10
13:20:45;-18.10;-30.00;-30.00;12.20;-18.90;-18.20;-19.53;18.70;6.10
13:20:47;-18.10;-30.00;-30.00;12.20;-18.90;-18.20;-19.53;18.70;6.10
13:20:51;-18.10;-30.00;-30.00;12.20;-18.90;-18.10;-19.52;18.70;6.10
13:20:53;-18.10;-30.00;-30.00;12.20;-18.80;-18.10;-19.53;18.70;6.10
13:20:55;-18.10;-30.00;-30.00;12.20;-18.90;-18.10;-19.52;18.70;6.10
13:20:57;-18.10;-30.00;-29.99;12.20;-18.80;-18.10;-19.52;18.60;6.10
13:20:59;-18.10;-30.00;-30.00;12.20;-18.90;-18.10;-19.52;18.50;6.10
13:21:01;-18.10;-30.00;-30.01;12.20;-18.90;-18.10;-19.51;18.50;6.10
13:21:03;-18.10;-30.00;-30.02;12.20;-18.90;-18.10;-19.51;18.50;6.20
13:21:05;-18.10;-30.00;-30.00;12.20;-18.90;-18.10;-19.51;18.50;6.10
13:21:07;-18.10;-30.00;-29.99;12.20;-18.90;-18.10;-19.51;18.60;6.10
13:21:09;-18.10;-30.00;-29.99;12.20;-18.90;-18.10;-19.50;18.60;6.10
13:21:11;-18.10;-30.00;-30.01;12.20;-18.80;-18.10;-19.49;18.50;6.10
13:21:13;-18.10;-30.00;-30.00;12.20;-18.80;-18.10;-19.49;18.50;6.10
13:21:15;-18.10;-30.00;-30.00;12.20;-18.90;-18.10;-19.48;18.60;6.10
13:21:17;-18.10;-30.00;-29.99;12.20;-18.90;-18.10;-19.48;18.60;6.10
13:21:19;-18.10;-30.00;-29.99;12.20;-18.80;-18.10;-19.48;18.60;6.10
13:21:21;-18.10;-30.00;-30.00;12.20;-18.90;-18.10;-19.47;18.50;6.10
13:21:23;-18.10;-30.00;-29.99;12.20;-18.90;-18.10;-19.47;18.50;6.20
13:21:25;-18.10;-30.00;-30.00;12.20;-18.80;-18.10;-19.48;18.50;6.10
13:21:27;-18.10;-30.00;-30.00;12.20;-18.80;-18.10;-19.48;18.40;6.10
13:21:29;-18.10;-30.00;-30.00;12.20;-18.80;-18.10;-19.48;18.40;6.10
13:21:31;-18.10;-30.00;-29.99;12.20;-18.80;-18.10;-19.47;18.40;6.10
13:21:33;-18.10;-30.00;-29.99;12.20;-18.90;-18.10;-19.47;18.40;6.10
13:21:35;-18.10;-30.00;-29.99;12.20;-18.80;-18.10;-19.47;18.30;6.10
13:21:37;-18.10;-30.00;-29.99;12.20;-18.90;-18.10;-19.47;18.30;6.10
13:21:39;-18.10;-30.00;-29.95;12.20;-18.90;-18.10;-19.48;18.30;6.10
13:21:41;-18.10;-30.00;-29.96;12.20;-18.90;-18.10;-19.48;18.30;6.10
13:21:43;-18.10;-30.00;-29.99;12.20;-18.90;-18.10;-19.46;18.30;6.20
13:21:45;-18.10;-30.00;-30.01;12.20;-18.80;-18.10;-19.47;18.30;6.10
13:21:47;-18.10;-30.00;-30.02;12.20;-18.90;-18.10;-19.47;18.40;6.10
13:21:49;-18.10;-30.00;-30.02;12.20;-18.80;-18.10;-19.47;18.30;6.10
13:21:51;-18.10;-30.00;-30.02;12.20;-18.80;-18.00;-19.47;18.40;6.10
13:21:53;-18.10;-30.00;-30.01;12.20;-18.90;-18.00;-19.46;18.40;6.10
13:21:55;-18.10;-30.00;-30.00;12.20;-18.80;-18.00;-19.47;18.40;6.10
13:21:57;-18.10;-30.00;-29.99;12.20;-18.80;-18.00;-19.47;18.30;6.10
13:21:59;-18.10;-30.00;-29.96;12.20;-18.80;-18.00;-19.45;18.30;6.10
13:22:01;-18.10;-30.00;-29.98;12.20;-18.80;-18.10;-19.46;18.30;6.10
13:22:03;-18.10;-30.00;-30.00;12.20;-18.80;-18.10;-19.46;18.30;6.10
13:22:05;-18.10;-30.00;-30.00;12.20;-18.80;-18.10;-19.47;18.40;6.10
13:22:07;-18.10;-30.00;-30.00;12.20;-18.80;-18.10;-19.47;18.40;6.10
13:22:09;-18.10;-30.00;-30.01;12.20;-18.80;-18.10;-19.47;18.40;6.10
13:22:11;-18.10;-30.00;-30.01;12.20;-18.80;-18.10;-19.47;18.40;6.10
13:22:13;-18.10;-30.00;-30.00;12.20;-18.80;-18.10;-19.48;18.50;6.10
13:22:15;-18.10;-30.00;-30.00;12.20;-18.90;-18.10;-19.48;18.50;6.10
13:22:17;-18.10;-30.00;-30.01;12.20;-18.80;-18.10;-19.48;18.50;6.10
13:22:19;-18.10;-30.00;-30.00;12.20;-18.80;-18.10;-19.48;18.50;6.10
13:22:21;-18.10;-30.00;-30.00;12.20;-18.80;-18.10;-19.49;18.50;6.10
13:22:23;-18.10;-30.00;-30.00;12.20;-18.80;-18.10;-19.49;18.50;6.10
13:22:25;-18.10;-30.00;-29.99;12.20;-18.80;-18.10;-19.48;18.50;6.10
13:22:27;-18.10;-30.00;-29.99;12.20;-18.80;-18.10;-19.48;18.50;6.10
13:22:29;-18.10;-30.00;-30.00;12.20;-18.80;-18.10;-19.48;18.40;6.00
13:22:31;-18.10;-30.00;-30.00;12.20;-18.80;-18.10;-19.48;18.40;6.10
13:22:33;-18.10;-30.00;-29.97;12.20;-18.80;-18.10;-19.48;18.40;6.10
13:22:35;-18.10;-30.00;-29.97;12.20;-18.80;-18.10;-19.49;18.50;6.10
13:22:40;-18.10;-30.00;-29.97;12.20;-18.80;-18.10;-19.48;18.50;6.10
13:22:41;-18.10;-30.00;-30.00;12.20;-18.80;-18.10;-19.49;18.60;6.10
13:22:43;-18.10;-30.00;-30.00;12.20;-18.80;-18.10;-19.49;18.60;6.10
13:22:45;-18.10;-30.00;-29.99;12.20;-18.80;-18.10;-19.48;18.50;6.10
13:22:47;-18.10;-30.00;-29.99;12.20;-18.80;-18.10;-19.48;18.50;6.10
13:22:49;-18.10;-30.00;-30.00;12.20;-18.80;-18.10;-19.48;18.40;6.10
13:22:51;-18.10;-30.00;-30.00;12.20;-18.80;-18.10;-19.47;18.50;6.10
13:22:53;-18.10;-30.00;-30.00;12.20;-18.80;-18.10;-19.46;18.40;6.10
13:22:55;-18.10;-30.00;-30.00;12.20;-18.80;-18.10;-19.46;18.50;6.20
13:22:57;-18.10;-30.00;-30.00;12.20;-18.80;-18.10;-19.46;18.50;6.10
13:22:59;-18.10;-30.00;-30.01;12.20;-18.90;-18.10;-19.46;18.50;6.10
13:23:01;-18.10;-30.00;-30.01;12.20;-18.80;-18.10;-19.47;18.50;6.10
13:23:03;-18.10;-30.00;-30.00;12.20;-18.80;-18.10;-19.48;18.60;6.10
13:23:05;-18.10;-30.00;-29.99;12.20;-18.80;-18.10;-19.47;18.60;6.10
13:23:07;-18.10;-30.00;-29.99;12.20;-18.80;-18.10;-19.47;18.60;6.10
13:23:09;-18.10;-30.00;-29.96;12.20;-18.80;-18.10;-19.47;18.60;6.10
13:23:11;-18.10;-30.00;-29.96;12.20;-18.90;-18.10;-19.48;18.60;6.10
13:23:13;-18.10;-30.00;-29.98;12.20;-18.90;-18.10;-19.47;18.60;6.10
13:23:15;-18.10;-30.00;-29.99;12.20;-18.80;-18.10;-19.46;18.70;6.00
13:23:17;-18.10;-30.00;-30.00;12.20;-18.80;-18.10;-19.47;18.70;6.10
13:23:19;-18.10;-30.00;-29.98;12.10;-18.90;-18.10;-19.47;18.70;6.10
13:23:21;-18.10;-30.00;-29.97;12.20;-18.80;-18.10;-19.47;18.70;6.20
13:23:23;-18.10;-30.00;-29.99;12.20;-18.90;-18.10;-19.46;18.70;6.10
13:23:25;-18.10;-30.00;-30.00;12.20;-18.80;-18.10;-19.47;18.70;6.10
13:23:27;-18.10;-30.00;-30.01;12.20;-18.80;-18.10;-19.47;18.70;6.10
13:23:29;-18.10;-30.00;-30.02;12.20;-18.80;-18.10;-19.47;18.70;6.10
13:23:31;-18.10;-30.00;-30.03;12.20;-18.80;-18.10;-19.47;18.70;6.10
13:23:33;-18.10;-30.00;-30.03;12.20;-18.80;-18.10;-19.48;18.70;6.10
13:23:35;-18.10;-30.00;-30.03;12.20;-18.80;-18.10;-19.47;18.70;6.10
13:23:37;-18.10;-30.00;-30.04;12.20;-18.80;-18.10;-19.47;18.70;6.10
13:23:39;-18.10;-30.00;-30.02;12.20;-18.80;-18.10;-19.47;18.70;6.10
13:23:41;-18.10;-30.00;-30.01;12.20;-18.80;-18.10;-19.46;18.70;6.10
13:23:43;-18.10;-30.00;-30.00;12.20;-18.80;-18.10;-19.46;18.70;6.10
13:23:45;-18.10;-30.00;-30.00;12.20;-18.80;-18.10;-19.46;18.70;6.10
13:23:47;-18.10;-30.00;-30.00;12.20;-18.80;-18.10;-19.46;18.70;6.10
13:23:49;-18.10;-30.00;-29.99;12.20;-18.80;-18.10;-19.46;18.80;6.10
13:23:51;-18.10;-30.00;-29.99;12.10;-18.80;-18.10;-19.46;18.90;6.20
13:23:53;-18.10;-30.00;-29.99;12.20;-18.90;-18.10;-19.46;18.90;6.20
13:23:55;-18.10;-30.00;-30.00;12.20;-18.80;-18.10;-19.46;18.90;6.10
13:23:57;-18.10;-30.00;-30.00;12.20;-18.80;-18.10;-19.47;18.90;6.10
13:23:59;-18.10;-30.00;-29.98;12.20;-18.80;-18.10;-19.47;18.90;6.10
13:24:01;-18.10;-30.00;-29.97;12.20;-18.80;-18.10;-19.47;18.80;6.10
13:24:03;-18.10;-30.00;-29.98;12.20;-18.80;-18.10;-19.46;18.80;6.10
13:24:05;-18.10;-30.00;-29.99;12.20;-18.80;-18.10;-19.45;18.70;6.10
13:24:07;-18.10;-30.00;-29.97;12.20;-18.80;-18.10;-19.45;18.70;6.10
13:24:09;-18.10;-30.00;-29.99;12.20;-18.80;-18.10;-19.46;18.70;6.10
13:24:11;-18.10;-30.00;-29.97;12.20;-18.80;-18.10;-19.45;18.60;6.10
13:24:13;-18.10;-30.00;-29.98;12.20;-18.80;-18.10;-19.45;18.60;6.10
13:24:15;-18.10;-30.00;-30.00;12.20;-18.80;-18.10;-19.45;18.50;6.10
13:24:17;-18.10;-30.00;-30.01;12.20;-18.80;-18.10;-19.45;18.60;6.10
13:24:19;-18.10;-30.00;-30.01;12.10;-18.80;-18.10;-19.45;18.60;6.10
13:24:21;-18.10;-30.00;-30.01;12.20;-18.80;-18.10;-19.46;18.60;6.10
13:24:23;-18.10;-30.00;-30.01;12.20;-18.80;-18.10;-19.46;18.60;6.10
13:24:25;-18.10;-30.00;-30.02;12.20;-18.80;-18.10;-19.45;18.60;6.10
13:24:27;-18.10;-30.00;-30.02;12.10;-18.80;-18.10;-19.45;18.60;6.10
13:24:29;-18.10;-30.00;-30.02;12.20;-18.80;-18.10;-19.45;18.60;6.10
13:24:32;-18.10;-30.00;-30.02;12.10;-18.80;-18.10;-19.45;18.70;6.10
13:24:33;-18.10;-30.00;-30.02;12.20;-18.90;-18.10;-19.45;18.60;6.10
13:24:35;-18.10;-30.00;-30.01;12.10;-18.80;-18.10;-19.45;18.60;6.10
13:24:37;-18.10;-30.00;-30.01;12.10;-18.80;-18.10;-19.45;18.60;6.10
13:24:40;-18.10;-30.00;-30.00;12.10;-18.80;-18.10;-19.45;18.70;6.10
13:24:42;-18.10;-30.00;-30.00;12.20;-18.80;-18.10;-19.45;18.70;6.10
13:24:43;-18.10;-30.00;-30.00;12.10;-18.80;-18.10;-19.45;18.80;6.10
13:24:45;-18.10;-30.00;-29.98;12.20;-18.80;-18.10;-19.45;18.70;6.10
13:24:48;-18.10;-30.00;-29.97;12.20;-18.80;-18.10;-19.45;18.80;6.10
13:24:49;-18.10;-30.00;-29.99;12.20;-18.80;-18.10;-19.46;18.70;6.10
13:24:52;-18.10;-30.00;-30.00;12.10;-18.80;-18.10;-19.46;18.70;6.10
13:24:53;-18.10;-30.00;-30.00;12.10;-18.80;-18.10;-19.46;18.70;6.10
13:24:55;-18.10;-30.00;-30.01;12.10;-18.80;-18.10;-19.46;18.70;6.10
13:24:57;-18.10;-30.00;-30.02;12.10;-18.80;-18.10;-19.46;18.70;6.10
13:24:59;-18.10;-30.00;-30.02;12.10;-18.80;-18.10;-19.46;18.70;6.10
13:25:01;-18.10;-30.00;-29.99;12.10;-18.80;-18.10;-19.45;18.70;6.20
13:25:04;-18.10;-30.00;-29.97;12.10;-18.80;-18.10;-19.45;18.70;6.10
13:25:05;-18.10;-30.00;-29.98;12.10;-18.80;-18.10;-19.45;18.70;6.10
13:25:08;-18.10;-30.00;-29.99;12.10;-18.80;-18.10;-19.46;18.70;6.10
13:25:09;-18.10;-30.00;-30.00;12.10;-18.80;-18.10;-19.47;18.70;6.10
13:25:12;-18.10;-30.00;-30.00;12.10;-18.80;-18.10;-19.47;18.80;6.10
13:25:13;-18.10;-30.00;-30.01;12.10;-18.80;-18.10;-19.46;18.80;6.10
13:25:16;-18.10;-30.00;-30.02;12.10;-18.80;-18.10;-19.46;18.80;6.10
13:25:18;-18.10;-30.00;-30.01;12.10;-18.80;-18.10;-19.46;18.80;6.10
13:25:20;-18.10;-30.00;-30.00;12.10;-18.80;-18.10;-19.46;18.80;6.10
13:25:22;-18.10;-30.00;-30.01;12.10;-18.80;-18.10;-19.47;18.90;6.10
13:25:24;-18.10;-30.00;-30.01;12.10;-18.80;-18.10;-19.47;19.00;6.10
13:25:26;-18.10;-30.00;-30.00;12.10;-18.80;-18.10;-19.47;19.00;6.00
13:25:28;-18.10;-30.00;-30.01;12.10;-18.80;-18.10;-19.46;18.90;6.10
13:25:30;-18.10;-30.00;-29.98;12.10;-18.80;-18.10;-19.45;18.90;6.00
13:25:32;-18.10;-30.00;-29.97;12.10;-18.80;-18.10;-19.45;18.90;6.10
13:25:34;-18.10;-30.00;-29.98;12.10;-18.80;-18.10;-19.45;18.90;6.10
13:25:36;-18.10;-30.00;-29.98;12.10;-18.80;-18.10;-19.45;18.90;6.10
13:25:38;-18.10;-30.00;-30.00;12.10;-18.80;-18.10;-19.46;18.90;6.10
13:25:40;-18.10;-30.00;-30.01;12.10;-18.80;-18.10;-19.46;18.80;6.10
13:25:42;-18.10;-30.00;-29.99;12.10;-18.80;-18.10;-19.45;18.80;6.10
13:25:44;-18.10;-30.00;-30.00;12.10;-18.80;-18.10;-19.45;18.80;6.10
13:25:46;-18.10;-30.00;-30.01;12.10;-18.80;-18.10;-19.46;18.90;6.10
13:25:48;-18.10;-30.00;-30.02;12.10;-18.80;-18.10;-19.46;18.90;6.00
13:25:50;-18.10;-30.00;-30.02;12.10;-18.80;-18.10;-19.46;18.90;6.10
13:25:52;-18.10;-30.00;-30.01;12.10;-18.80;-18.10;-19.46;18.90;6.10
13:25:54;-18.10;-30.00;-30.02;12.10;-18.80;-18.10;-19.46;18.90;6.10
13:25:56;-18.10;-30.00;-30.02;12.10;-18.80;-18.10;-19.45;18.90;6.10
13:25:58;-18.10;-30.00;-30.01;12.10;-18.80;-18.10;-19.46;19.00;6.10
13:26:00;-18.10;-30.00;-30.01;12.10;-18.80;-18.10;-19.46;19.00;6.10
13:26:02;-18.10;-30.00;-30.01;12.10;-18.80;-18.10;-19.47;19.00;6.10
13:26:04;-18.10;-30.00;-30.00;12.10;-18.80;-18.10;-19.47;19.00;6.10
13:26:06;-18.10;-30.00;-30.01;12.10;-18.80;-18.10;-19.47;19.00;6.10
13:26:08;-18.10;-30.00;-29.98;12.10;-18.80;-18.10;-19.47;19.00;6.10
13:26:10;-18.10;-30.00;-29.99;12.10;-18.80;-18.10;-19.47;19.00;6.10
13:26:12;-18.10;-30.00;-29.99;12.10;-18.80;-18.10;-19.46;19.00;6.10
13:26:14;-18.10;-30.00;-30.00;12.10;-18.80;-18.10;-19.46;19.00;6.10
13:26:16;-18.10;-30.00;-30.00;12.10;-18.90;-18.10;-19.46;19.00;6.10
13:26:18;-18.10;-30.00;-29.99;12.10;-18.80;-18.10;-19.47;19.00;6.10
13:26:20;-18.10;-30.00;-29.99;12.10;-18.80;-18.10;-19.47;19.00;6.10
13:26:22;-18.10;-30.00;-30.00;12.10;-18.80;-18.10;-19.46;19.00;6.10
13:26:24;-18.10;-30.00;-30.01;12.10;-18.80;-18.10;-19.47;19.00;6.10
13:26:26;-18.10;-30.00;-30.02;12.10;-18.80;-18.10;-19.47;19.00;6.10
13:26:28;-18.10;-30.00;-30.01;12.10;-18.80;-18.10;-19.46;19.00;6.10
13:26:30;-18.10;-30.00;-30.02;12.10;-18.80;-18.10;-19.46;19.00;6.20
13:26:32;-18.10;-30.00;-30.02;12.10;-18.80;-18.10;-19.47;19.00;6.10
13:26:34;-18.10;-30.00;-30.02;12.10;-18.90;-18.10;-19.46;19.00;6.10
13:26:36;-18.10;-30.00;-30.01;12.10;-18.90;-18.10;-19.46;19.00;6.10
13:26:38;-18.10;-30.00;-30.01;12.10;-18.80;-18.10;-19.46;19.00;6.10
13:26:40;-18.10;-30.00;-30.02;12.10;-18.80;-18.10;-19.46;19.00;6.10
13:26:42;-18.10;-30.00;-30.02;12.10;-18.80;-18.10;-19.45;19.00;6.10
13:26:44;-18.10;-30.00;-30.02;12.10;-18.80;-18.10;-19.46;18.90;6.10
13:26:46;-18.10;-30.00;-30.02;12.10;-18.80;-18.10;-19.47;18.90;6.10
13:26:48;-18.10;-30.00;-30.02;12.10;-18.80;-18.10;-19.47;18.80;6.10
13:26:50;-18.10;-30.00;-30.02;12.10;-18.80;-18.10;-19.47;18.80;6.10
13:26:52;-18.10;-30.00;-30.01;12.10;-18.90;-18.10;-19.48;18.80;6.10
13:26:54;-18.10;-30.00;-30.01;12.10;-18.80;-18.10;-19.47;18.80;6.10
13:26:56;-18.10;-30.00;-30.01;12.10;-18.80;-18.10;-19.47;18.70;6.10
13:26:58;-18.10;-30.00;-30.00;12.10;-18.80;-18.10;-19.47;18.70;6.10
13:27:00;-18.10;-30.00;-30.00;12.10;-18.80;-18.10;-19.47;18.80;6.10
13:27:02;-18.10;-30.00;-30.01;12.10;-18.80;-18.10;-19.46;18.70;6.10
13:27:04;-18.10;-30.00;-30.00;12.10;-18.80;-18.10;-19.47;18.70;6.10
13:27:06;-18.10;-30.00;-30.00;12.10;-18.80;-18.10;-19.47;18.70;6.10
13:27:08;-18.10;-30.00;-30.00;12.10;-18.80;-18.10;-19.47;18.70;6.10
13:27:10;-18.10;-30.00;-29.99;12.10;-18.80;-18.10;-19.47;18.70;6.00
13:27:12;-18.10;-30.00;-29.98;12.10;-18.80;-18.10;-19.47;18.70;6.10
13:27:14;-18.10;-30.00;-29.99;12.10;-18.80;-18.10;-19.47;18.70;6.10
13:27:16;-18.10;-30.00;-30.00;12.10;-18.80;-18.10;-19.46;18.60;6.10
13:27:18;-18.10;-30.00;-29.99;12.10;-18.90;-18.10;-19.46;18.60;6.10
13:27:20;-18.10;-30.00;-30.00;12.10;-18.80;-18.10;-19.45;18.60;6.10
13:27:22;-18.10;-30.00;-30.01;12.10;-18.80;-18.10;-19.46;18.60;6.10
13:27:24;-18.10;-30.00;-30.02;12.10;-18.80;-18.10;-19.46;18.60;6.00
13:27:26;-18.10;-30.00;-30.01;12.10;-18.90;-18.10;-19.46;18.60;6.00
13:27:28;-18.10;-30.00;-30.01;12.10;-18.80;-18.10;-19.45;18.60;6.10
13:27:30;-18.10;-30.00;-30.02;12.10;-18.80;-18.10;-19.45;18.60;6.10
13:27:32;-18.10;-30.00;-30.01;12.10;-18.80;-18.10;-19.45;18.60;6.10
13:27:34;-18.10;-30.00;-30.01;12.10;-18.80;-18.10;-19.45;18.60;6.10
13:27:36;-18.10;-30.00;-30.00;12.10;-18.80;-18.10;-19.45;18.60;6.10
13:27:38;-18.10;-30.00;-29.98;12.10;-18.80;-18.10;-19.46;18.70;6.00
13:27:40;-18.10;-30.00;-29.98;12.10;-18.80;-18.10;-19.46;18.70;6.10
13:27:42;-18.10;-30.00;-29.99;12.10;-18.90;-18.10;-19.46;18.70;6.10
13:27:44;-18.10;-30.00;-30.00;12.10;-18.80;-18.10;-19.46;18.60;6.10
13:27:46;-18.10;-30.00;-30.00;12.10;-18.80;-18.10;-19.47;18.60;6.10
13:27:48;-18.10;-30.00;-29.98;12.10;-18.80;-18.10;-19.46;18.60;6.10
13:27:50;-18.10;-30.00;-29.97;12.10;-18.80;-18.10;-19.46;18.60;6.10
13:27:52;-18.10;-30.00;-29.97;12.10;-18.80;-18.10;-19.46;18.60;6.10
13:27:54;-18.10;-30.00;-29.99;12.10;-18.80;-18.10;-19.46;18.60;6.10
13:27:56;-18.10;-30.00;-30.01;12.10;-18.80;-18.10;-19.45;18.70;6.10
13:27:58;-18.10;-30.00;-30.02;12.10;-18.80;-18.10;-19.46;18.80;6.00
13:28:00;-18.10;-30.00;-30.02;12.10;-18.80;-18.10;-19.46;18.80;6.10
13:28:02;-18.10;-30.00;-30.02;12.10;-18.80;-18.10;-19.46;18.80;6.10
13:28:04;-18.10;-30.00;-30.02;12.10;-18.80;-18.10;-19.45;18.80;6.10
13:28:06;-18.10;-30.00;-30.01;12.10;-18.80;-18.10;-19.46;18.80;6.10
13:28:08;-18.10;-30.00;-30.02;12.10;-18.80;-18.10;-19.46;18.80;6.10
13:28:10;-18.10;-30.00;-30.02;12.10;-18.80;-18.10;-19.46;18.70;6.10
13:28:12;-18.10;-30.00;-30.01;12.10;-18.80;-18.10;-19.46;18.70;6.10
13:28:14;-18.10;-30.00;-30.00;12.10;-18.90;-18.10;-19.46;18.70;6.10
13:28:16;-18.10;-30.00;-30.00;12.10;-18.80;-18.10;-19.45;18.70;6.10
13:28:18;-18.10;-30.00;-30.00;12.10;-18.80;-18.10;-19.46;18.70;6.10
13:28:20;-18.10;-30.00;-30.00;12.10;-18.80;-18.10;-19.45;18.70;6.10
13:28:22;-18.10;-30.00;-30.01;12.10;-18.80;-18.10;-19.45;18.80;6.00
13:28:24;-18.10;-30.00;-30.00;12.10;-18.80;-18.10;-19.45;18.70;6.10
13:28:26;-18.10;-30.00;-30.00;12.10;-18.80;-18.10;-19.45;18.70;6.10
13:28:28;-18.10;-30.00;-30.00;12.10;-18.80;-18.10;-19.45;18.70;6.10
13:28:30;-18.10;-30.00;-30.02;12.10;-18.80;-18.10;-19.44;18.70;6.10
13:28:32;-18.10;-30.00;-30.01;12.10;-18.90;-18.10;-19.44;18.70;6.00
13:28:34;-18.10;-30.00;-30.00;12.10;-18.80;-18.10;-19.44;18.70;6.00
13:28:36;-18.10;-30.00;-30.00;12.10;-18.80;-18.00;-19.44;18.70;6.00
13:28:38;-18.10;-30.00;-30.00;12.10;-18.80;-18.10;-19.44;18.70;6.00
13:28:40;-18.10;-30.00;-30.01;12.10;-18.90;-18.10;-19.45;18.70;6.10
13:28:42;-18.10;-30.00;-30.01;12.10;-18.80;-18.10;-19.44;18.70;6.10
13:28:44;-18.10;-30.00;-30.01;12.10;-18.80;-18.10;-19.45;18.70;6.00
13:28:46;-18.10;-30.00;-29.99;12.10;-18.90;-18.10;-19.46;18.70;6.10
13:28:48;-18.10;-30.00;-29.98;12.10;-18.80;-18.10;-19.47;18.70;6.00
13:28:50;-18.10;-30.00;-30.00;12.10;-18.80;-18.10;-19.46;18.70;6.10
13:28:52;-18.10;-30.00;-30.02;12.10;-18.80;-18.10;-19.46;18.70;6.10
13:28:54;-18.10;-30.00;-30.01;12.10;-18.80;-18.10;-19.47;18.70;6.00
13:28:56;-18.10;-30.00;-30.01;12.10;-18.80;-18.10;-19.47;18.70;6.00
13:28:58;-18.10;-30.00;-30.00;12.10;-18.90;-18.10;-19.47;18.70;6.10
13:29:00;-18.10;-30.00;-30.01;12.10;-18.80;-18.10;-19.46;18.60;6.10
13:29:02;-18.10;-30.00;-30.02;12.10;-18.80;-18.10;-19.46;18.70;6.00
13:29:04;-18.10;-30.00;-30.01;12.10;-18.80;-18.10;-19.45;18.70;6.00
13:29:06;-18.10;-30.00;-30.01;12.10;-18.80;-18.10;-19.46;18.70;6.10
13:29:08;-18.10;-30.00;-30.00;12.10;-18.80;-18.10;-19.46;18.60;6.10
13:29:10;-18.10;-30.00;-29.99;12.10;-18.80;-18.10;-19.45;18.70;6.00
13:29:12;-18.10;-30.00;-29.99;12.10;-18.80;-18.10;-19.45;18.70;6.10
13:29:14;-18.10;-30.00;-29.99;12.10;-18.80;-18.10;-19.46;18.70;6.10
13:29:16;-18.10;-30.00;-29.99;12.10;-18.80;-18.10;-19.46;18.70;6.10
13:29:18;-18.10;-30.00;-29.99;12.10;-18.90;-18.10;-19.45;18.70;6.00
13:29:20;-18.10;-30.00;-29.98;12.10;-18.80;-18.10;-19.45;18.70;6.10
13:29:22;-18.10;-30.00;-29.99;12.10;-18.90;-18.10;-19.46;18.80;6.00
13:29:24;-18.10;-30.00;-30.01;12.10;-18.80;-18.10;-19.45;18.90;6.00
13:29:26;-18.10;-30.00;-30.01;12.10;-18.80;-18.10;-19.46;18.80;6.00
13:29:28;-18.10;-30.00;-29.98;12.10;-18.80;-18.10;-19.45;18.70;6.10
13:29:30;-18.10;-30.00;-29.96;12.10;-18.90;-18.10;-19.46;18.70;6.00
13:29:32;-18.10;-30.00;-29.99;12.10;-18.80;-18.10;-19.46;18.70;6.10
13:29:34;-18.10;-30.00;-29.99;12.10;-18.80;-18.10;-19.46;18.70;6.10
13:29:36;-18.10;-30.00;-30.00;12.10;-18.80;-18.10;-19.46;18.70;6.10
13:29:38;-18.10;-30.00;-29.99;12.10;-18.80;-18.10;-19.46;18.70;6.00
13:29:40;-18.10;-30.00;-29.99;12.10;-18.80;-18.10;-19.47;18.70;6.00
13:29:42;-18.10;-30.00;-29.99;12.10;-18.80;-18.10;-19.46;18.70;6.00
13:29:44;-18.10;-30.00;-30.00;12.10;-18.80;-18.10;-19.45;18.80;6.00
13:29:46;-18.10;-30.00;-30.02;12.10;-18.80;-18.10;-19.46;18.80;6.10
13:29:48;-18.10;-30.00;-29.98;12.10;-18.80;-18.10;-19.45;18.80;6.00
13:29:50;-18.10;-30.00;-29.98;12.10;-18.80;-18.10;-19.44;18.90;6.00
13:29:52;-18.10;-30.00;-29.99;12.10;-18.80;-18.10;-19.45;18.90;6.00
13:29:54;-18.10;-30.00;-29.99;12.10;-18.80;-18.10;-19.46;18.90;6.00
13:29:56;-18.10;-30.00;-30.00;12.10;-18.90;-18.10;-19.45;18.80;6.00
13:29:58;-18.10;-30.00;-30.00;12.10;-18.80;-18.10;-19.46;18.80;6.00
13:30:00;-18.10;-30.00;-30.01;12.10;-18.90;-18.10;-19.46;18.70;6.10
13:30:02;-18.10;-30.00;-30.00;12.10;-18.80;-18.10;-19.46;18.70;6.00
13:30:04;-18.10;-30.00;-30.00;12.10;-18.80;-18.10;-19.46;18.70;6.00
13:30:06;-18.10;-30.00;-30.00;12.10;-18.80;-18.10;-19.46;18.60;6.00
13:30:08;-18.10;-30.00;-29.98;12.10;-18.80;-18.10;-19.46;18.60;6.10
13:30:10;-18.10;-30.00;-30.00;12.10;-18.80;-18.10;-19.45;18.60;6.10
13:30:12;-18.10;-30.00;-30.02;12.10;-18.80;-18.10;-19.45;18.60;6.00
13:30:14;-18.10;-30.00;-30.02;12.10;-18.90;-18.10;-19.45;18.60;6.00
13:30:16;-18.10;-30.00;-30.01;12.10;-18.80;-18.10;-19.44;18.60;6.00
13:30:18;-18.10;-30.00;-30.00;12.10;-18.80;-18.10;-19.45;18.60;6.00
13:30:20;-18.10;-30.00;-30.01;12.10;-18.80;-18.10;-19.45;18.60;6.00
13:30:22;-18.10;-30.00;-30.01;12.10;-18.80;-18.10;-19.44;18.60;6.10
13:30:24;-18.10;-30.00;-30.01;12.10;-18.80;-18.10;-19.44;18.60;6.00
13:30:26;-18.10;-30.00;-30.01;12.10;-18.80;-18.10;-19.44;18.60;6.00
13:30:28;-18.10;-30.00;-30.03;12.10;-18.80;-18.10;-19.44;18.70;6.10
13:30:30;-18.10;-30.00;-30.03;12.10;-18.80;-18.10;-19.44;18.70;6.10
13:30:32;-18.10;-30.00;-30.01;12.10;-18.80;-18.10;-19.44;18.70;6.10
13:30:34;-18.10;-30.00;-30.01;12.10;-18.80;-18.10;-19.45;18.70;6.10
13:30:36;-18.10;-30.00;-30.00;12.10;-18.80;-18.10;-19.45;18.70;6.00
13:30:38;-18.10;-30.00;-29.99;12.10;-18.90;-18.10;-19.45;18.70;6.00
13:30:40;-18.10;-30.00;-30.00;12.10;-18.80;-18.10;-19.45;18.70;6.10
13:30:42;-18.10;-30.00;-30.00;12.10;-18.80;-18.10;-19.45;18.70;6.00
13:30:44;-18.10;-30.00;-30.00;12.10;-18.80;-18.10;-19.45;18.70;6.00
13:30:46;-18.10;-30.00;-30.00;12.10;-18.80;-18.10;-19.44;18.70;6.10
13:30:48;-18.10;-30.00;-30.00;12.10;-18.80;-18.10;-19.44;18.70;6.00
13:30:50;-18.10;-30.00;-29.98;12.10;-18.80;-18.10;-19.45;18.70;6.00
13:30:52;-18.10;-30.00;-29.99;12.10;-18.80;-18.10;-19.46;18.70;6.00
13:30:54;-18.10;-30.00;-30.02;12.10;-18.80;-18.10;-19.45;18.70;6.00
13:30:56;-18.10;-30.00;-30.02;12.10;-18.80;-18.10;-19.46;18.70;6.00
13:30:58;-18.10;-30.00;-30.00;12.10;-18.90;-18.10;-19.45;18.80;6.00
13:31:00;-18.10;-30.00;-29.99;12.10;-18.80;-18.10;-19.44;18.80;6.00
13:31:02;-18.10;-30.00;-29.96;12.10;-18.80;-18.10;-19.44;18.80;6.00
13:31:04;-18.10;-30.00;-29.96;12.10;-18.80;-18.20;-19.45;18.70;6.10
13:31:06;-18.10;-30.00;-29.99;12.10;-18.80;-18.10;-19.45;18.70;6.00
13:31:08;-18.10;-30.00;-30.00;12.10;-18.80;-18.10;-19.45;18.60;6.00
13:31:10;-18.10;-30.00;-30.00;12.10;-18.80;-18.20;-19.44;18.60;6.00
13:31:12;-18.10;-30.00;-29.99;12.10;-18.80;-18.10;-19.45;18.60;6.00
13:31:14;-18.10;-30.00;-30.00;12.10;-18.80;-18.10;-19.44;18.60;6.10
13:31:16;-18.10;-30.00;-30.00;12.10;-18.90;-18.10;-19.44;18.70;6.00
13:31:18;-18.10;-30.00;-30.00;12.10;-18.80;-18.10;-19.44;18.70;6.00
13:31:20;-18.10;-30.00;-30.00;12.10;-18.80;-18.10;-19.45;18.80;6.10
13:31:22;-18.10;-30.00;-30.00;12.10;-18.90;-18.10;-19.44;18.70;6.00
13:31:24;-18.10;-30.00;-30.00;12.10;-18.80;-18.10;-19.44;18.80;6.00
13:31:26;-18.10;-30.00;-30.01;12.10;-18.80;-18.10;-19.43;18.80;6.00
13:31:28;-18.10;-30.00;-30.03;12.10;-18.80;-18.10;-19.43;18.70;6.00
13:31:31;-18.10;-30.00;-30.03;12.10;-18.90;-18.10;-19.44;18.70;6.10
13:31:32;-18.10;-30.00;-30.02;12.10;-18.80;-18.10;-19.44;18.70;6.00
13:31:34;-18.10;-30.00;-29.98;12.10;-18.80;-18.10;-19.44;18.70;6.00
13:31:36;-18.10;-30.00;-29.99;12.10;-18.80;-18.10;-19.44;18.70;6.10
13:31:38;-18.10;-30.00;-30.01;12.00;-18.80;-18.10;-19.44;18.70;6.10
13:31:41;-18.10;-30.00;-30.01;12.10;-18.80;-18.10;-19.44;18.60;6.00
13:31:43;-18.10;-30.00;-30.01;12.10;-18.80;-18.10;-19.45;18.60;6.10
13:31:44;-18.10;-30.00;-30.01;12.10;-18.80;-18.10;-19.44;18.60;6.00
13:31:46;-18.10;-30.00;-30.01;12.10;-18.80;-18.10;-19.43;18.60;6.00
13:31:48;-18.10;-30.00;-30.01;12.10;-18.80;-18.10;-19.44;18.60;6.10
13:31:50;-18.10;-30.00;-30.01;12.10;-18.80;-18.10;-19.45;18.60;6.00
13:31:53;-18.10;-30.00;-30.01;12.00;-18.90;-18.10;-19.45;18.60;6.00
13:31:54;-18.10;-30.00;-30.01;12.00;-18.80;-18.10;-19.45;18.70;6.10
13:31:56;-18.10;-30.00;-30.01;12.00;-18.80;-18.10;-19.45;18.60;6.00
13:31:58;-18.10;-30.00;-30.00;12.10;-18.90;-18.10;-19.45;18.60;6.00
13:32:00;-18.10;-30.00;-30.01;12.10;-18.80;-18.10;-19.45;18.60;6.10
13:32:03;-18.10;-30.00;-30.01;12.10;-18.80;-18.20;-19.45;18.60;6.10
13:32:05;-18.10;-30.00;-30.00;12.00;-18.80;-18.10;-19.44;18.50;6.00
13:32:07;-18.10;-30.00;-30.00;12.00;-18.90;-18.10;-19.44;18.60;6.00
13:32:09;-18.10;-30.00;-30.01;12.00;-18.80;-18.10;-19.45;18.60;6.00
13:32:11;-18.10;-30.00;-30.00;12.10;-18.90;-18.10;-19.46;18.60;6.00
13:32:13;-18.10;-30.00;-29.96;12.00;-18.80;-18.10;-19.46;18.60;6.00
13:32:15;-18.10;-30.00;-29.97;12.10;-18.90;-18.10;-19.46;18.60;6.00
13:32:17;-18.10;-30.00;-30.00;12.00;-18.80;-18.10;-19.46;18.60;6.00
13:32:19;-18.10;-30.00;-29.99;12.00;-18.80;-18.10;-19.46;18.70;6.00
13:32:21;-18.10;-30.00;-29.99;12.00;-18.90;-18.10;-19.46;18.70;6.00
13:32:23;-18.10;-30.00;-30.00;12.00;-18.80;-18.10;-19.45;18.70;6.00
13:32:25;-18.10;-30.00;-30.02;12.10;-18.90;-18.10;-19.46;18.70;6.00
13:32:27;-18.10;-30.00;-30.02;12.10;-18.90;-18.20;-19.46;18.70;6.10
13:32:29;-18.10;-30.00;-30.01;12.00;-18.80;-18.20;-19.46;18.70;6.10
13:32:31;-18.10;-30.00;-30.00;12.00;-18.90;-18.20;-19.45;18.70;6.00
13:32:33;-18.10;-30.00;-30.01;12.00;-18.90;-18.10;-19.46;18.70;6.00
13:32:35;-18.10;-30.00;-29.99;12.00;-18.90;-18.20;-19.46;18.70;6.00
13:32:37;-18.10;-30.00;-29.99;12.10;-18.90;-18.20;-19.46;18.70;6.00
13:32:39;-18.10;-30.00;-30.00;12.10;-18.90;-18.10;-19.46;18.60;6.10
13:32:41;-18.10;-30.00;-30.00;12.10;-18.90;-18.20;-19.46;18.60;6.10
13:32:43;-18.10;-30.00;-30.02;12.00;-18.90;-18.10;-19.46;18.60;6.00
13:32:45;-18.10;-30.00;-30.02;12.10;-18.90;-18.10;-19.44;18.70;6.00
13:32:47;-18.10;-30.00;-30.03;12.00;-18.90;-18.20;-19.43;18.70;6.00
13:32:49;-18.10;-30.00;-30.02;12.00;-18.90;-18.20;-19.43;18.70;6.10
13:32:51;-18.10;-30.00;-30.01;12.00;-18.90;-18.20;-19.44;18.70;6.00
13:32:53;-18.10;-30.00;-30.00;12.10;-18.90;-18.20;-19.43;18.70;6.10
13:32:55;-18.10;-30.00;-30.02;12.10;-18.90;-18.10;-19.43;18.70;6.00
13:32:57;-18.10;-30.00;-30.01;12.00;-18.90;-18.10;-19.43;18.60;6.00
13:32:59;-18.10;-30.00;-30.00;12.10;-18.90;-18.10;-19.43;18.70;6.00
13:33:01;-18.10;-30.00;-29.99;12.10;-18.90;-18.10;-19.42;18.70;6.00
13:33:03;-18.10;-30.00;-30.00;12.10;-18.90;-18.10;-19.43;18.70;6.00
13:33:05;-18.10;-30.00;-30.00;12.00;-18.90;-18.10;-19.41;18.70;5.90
13:33:07;-18.10;-30.00;-30.00;12.00;-18.90;-18.10;-19.41;18.70;6.00
13:33:09;-18.10;-30.00;-30.00;12.00;-18.90;-18.10;-19.41;18.70;6.00
13:33:11;-18.10;-30.00;-30.00;12.00;-18.90;-18.10;-19.42;18.60;6.00
13:33:13;-18.10;-30.00;-29.99;12.10;-18.90;-18.10;-19.43;18.60;5.90
13:33:15;-18.10;-30.00;-29.98;12.00;-18.90;-18.10;-19.43;18.50;6.00
13:33:17;-18.10;-30.00;-29.99;12.00;-18.90;-18.10;-19.43;18.50;6.00
13:33:19;-18.10;-30.00;-29.99;12.00;-18.80;-18.10;-19.41;18.50;6.00
13:33:21;-18.10;-30.00;-29.98;12.10;-18.90;-18.10;-19.41;18.40;6.00
13:33:23;-18.10;-30.00;-29.98;12.00;-18.90;-18.10;-19.40;18.50;6.10
13:33:25;-18.10;-30.00;-30.00;12.00;-18.90;-18.10;-19.41;18.40;6.00
13:33:27;-18.10;-30.00;-29.99;12.10;-18.90;-18.10;-19.41;18.30;6.00
13:33:29;-18.10;-30.00;-30.01;12.00;-18.90;-18.10;-19.41;18.30;6.00
13:33:31;-18.10;-30.00;-30.02;12.00;-18.90;-18.10;-19.40;18.30;6.00
13:33:33;-18.10;-30.00;-30.02;12.00;-18.90;-18.10;-19.40;18.30;6.00
13:33:35;-18.10;-30.00;-30.01;12.00;-18.90;-18.10;-19.39;18.30;6.00
13:33:37;-18.10;-30.00;-30.00;12.00;-18.90;-18.10;-19.39;18.30;6.00
13:33:39;-18.10;-30.00;-29.99;12.00;-18.90;-18.10;-19.40;18.30;6.00
13:33:41;-18.10;-30.00;-30.01;12.00;-18.80;-18.10;-19.40;18.30;6.00
13:33:43;-18.10;-30.00;-30.02;12.00;-18.90;-18.10;-19.39;18.40;6.10
13:33:45;-18.10;-30.00;-30.02;12.00;-18.90;-18.10;-19.39;18.30;6.00
13:33:47;-18.10;-30.00;-30.02;12.00;-18.80;-18.10;-19.40;18.40;6.00
13:33:49;-18.10;-30.00;-30.01;12.00;-18.90;-18.10;-19.40;18.50;6.00
13:33:51;-18.10;-30.00;-30.00;12.00;-18.90;-18.10;-19.40;18.50;6.10
13:33:53;-18.10;-30.00;-30.00;12.00;-18.90;-18.10;-19.40;18.50;6.00
13:33:55;-18.10;-30.00;-30.00;12.00;-18.90;-18.10;-19.39;18.50;6.00
13:33:57;-18.10;-30.00;-30.00;12.00;-18.90;-18.10;-19.38;18.60;5.90
13:33:59;-18.10;-30.00;-30.00;12.00;-18.90;-18.10;-19.39;18.60;6.00
13:34:01;-18.10;-30.00;-30.02;12.00;-18.90;-18.10;-19.40;18.60;6.10
13:34:03;-18.10;-30.00;-30.02;12.00;-18.90;-18.10;-19.41;18.60;6.10
13:34:05;-18.10;-30.00;-30.01;12.00;-18.90;-18.10;-19.40;18.60;6.00
13:34:07;-18.10;-30.00;-30.01;12.00;-18.90;-18.10;-19.40;18.60;6.00
13:34:09;-18.10;-30.00;-30.01;12.00;-18.90;-18.10;-19.41;18.60;6.00
13:34:11;-18.10;-30.00;-30.02;12.00;-18.90;-18.10;-19.40;18.60;6.00
13:34:13;-18.10;-30.00;-30.01;12.00;-18.90;-18.10;-19.40;18.60;6.00
13:34:15;-18.10;-30.00;-30.00;12.00;-18.90;-18.10;-19.41;18.50;6.00
13:34:17;-18.10;-30.00;-30.00;12.00;-18.90;-18.10;-19.40;18.50;6.00
13:34:19;-18.10;-30.00;-30.00;12.00;-18.90;-18.10;-19.40;18.50;6.00
13:34:21;-18.10;-30.00;-29.99;12.00;-18.90;-18.10;-19.40;18.50;6.00
13:34:23;-18.10;-30.00;-30.01;12.00;-18.90;-18.10;-19.40;18.50;6.00
13:34:25;-18.10;-30.00;-30.02;12.00;-18.90;-18.20;-19.39;18.50;6.00
13:34:27;-18.10;-30.00;-30.02;12.00;-18.90;-18.10;-19.39;18.50;6.10
13:34:29;-18.10;-30.00;-30.02;12.00;-18.90;-18.10;-19.39;18.50;6.00
13:34:31;-18.10;-30.00;-30.01;12.00;-18.90;-18.20;-19.39;18.50;6.00
13:34:33;-18.10;-30.00;-29.99;12.00;-18.90;-18.10;-19.39;18.50;6.00
13:34:35;-18.10;-30.00;-30.00;12.00;-18.90;-18.20;-19.39;18.50;6.00
13:34:37;-18.10;-30.00;-30.00;12.00;-18.90;-18.10;-19.39;18.50;6.00
13:34:39;-18.10;-30.00;-30.00;12.00;-18.90;-18.10;-19.39;18.70;6.00
13:34:41;-18.10;-30.00;-29.99;12.00;-18.90;-18.10;-19.39;18.70;6.00
13:34:43;-18.10;-30.00;-30.00;12.00;-18.90;-18.20;-19.39;18.70;6.00
13:34:45;-18.10;-30.00;-30.00;12.00;-18.80;-18.10;-19.40;18.70;6.00
13:34:47;-18.10;-30.00;-29.99;12.00;-18.90;-18.10;-19.40;18.60;5.90
13:34:49;-18.10;-30.00;-30.00;12.00;-18.90;-18.10;-19.39;18.60;6.10
13:34:51;-18.10;-30.00;-30.00;12.00;-18.90;-18.10;-19.39;18.60;5.90
13:34:53;-18.10;-30.00;-29.99;12.00;-18.80;-18.10;-19.39;18.70;5.90
13:34:55;-18.10;-30.00;-29.99;12.00;-18.90;-18.10;-19.37;18.70;5.90
13:34:57;-18.10;-30.00;-30.00;12.00;-18.90;-18.10;-19.37;18.70;6.00
13:34:59;-18.10;-30.00;-30.00;12.00;-18.90;-18.10;-19.37;18.70;6.10
13:35:01;-18.10;-30.00;-30.01;12.00;-18.90;-18.10;-19.36;18.70;6.10
13:35:03;-18.10;-30.00;-30.04;12.00;-18.90;-18.10;-19.37;18.60;5.90
13:35:05;-18.10;-30.00;-30.03;12.00;-18.90;-18.10;-19.36;18.60;5.90
13:35:07;-18.10;-30.00;-30.02;12.00;-18.90;-18.10;-19.38;18.60;6.00
13:35:09;-18.10;-30.00;-30.02;12.00;-18.90;-18.10;-19.38;18.60;6.00
13:35:11;-18.10;-30.00;-29.99;12.00;-18.90;-18.10;-19.39;18.60;5.90
13:35:13;-18.10;-30.00;-29.99;12.00;-18.90;-18.10;-19.39;18.60;6.00
13:35:15;-18.10;-30.00;-30.00;12.00;-18.90;-18.10;-19.39;18.60;5.90
13:35:17;-18.10;-30.00;-30.01;12.00;-18.90;-18.10;-19.39;18.60;6.00
13:35:19;-18.10;-30.00;-30.00;12.00;-18.90;-18.10;-19.39;18.50;6.00
13:35:21;-18.10;-30.00;-29.99;12.00;-18.90;-18.10;-19.39;18.40;6.00
13:35:23;-18.10;-30.00;-30.00;12.00;-18.90;-18.10;-19.39;18.50;6.00
13:35:25;-18.10;-30.00;-30.01;12.00;-18.80;-18.10;-19.38;18.50;6.00
13:35:27;-18.10;-30.00;-29.99;12.00;-18.90;-18.20;-19.39;18.50;5.90
13:35:29;-18.10;-30.00;-29.99;12.00;-18.90;-18.10;-19.39;18.50;6.00
13:35:31;-18.10;-30.00;-30.00;12.00;-18.90;-18.10;-19.38;18.50;6.00
13:35:33;-18.10;-30.00;-30.01;12.00;-18.90;-18.10;-19.38;18.60;5.90
13:35:35;-18.10;-30.00;-30.00;12.00;-18.90;-18.10;-19.38;18.60;6.00
13:35:37;-18.10;-30.00;-29.99;12.00;-18.90;-18.10;-19.38;18.60;6.00
13:35:39;-18.10;-30.00;-29.99;12.00;-18.90;-18.10;-19.38;18.60;5.90
13:35:41;-18.10;-30.00;-29.99;12.00;-18.90;-18.10;-19.38;18.50;6.00
13:35:43;-18.10;-30.00;-30.00;12.00;-18.80;-18.10;-19.38;18.50;5.90
13:35:45;-18.10;-30.00;-30.02;12.00;-18.90;-18.10;-19.38;18.50;6.00
13:35:47;-18.10;-30.00;-30.03;12.00;-18.90;-18.10;-19.37;18.50;6.00
13:35:49;-18.10;-30.00;-29.99;12.00;-18.90;-18.10;-19.38;18.60;5.90
13:35:51;-18.10;-30.00;-29.99;12.00;-18.80;-18.10;-19.38;18.60;6.00
13:35:53;-18.10;-30.00;-29.99;12.00;-18.90;-18.10;-19.38;18.60;5.90
13:35:55;-18.10;-30.00;-29.99;12.00;-18.80;-18.10;-19.38;18.60;5.90
13:35:57;-18.10;-30.00;-29.98;12.00;-18.80;-18.10;-19.38;18.60;6.00
13:35:59;-18.10;-30.00;-29.96;12.00;-18.90;-18.10;-19.39;18.60;6.00
13:36:01;-18.10;-30.00;-29.96;12.00;-18.90;-18.10;-19.39;18.60;6.00
13:36:03;-18.10;-30.00;-29.99;12.00;-18.90;-18.10;-19.39;18.60;6.00
13:36:05;-18.10;-30.00;-29.99;12.00;-18.90;-18.10;-19.39;18.50;6.00
13:36:07;-18.10;-30.00;-30.00;12.00;-18.80;-18.10;-19.38;18.40;5.90
13:36:09;-18.10;-30.00;-30.00;12.00;-18.90;-18.10;-19.39;18.40;5.90
13:36:11;-18.10;-30.00;-30.01;12.00;-18.80;-18.10;-19.38;18.40;5.90
13:36:13;-18.10;-30.00;-30.03;12.00;-18.80;-18.10;-19.39;18.40;6.00
13:36:15;-18.10;-30.00;-30.03;12.00;-18.90;-18.10;-19.39;18.40;5.90
13:36:17;-18.10;-30.00;-30.04;12.00;-18.90;-18.10;-19.38;18.40;5.90
13:36:19;-18.10;-30.00;-30.03;12.00;-18.80;-18.10;-19.38;18.40;5.90
13:36:21;-18.10;-30.00;-30.01;12.00;-18.90;-18.10;-19.37;18.40;5.90
13:36:23;-18.10;-30.00;-30.01;12.00;-18.80;-18.10;-19.36;18.30;6.00
13:36:25;-18.10;-30.00;-30.01;12.00;-18.90;-18.10;-19.37;18.40;6.00
13:36:27;-18.10;-30.00;-30.01;12.00;-18.80;-18.10;-19.37;18.40;6.00
13:36:29;-18.10;-30.00;-30.00;12.00;-18.80;-18.10;-19.37;18.40;6.00
13:36:31;-18.10;-30.00;-30.00;12.00;-18.80;-18.10;-19.38;18.40;6.00
13:36:33;-18.10;-30.00;-29.99;12.00;-18.80;-18.10;-19.38;18.40;5.90
13:36:35;-18.10;-30.00;-30.00;12.00;-18.80;-18.10;-19.37;18.40;5.90
13:36:37;-18.10;-30.00;-30.00;12.00;-18.80;-18.10;-19.37;18.40;6.00
13:36:39;-18.10;-30.00;-30.00;12.00;-18.80;-18.10;-19.37;18.40;5.90
13:36:41;-18.10;-30.00;-30.00;12.00;-18.80;-18.10;-19.37;18.50;5.90
13:36:43;-18.10;-30.00;-30.00;12.00;-18.80;-18.10;-19.36;18.50;5.90
13:36:45;-18.10;-30.00;-30.00;12.00;-18.90;-18.10;-19.36;18.50;5.90
13:36:47;-18.10;-30.00;-29.96;12.00;-18.80;-18.10;-19.37;18.50;5.90
13:36:49;-18.10;-30.00;-29.98;12.00;-18.90;-18.10;-19.37;18.60;6.00
13:36:51;-18.10;-30.00;-30.00;12.00;-18.80;-18.10;-19.36;18.50;6.00
13:36:53;-18.10;-30.00;-30.01;12.00;-18.80;-18.10;-19.36;18.50;5.90
13:36:55;-18.10;-30.00;-30.01;12.00;-18.80;-18.10;-19.36;18.50;6.00
13:36:57;-18.10;-30.00;-30.01;12.00;-18.90;-18.10;-19.37;18.50;6.00
13:36:59;-18.10;-30.00;-30.01;12.00;-18.90;-18.10;-19.36;18.50;6.00
13:37:01;-18.10;-30.00;-30.01;12.00;-18.90;-18.10;-19.37;18.50;6.00
13:37:03;-18.10;-30.00;-30.01;12.00;-18.80;-18.10;-19.36;18.50;5.90
13:37:05;-18.10;-30.00;-30.01;12.00;-18.90;-18.10;-19.36;18.50;6.00
13:37:07;-18.10;-30.00;-30.01;12.00;-18.80;-18.10;-19.36;18.50;5.90
13:37:09;-18.10;-30.00;-30.02;12.00;-18.80;-18.10;-19.37;18.50;6.00
13:37:11;-18.10;-30.00;-30.03;12.00;-18.80;-18.10;-19.37;18.60;5.90
13:37:13;-18.10;-30.00;-30.01;12.00;-18.80;-18.10;-19.37;18.60;5.90
13:37:15;-18.10;-30.00;-29.99;12.00;-18.80;-18.10;-19.37;18.60;5.90
13:37:17;-18.10;-30.00;-29.98;12.00;-18.80;-18.10;-19.36;18.60;5.90
13:37:19;-18.10;-30.00;-29.99;12.00;-18.80;-18.10;-19.35;18.50;5.90
13:37:21;-18.10;-30.00;-30.00;12.00;-18.90;-18.10;-19.36;18.60;5.90
13:37:23;-18.10;-30.00;-30.01;12.00;-18.80;-18.10;-19.36;18.60;6.00
13:37:25;-18.10;-30.00;-30.02;12.00;-18.80;-18.10;-19.36;18.60;6.00
13:37:27;-18.10;-30.00;-30.01;12.00;-18.80;-18.10;-19.35;18.60;6.00
13:37:29;-18.10;-30.00;-30.00;12.00;-18.80;-18.10;-19.35;18.60;6.00
13:37:31;-18.10;-30.00;-30.00;12.00;-18.80;-18.10;-19.35;18.60;5.90
13:37:33;-18.10;-30.00;-30.01;12.00;-18.80;-18.10;-19.35;18.50;6.00
13:37:35;-18.10;-30.00;-30.00;12.00;-18.80;-18.10;-19.35;18.50;5.90
13:37:37;-18.10;-30.00;-30.01;12.00;-18.80;-18.10;-19.35;18.40;5.90
13:37:39;-18.10;-30.00;-30.00;12.00;-18.80;-18.10;-19.35;18.40;6.00
13:37:41;-18.10;-30.00;-30.00;12.00;-18.80;-18.10;-19.35;18.40;5.80
